```json
{"output": {"n_components": 4, "deflation_mode": "canonical", "mode": "A", "norm_y_weights": true, "scale": true, "algorithm": "nipals", "max_iter": 500, "tol": 1e-06, "copy": true, "x_mean_": [9.45, 145.55, 70.3], "y_mean_": [178.6, 35.4, 56.1], "x_std_": [5.28627817, 62.56657507, 51.27747017], "y_std_": [24.69050531, 3.20197308, 7.21037265], "x_scores_": [[-0.37144963, 0.08834474, -0.77629131], [-1.34032462, 0.58525462, -0.48681539], [-0.08234773, 0.55713741, 0.99582334], [-0.35496624, -0.57671913, 0.64529355], [0.46311639, -0.54077537, 0.24364145], [-1.30584182, 0.15979452, -0.22450351], [-0.86179044, -0.22453317, 0.22807026], [-0.79728431, -0.15277224, -0.29499451], [1.14229579, -1.23714203, -0.16179691], [3.03443986, 2.00426526, 0.43112078], [0.40921541, -1.02796281, 1.05374959], [1.40508474, 0.17526995, -0.16833691], [1.53073915, -0.10252255, -0.15935972], [-2.22273126, 0.79091129, 0.09024002], [-1.4989723, -0.03347552, 0.34278396], [1.31409526, 0.34096371, -0.26266368], [-1.88043297, 0.06963254, 0.20252117], [1.23661945, -0.37681146, -0.81599295], [1.60595918, -0.78826409, -0.31570296], [-1.42542392, 0.28940431, -0.56678627]], "y_scores_": [[-0.64288136, -0.23024925, 0.60553451], [-0.76973472, 0.04985547, 0.30739277], [-0.90741824, 0.15767509, -0.58764388], [0.68842033, 0.39630537, -0.53961032], [-0.4867215, -0.39517955, 1.21454382], [-0.22908102, 0.03389675, -0.06624591], [-1.40372301, -0.3658516, -0.55001868], [0.74359943, 0.02910505, -0.27872889], [1.71507706, -0.88877411, -2.03343526], [1.16256493, 0.1835253, 0.46690159], [0.36452068, -0.03372398, 1.00236654], [0.74334951, -0.16676324, 0.84023456], [1.18670627, 0.40842546, -0.63964175], [-4.3897548, 0.35484532, -0.70793981], [-0.82318257, -0.2902191, 1.10306855], [-0.74902729, -0.32279353, -1.16000427], [-0.39288706, 0.42822282, 0.20766703], [1.19926768, -0.12656434, 1.01381036], [1.0485229, 0.12450851, 0.7032485], [1.94238276, 0.65375355, -0.90149946]], "x_weights_": [[0.61330704, -0.25616119, 0.74715187], [0.74697144, -0.11930791, -0.65406368], [0.25668686, 0.95924297, 0.11817271]], "y_weights_": [[-0.58989127, -0.7890047, -0.1717553], [-0.77134053, 0.61351791, -0.16920272], [0.2388767, 0.03267062, -0.97050016]], "x_loadings_": [[0.61470416, -0.37877695, 0.74715187], [0.65625755, -0.01196893, -0.65406368], [0.51733059, 0.93984954, 0.11817271]], "y_loadings_": [[-0.66591533, -0.77358148, -0.1717553], [-0.67602364, 0.62871191, -0.16920272], [0.35892128, 0.11981924, -0.97050016]], "n_iter_": [2, 1, 1], "x_rotations_": [[0.61330704, -0.41591889, 0.62297525], [0.74697144, -0.31388326, -0.77368233], [0.25668686, 0.89237972, 0.24121788]], "y_rotations_": [[-0.58989127, -0.7168115, -0.30665872], [-0.77134053, 0.70791757, -0.19786539], [0.2388767, 0.00343595, -0.94162826]], "coef_": [[-4.78163036, -2.50238141, -3.13149159], [-3.00536333, -1.82961809, 7.07592453], [-22.28788663, 1.11015177, -0.25270452]]}}
```