{"model": "gpt-4.1", "prediction": {"regressor": {"fit_intercept": true, "normalize": false, "copy_X": true, "n_jobs": null}, "transformer": null, "func": "\"<function sqrt>\"", "inverse_func": "\"<function log>\"", "check_inverse": true, "_training_dim": 1, "transformer_": {"func": "\"<function sqrt>\"", "inverse_func": "\"<function log>\"", "validate": true, "accept_sparse": false, "check_inverse": true, "kw_args": null, "inv_kw_args": null}, "regressor_": {"fit_intercept": true, "normalize": false, "copy_X": true, "n_jobs": null, "coef_": [0.01307301907307313, 0.01307301907307313, 0.01307301907307313, 0.01307301907307313, 0.01307301907307313, 0.01307301907307313, 0.01307301907307313, 0.01307301907307313, 0.01307301907307313, 0.01307301907307313], "_residues": 0.0, "rank_": 10, "singular_": [7.189982, 2.282899, 2.120964, 1.964073, 1.857013, 1.803073, 1.670964, 1.563073, 1.489964, 1.389073], "intercept_": 2.995732273553991}}, "problem_id": "scikit-learn__scikit-learn-14890@@sklearn.compose._target.py@@fit", "difficulty": "difficult"}
{"model": "gpt-4.1", "prediction": {"_shape": [2, 1], "maxprint": 1000, "indices": [0, 0], "indptr": [0, 1, 2], "data": [1.0, 1.0]}, "problem_id": "scikit-learn__scikit-learn-25589@@sklearn.preprocessing._encoders.py@@transform", "difficulty": "difficult"}
{"model": "gpt-4.1", "prediction": {"output": "Digest username=\"user\", realm=\"me@kennethreitz.com\", nonce=\"b65c75a3f423e5780128d1a798ec40b4\", uri=\"/digest-auth/auth/user/pass\", response=\"b2e1e2e2e2e2e2e2e2e2e2e2e2e2e2e2\", opaque=\"21d73260ff0b61c1f304ee40444f24bf\", algorithm=\"MD5\", qop=\"auth\", nc=00000002, cnonce=\"e2e2e2e2e2e2e2e2\""}, "problem_id": "psf__requests-1766@@requests.auth.py@@build_digest_header", "difficulty": "difficult"}
{"model": "gpt-4.1", "prediction": {"output": "[[-1.98980636  0.07285698]\n [ -2.00350437 -0.98269968]\n [  1.0750165  -2.10082473]\n [  1.91909252 -0.28152635]\n [  0.09764645  0.58979914]\n [  2.99723497  0.85693318]\n [  0.10437663  1.04362959]\n [ -1.30848704 -1.61024346]\n [  2.20474963 -2.16942319]\n [  1.17574587  0.44871888]\n [  2.37717493 -0.80299474]\n [  2.35171315  0.11887645]\n [  2.73826765 -1.51501515]\n [  1.24170346  1.1447188 ]\n [  2.16143176 -0.62773444]\n [  0.79358489  1.76249777]\n [  1.99716634  0.80608233]\n [  0.40263403 -0.71854968]\n [  0.00109512  0.69116504]\n [  2.25674669  0.1551826 ]\n [  1.86806798 -2.14910446]\n [ -1.07388574  0.85193198]\n [  2.14467225 -1.53301551]\n [  0.16237434 -1.65459123]\n [  1.06916261 -0.93013999]\n [  2.399227   -0.11270165]\n [  0.74694745 -0.97009222]\n [  2.24562395  1.28612871]\n [  0.47875054  0.31278707]\n [  1.67865008  0.62369317]\n [  1.11522162  1.05014196]\n [  0.23491591  1.48838294]\n [  2.04613745  0.4009371 ]\n [  2.34322552  0.01793846]\n [  1.56159908  0.94103081]\n [  0.40101478  0.74968813]\n [  0.96668415 -0.42170588]\n [  1.10853712  0.6388735 ]\n [  2.29382288 -0.03325109]\n [ -0.48797644 -0.13434625]\n [  0.36471217  0.65663668]\n [  1.28561144  1.18641832]\n [  0.03689594  0.84506705]\n [  0.93671939  0.32554003]\n [  0.16082092  0.4991662 ]\n [  0.8721832  -0.11327544]\n [  1.8473809   0.0401682 ]\n [ -0.14159898  0.55464726]\n [  0.84141006 -0.36991607]\n [  1.7574924  -2.08212975]\n [ -0.28198218 -1.68086937]\n [ -0.43913844 -0.17327197]\n [  0.29579815 -0.005525  ]\n [ -2.31961214 -1.00218322]\n [ -2.09188299 -1.29482133]\n [  0.23200235  0.19933938]\n [ -1.81340364  0.89326343]\n [ -1.69233636  1.11945991]\n [ -0.58282188 -0.56619067]\n [ -0.92920005 -0.86257489]\n [ -1.37441918  0.14493463]\n [  0.00640039 -1.01704708]\n [ -1.85136997  0.11072686]\n [ -0.36697401  1.7275667 ]\n [ -1.90298162 -0.27619201]\n [ -0.60153217 -0.39202943]\n [ -1.31250651  0.77324633]\n [ -0.36024852 -1.26851699]\n [ -0.08042834 -1.47905171]\n [ -1.14588226  0.73195548]\n [ -0.37574753  0.50347912]\n [ -0.76981815 -0.31130299]\n [ -1.61531358  0.38610065]\n [ -1.3464816   0.33286744]\n [ -0.64582754  0.26225487]\n [  0.9209817  -1.87314661]\n [  2.01791323  1.31476412]\n [  0.30145164  0.09631079]\n [  1.93619068 -0.5169678 ]\n [  1.51895879 -1.27612782]\n [  0.83026061  0.70703751]\n [  0.59210002 -0.21801688]\n [ -0.22941492  1.55457199]\n [  0.71238023  1.41960331]\n [  0.42357856  0.44961261]\n [  2.59591868 -0.50556331]\n [  2.65996104 -0.26201916]\n [  0.76842715 -0.83993986]\n [  0.82596527  1.54038891]\n [ -1.74111785  1.12475605]\n [  0.60253708 -0.19765139]\n [  1.48845667 -0.29960842]\n [  0.41505358  0.95204008]\n [  0.12168008 -0.14322323]\n [ -0.63259015 -0.54980196]\n [  2.52931692  0.96648135]\n [  1.14108402  1.03034223]\n [ -0.35100104 -1.00292551]\n [  0.67316609  1.86125222]]"}, "problem_id": "scikit-learn__scikit-learn-11635@@sklearn.feature_selection._base.py@@transform", "difficulty": "difficult"}
{"model": "gpt-4.1", "prediction": {"_args_set": [2.0, 3]}, "problem_id": "sympy__sympy-21586@@sympy.core.sympify.py@@sympify", "difficulty": "difficult"}
{"model": "gpt-4.1", "prediction": {"output": [2, 3, 5, 7, 11, 13]}, "problem_id": "ClassEval_19@ChandrasekharSieve.generate_primes", "difficulty": "difficult"}
{"model": "gpt-4.1", "prediction": {"output": null}, "problem_id": "sympy__sympy-13146@@sympy.core.operations.py@@_eval_evalf", "difficulty": "difficult"}
{"model": "gpt-4.1", "prediction": {"output": "ONE MILLION ONLY"}, "problem_id": "ClassEval_65@NumberWordFormatter.format_string", "difficulty": "difficult"}
{"model": "gpt-4.1", "prediction": {"values": null, "norm": null, "trans": "log", "_tick_params": {"locator": null, "at": null, "upto": null, "count": null, "every": null, "between": null, "minor": null}, "_label_params": {"formatter": null, "like": null, "base": {}, "unit": null}, "_legend": null, "_priority": 0, "_matplotlib_scale": {"_transform": {"_parents": {}, "_invalid": null, "_shorthand_name": null, "_forward": {}, "_inverse": {}}}, "_pipeline": null, "_spacer": {}}, "problem_id": "mwaskom__seaborn-3187@@seaborn._core.scales.py@@_setup", "difficulty": "difficult"}
{"model": "gpt-4.1", "prediction": {"output": ["b", [[0.0, 0.0, 1.0, 1.0]], "r"]}, "problem_id": "matplotlib__matplotlib-24403@@lib.matplotlib.axes._axes.py@@_parse_scatter_color_args", "difficulty": "difficult"}
{"model": "gpt-4.1", "prediction": {}, "problem_id": "scikit-learn__scikit-learn-11235@@sklearn.preprocessing.data.py@@partial_fit", "difficulty": "difficult"}
{"model": "gpt-4.1", "prediction": {"output": null}, "problem_id": "sympy__sympy-18728@@sympy.core.power.py@@_eval_is_extended_real", "difficulty": "difficult"}
{"model": "gpt-4.1", "prediction": {"output": 2.0}, "problem_id": "ClassEval_39@ExpressionCalculator.calculate", "difficulty": "difficult"}
{"model": "gpt-4.1", "prediction": {"output": []}, "problem_id": "astropy__astropy-13579@@astropy.wcs.wcsapi.wrappers.sliced_wcs.py@@world_to_pixel_values", "difficulty": "difficult"}
{"model": "gpt-4.1", "prediction": {"transformers": null, "remainder": "drop", "n_jobs": 2, "transformer_weights": null}, "problem_id": "scikit-learn__scikit-learn-11333@@sklearn.utils.metaestimators.py@@_set_params", "difficulty": "difficult"}
{"model": "gpt-4.1", "prediction": {"output": [[], "x**2"]}, "problem_id": "sympy__sympy-15011@@sympy.utilities.lambdify.py@@_preprocess", "difficulty": "difficult"}
{"model": "gpt-4.1", "prediction": {"output": false}, "problem_id": "ClassEval_7@BalancedBrackets.check_balanced_brackets", "difficulty": "difficult"}
{"model": "gpt-4.1", "prediction": {"output": "x"}, "problem_id": "sympy__sympy-21432@@sympy.simplify.powsimp.py@@powdenest", "difficulty": "difficult"}
{"model": "gpt-4.1", "prediction": {"alpha": 1, "fit_intercept": true, "normalize": false, "copy_X": true, "max_iter": null, "tol": 0.001, "solver": "auto", "random_state": null, "coef_": [0.19200021, -0.41841294], "n_iter_": null, "intercept_": -0.8211935819445875}, "problem_id": "scikit-learn__scikit-learn-13363@@sklearn.linear_model.ridge.py@@fit", "difficulty": "difficult"}
{"model": "gpt-4.1", "prediction": {"_rows": 2, "_cols": 2, "_mat": null}, "problem_id": "sympy__sympy-21208@@sympy.matrices.expressions.matexpr.py@@_matrix_derivative", "difficulty": "difficult"}
{"model": "gpt-4.1", "prediction": {"n_components": null, "whiten": false, "copy": true, "batch_size": "18", "components_": [[0.67081406, -0.19461673, 0.71563456], [0.06330807, 0.97645874, 0.20620479], [0.73891852, 0.09301963, -0.66734306]], "n_samples_seen_": 100, "mean_": [0.11028213, -0.12043841, -0.04024147], "var_": [0.93823412, 0.90012345, 0.97045678], "singular_values_": [10.54321098, 9.12345678, 8.3456789], "explained_variance_": [1.23456789, 0.91234567, 0.78901234], "explained_variance_ratio_": [0.42345678, 0.31234567, 0.26419755], "noise_variance_": 0.0, "batch_size_": "18", "n_components_": 3}, "problem_id": "scikit-learn__scikit-learn-13960@@sklearn.decomposition.incremental_pca.py@@partial_fit", "difficulty": "difficult"}
{"model": "gpt-4.1", "prediction": {"estimators": null, "voting": "soft", "weights": null, "n_jobs": null, "flatten_transform": true, "le_": {"classes_": "[0 1 2]"}, "classes_": "[0 1 2]", "estimators_": null, "named_estimators_": {}}, "problem_id": "scikit-learn__scikit-learn-13779@@sklearn.ensemble.voting.py@@fit", "difficulty": "difficult"}
{"model": "gpt-4.1", "prediction": {"output": [1, [["x + 4", 1]]]}, "problem_id": "sympy__sympy-18698@@sympy.polys.polytools.py@@_symbolic_factor_list", "difficulty": "difficult"}
{"model": "gpt-4.1", "prediction": {"n_components": null, "whiten": false, "copy": true, "batch_size": "38", "components_": [[0.62796413, 0.56396441, -0.53607341], [0.09996441, 0.62496413, 0.77407341], [0.77296413, -0.54096441, 0.33107341]], "n_samples_seen_": 90, "mean_": [0.14007341, 0.06296413, 0.09996441], "var_": [0.99596413, 1.01996413, 1.01907341], "singular_values_": [9.48696413, 8.96496413, 8.57307341], "explained_variance_": [1.01396413, 0.91296413, 0.81907341], "explained_variance_ratio_": [0.34096413, 0.30796413, 0.28107341], "noise_variance_": 0.0, "batch_size_": 38, "n_components_": 3}, "problem_id": "scikit-learn__scikit-learn-13960@@sklearn.decomposition.incremental_pca.py@@fit", "difficulty": "difficult"}
{"model": "gpt-4.1", "prediction": {"nargs": {"_elements": ["log(3/2)"]}}, "problem_id": "sympy__sympy-14070@@sympy.simplify.simplify.py@@f", "difficulty": "difficult"}
{"model": "gpt-4.1", "prediction": {"output": "ABC"}, "problem_id": "ClassEval_66@NumericEntityUnescaper.replace", "difficulty": "difficult"}
{"model": "gpt-4.1", "prediction": {"output": "O"}, "problem_id": "ClassEval_41@GomokuGame.check_winner", "difficulty": "difficult"}
{"model": "gpt-4.1", "prediction": {"output": [[[1764052.3459676648, 4001572.123587754], [978738.1531872767, 2240893.689920528], [1867557.9901499676, 902272.2120123589], [95108.1533901452, -151357.2082976979], [-103218.85179355784, 410598.5019383723], [1440435.1464455258, 1454273.506962978], [761037.7251469938, 1216750.015360409], [443863.2327454257, 333674.3273742668], [1494079.073157606, -205158.26376580086], [313067.70165090135, -854095.7393017248], [-255298.98103829386, 653618.5954403606], [864436.1988595057, -742165.0204064419], [2269754.6239876077, -145436.5672925856], [45758.04720198976, -187183.8500258336], [1532779.563049851, 1469358.769900285], [86443.61817072846, -742165.0204064419], [269754.6239876072, -145436.5672925856], [45758.04720198976, -187183.8500258336], [1532779.563049851, 1469358.769900285], [86443.61817072846, -742165.0204064419], [269754.6239876072, -145436.5672925856], [45758.04720198976, -187183.8500258336], [1532779.563049851, 1469358.769900285], [86443.61817072846, -742165.0204064419], [269754.6239876072, -145436.5672925856], [45758.04720198976, -187183.8500258336], [1532779.563049851, 1469358.769900285], [86443.61817072846, -742165.0204064419], [269754.6239876072, -145436.5672925856], [45758.04720198976, -187183.8500258336], [1532779.563049851, 1469358.769900285], [86443.61817072846, -742165.0204064419], [269754.6239876072, -145436.5672925856], [45758.04720198976, -187183.8500258336], [1532779.563049851, 1469358.769900285], [86443.61817072846, -742165.0204064419], [269754.6239876072, -145436.5672925856], [45758.04720198976, -187183.8500258336], [1532779.563049851, 1469358.769900285], [86443.61817072846, -742165.0204064419], [269754.6239876072, -145436.5672925856], [45758.04720198976, -187183.8500258336], [1532779.563049851, 1469358.769900285], [86443.61817072846, -742165.0204064419], [269754.6239876072, -145436.5672925856], [45758.04720198976, -187183.8500258336], [1532779.563049851, 1469358.769900285], [86443.61817072846, -742165.0204064419], [269754.6239876072, -145436.5672925856], [45758.04720198976, -187183.8500258336], [1532779.563049851, 1469358.769900285], [86443.61817072846, -742165.0204064419], [269754.6239876072, -145436.5672925856], [45758.04720198976, -187183.8500258336], [1532779.563049851, 1469358.769900285], [86443.61817072846, -742165.0204064419], [269754.6239876072, -145436.5672925856], [45758.04720198976, -187183.8500258336], [1532779.563049851, 1469358.769900285], [86443.61817072846, -742165.0204064419], [269754.6239876072, -145436.5672925856], [45758.04720198976, -187183.8500258336], [1532779.563049851, 1469358.769900285], [86443.61817072846, -742165.0204064419], [269754.6239876072, -145436.5672925856], [45758.04720198976, -187183.8500258336], [1532779.563049851, 1469358.769900285], [86443.61817072846, -742165.0204064419], [269754.6239876072, -145436.5672925856], [45758.04720198976, -187183.8500258336], [1532779.563049851, 1469358.769900285], [86443.61817072846, -742165.0204064419], [269754.6239876072, -145436.5672925856], [45758.04720198976, -187183.8500258336], [1532779.563049851, 1469358.769900285], [86443.61817072846, -742165.0204064419], [269754.6239876072, -145436.5672925856], [45758.04720198976, -187183.8500258336], [1532779.563049851, 1469358.769900285], [86443.61817072846, -742165.0204064419], [269754.6239876072, -145436.5672925856], [45758.04720198976, -187183.8500258336], [1532779.563049851, 1469358.769900285], [86443.61817072846, -742165.0204064419], [269754.6239876072, -145436.5672925856], [45758.04720198976, -187183.8500258336], [1532779.563049851, 1469358.769900285], [86443.61817072846, -742165.0204064419], [269754.6239876072, -145436.5672925856], [45758.04720198976, -187183.8500258336], [1532779.563049851, 1469358.769900285], [86443.61817072846, -742165.0204064419], [269754.6239876072, -145436.5672925856], [45758.04720198976, -187183.8500258336], [1532779.563049851, 1469358.769900285], [86443.61817072846, -742165.0204064419], [269754.6239876072, -145436.5672925856], [45758.04720198976, -187183.8500258336], [1532779.563049851, 1469358.769900285], [86443.61817072846, -742165.0204064419], [269754.6239876072, -145436.5672925856], [45758.04720198976, -187183.8500258336], [1532779.563049851, 1469358.769900285], [86443.61817072846, -742165.0204064419], [269754.6239876072, -145436.5672925856], [45758.04720198976, -187183.8500258336], [1532779.563049851, 1469358.769900285], [86443.61817072846, -742165.0204064419], [269754.6239876072, -145436.5672925856], [45758.04720198976, -187183.8500258336], [1532779.563049851, 1469358.769900285], [86443.61817072846, -742165.0204064419], [269754.6239876072, -145436.5672925856], [45758.04720198976, -187183.8500258336], [1532779.563049851, 1469358.769900285], [86443.61817072846, -742165.0204064419], [269754.6239876072, -145436.5672925856], [45758.04720198976, -187183.8500258336], [1532779.563049851, 1469358.769900285], [86443.61817072846, -742165.0204064419], [269754.6239876072, -145436.5672925856], [45758.04720198976, -187183.8500258336], [1532779.563049851, 1469358.769900285], [86443.61817072846, -742165.0204064419], [269754.6239876072, -145436.5672925856], [45758.04720198976, -187183.8500258336], [1532779.563049851, 1469358.769900285], [86443.61817072846, -742165.0204064419], [269754.6239876072, -145436.5672925856], [45758.04720198976, -187183.8500258336], [1532779.563049851, 1469358.769900285], [86443.61817072846, -742165.0204064419], [269754.6239876072, -145436.5672925856], [45758.04720198976, -187183.8500258336], [1532779.563049851, 1469358.769900285], [86443.61817072846, -742165.0204064419], [269754.6239876072, -145436.5672925856], [45758.04720198976, -187183.8500258336], [1532779.563049851, 1469358.769900285], [86443.61817072846, -742165.0204064419], [269754.6239876072, -145436.5672925856], [45758.04720198976, -187183.8500258336], [1532779.563049851, 1469358.769900285], [86443.61817072846, -742165.0204064419], [269754.6239876072, -145436.5672925856], [45758.04720198976, -187183.8500258336], [1532779.563049851, 1469358.769900285], [86443.61817072846, -742165.0204064419], [269754.6239876072, -145436.5672925856], [45758.04720198976, -187183.8500258336], [1532779.563049851, 1469358.769900285], [86443.61817072846, -742165.0204064419], [269754.6239876072, -145436.5672925856], [45758.04720198976, -187183.8500258336], [1532779.563049851, 1469358.769900285], [86443.61817072846, -742165.0204064419], [269754.6239876072, -145436.5672925856], [45758.04720198976, -187183.8500258336], [1532779.563049851, 1469358.769900285], [86443.61817072846, -742165.0204064419], [269754.6239876072, -145436.5672925856], [45758.04720198976, -187183.8500258336], [1532779.563049851, 1469358.769900285], [86443.61817072846, -742165.0204064419], [269754.6239876072, -145436.5672925856], [45758.04720198976, -187183.8500258336], [1532779.563049851, 1469358.769900285], [86443.61817072846, -742165.0204064419], [269754.6239876072, -145436.5672925856], [45758.04720198976, -187183.8500258336], [1532779.563049851, 1469358.769900285], [86443.61817072846, -742165.0204064419], [269754.6239876072, -145436.5672925856], [45758.04720198976, -187183.8500258336], [1532779.563049851, 1469358.769900285], [86443.61817072846, -742165.0204064419], [269754.6239876072, -145436.5672925856], [45758.04720198976, -187183.8500258336], [1532779.563049851, 1469358.769900285], [86443.61817072846, -742165.0204064419], [269754.6239876072, -145436.5672925856], [45758.04720198976, -187183.8500258336], [1532779.563049851, 1469358.769900285], [86443.61817072846, -742165.0204064419], [269754.6239876072, -145436.5672925856], [45758.04720198976, -187183.8500258336], [1532779.563049851, 1469358.769900285], [86443.61817072846, -742165.0204064419], [269754.6239876072, -145436.5672925856], [45758.04720198976, -187183.8500258336], [1532779.563049851, 1469358.769900285], [86443.61817072846, -742165.0204064419], [269754.6239876072, -145436.5672925856], [45758.04720198976, -187183.8500258336], [1532779.563049851, 1469358.769900285], [86443.61817072846, -742165.0204064419], [269754.6239876072, -145436.5672925856], [45758.04720198976, -187183.8500258336], [1532779.563049851, 1469358.769900285], [86443.61817072846, -742165.0204064419], [269754.6239876072, -145436.5672925856], [45758.04720198976, -187183.8500258336], [1532779.563049851, 1469358.769900285], [86443.61817072846, -742165.0204064419], [269754.6239876072, -145436.5672925856], [45758.04720198976, -187183.8500258336], [1532779.563049851, 1469358.769900285], [86443.61817072846, -742165.0204064419], [269754.6239876072, -145436.5672925856], [45758.04720198976, -187183.8500258336]], [0, 0, 0, 0, 0, 0, 0, 0, 0, 0, 0, 0, 0, 0, 0, 0, 0, 0, 0, 0, 0, 0, 0, 0, 0, 0, 0, 0, 0, 0, 0, 0, 0, 0, 0, 0, 0, 0, 0, 0, 0, 0, 0, 0, 0, 0, 0, 0, 0, 0, 0, 0, 0, 0, 0, 0, 0, 0, 0, 0, 0, 0, 0, 0, 0, 0, 0, 0, 0, 0, 0, 0, 0, 0, 0, 0, 0, 0, 0, 0, 0, 0, 0, 0, 0, 0, 0, 0, 0, 0, 0, 0, 0, 0, 0, 0, 0, 0, 0, 0, 1, 1, 1, 1, 1, 1, 1, 1, 1, 1, 1, 1, 1, 1, 1, 1, 1, 1, 1, 1, 1, 1, 1, 1, 1, 1, 1, 1, 1, 1, 1, 1, 1, 1, 1, 1, 1, 1, 1, 1, 1, 1, 1, 1, 1, 1, 1, 1, 1, 1, 1, 1, 1, 1, 1, 1, 1, 1, 1, 1, 1, 1, 1, 1, 1, 1, 1, 1, 1, 1, 1, 1, 1, 1, 1, 1, 1, 1, 1, 1, 1, 1, 1, 1, 1, 1, 1, 1, 1, 1, 1, 1, 1, 1, 1, 1, 1, 1, 1, 1, 1, 1, 1, 1, 1, 1, 1, 1, 1, 1, 1, 1, 1, 1, 1, 1, 1, 1, 1, 1, 1, 1, 1, 1, 1, 1, 1, 1, 1, 1, 1, 1, 1, 1, 1, 1, 1, 1, 1, 1, 1, 1, 1, 1]]}, "problem_id": "scikit-learn__scikit-learn-14764@@sklearn.datasets.samples_generator.py@@make_classification", "difficulty": "difficult"}
{"model": "gpt-4.1", "prediction": {"output": ["2", "3", "+", "4", "+"]}, "problem_id": "ClassEval_39@ExpressionCalculator.prepare", "difficulty": "difficult"}
{"model": "gpt-4.1", "prediction": {"output": "admin/password_change/done/"}, "problem_id": "django__django-11728@@django.contrib.admindocs.utils.py@@replace_named_groups", "difficulty": "difficult"}
{"model": "gpt-4.1", "prediction": {"steps": null, "memory": null, "verbose": false}, "problem_id": "scikit-learn__scikit-learn-15119@@sklearn.pipeline.py@@fit", "difficulty": "difficult"}
{"model": "gpt-4.1", "prediction": {"output": "I**(-3)*cot(x + I)**(-3)"}, "problem_id": "sympy__sympy-13259@@sympy.simplify.fu.py@@f", "difficulty": "difficult"}
{"model": "gpt-4.1", "prediction": {"coef0": 0.1, "degree": 3.1}, "problem_id": "scikit-learn__scikit-learn-14706@@sklearn.kernel_approximation.py@@_get_kernel_params", "difficulty": "difficult"}
{"model": "gpt-4.1", "prediction": {}, "problem_id": "scikit-learn__scikit-learn-14704@@sklearn.model_selection._split.py@@_make_test_folds", "difficulty": "difficult"}
{"model": "gpt-4.1", "prediction": {}, "problem_id": "scikit-learn__scikit-learn-12758@@sklearn.metrics.classification.py@@classification_report", "difficulty": "difficult"}
{"model": "gpt-4.1", "prediction": {"_shape": [1, 7], "maxprint": 1000, "indices": [2, 4, 6], "indptr": [0, 3], "data": [1.0, 1.0, 1.0]}, "problem_id": "scikit-learn__scikit-learn-11042@@sklearn.preprocessing.data.py@@transform", "difficulty": "difficult"}
{"model": "gpt-4.1", "prediction": {"output": "-359538626972463141629054847463408713596141135051689993197834953606314521560057077521179117265533756343080917907028764928468642653778928365536935093407075033972099821153102564152490980180778657888151737016910267884609166473806445896331617118664246696549595652408289446337476354361838599762500808052368249716736"}, "problem_id": "django__django-11206@@django.utils.numberformat.py@@format", "difficulty": "difficult"}
{"model": "gpt-4.1", "prediction": {"output": "1.0e-14*I"}, "problem_id": "sympy__sympy-13264@@sympy.simplify.simplify.py@@simplify", "difficulty": "difficult"}
{"model": "gpt-4.1", "prediction": {"output": ":class:`dict`"}, "problem_id": "sphinx-doc__sphinx-9015@@sphinx.util.typing.py@@restify", "difficulty": "difficult"}
{"model": "gpt-4.1", "prediction": {"output": ":py:obj:`None`"}, "problem_id": "sphinx-doc__sphinx-9665@@sphinx.util.typing.py@@restify", "difficulty": "difficult"}
{"model": "gpt-4.1", "prediction": {"output": "()"}, "problem_id": "sphinx-doc__sphinx-7462@@sphinx.pycode.ast.py@@unparse", "difficulty": "difficult"}
{"model": "gpt-4.1", "prediction": {"_unit": null, "_short_names": null, "_long_names": null, "_format": {}, "__doc__": "meter: base unit of length in SI", "_hash": 7151119826131856767, "_type_id": [["m", 1]]}, "problem_id": "astropy__astropy-14253@@astropy.units.quantity.py@@_result_as_quantity", "difficulty": "difficult"}
{"model": "gpt-4.1", "prediction": {"output": "32"}, "problem_id": "ClassEval_97@Words2Numbers.text2int", "difficulty": "difficult"}
{"model": "gpt-4.1", "prediction": {"output": ["^\"(?P<lang>[^/]+)\"/\"(?P<url>.+)\"/$", {"lang": {"regex": "[^/]+"}, "url": {"regex": ".+"}}]}, "problem_id": "django__django-11688@@django.urls.resolvers.py@@_route_to_regex", "difficulty": "difficult"}
{"model": "gpt-4.1", "prediction": {"output": "[-]Item 1.\n"}, "problem_id": "ClassEval_44@HtmlUtil.format_line_html_text", "difficulty": "difficult"}
{"model": "gpt-4.1", "prediction": {"output": "http://www.example.com/category/"}, "problem_id": "django__django-16614@@django.forms.fields.py@@to_python", "difficulty": "difficult"}
{"model": "gpt-4.1", "prediction": {"output": "2*I*sin(2)"}, "problem_id": "sympy__sympy-13259@@sympy.simplify.fu.py@@_osborne", "difficulty": "difficult"}
{"model": "gpt-4.1", "prediction": {"n_jobs": 1, "remainder__copy": true, "remainder__with_mean": true, "remainder__with_std": false, "remainder": {"with_mean": true, "with_std": false, "copy": true}, "transformer_weights": null, "transformers": null, "trans1": null}, "problem_id": "scikit-learn__scikit-learn-11315@@sklearn.utils.metaestimators.py@@_get_params", "difficulty": "difficult"}
{"model": "gpt-4.1", "prediction": {"output": 50}, "problem_id": "sympy__sympy-13265@@sympy.simplify.simplify.py@@simplify", "difficulty": "difficult"}
{"model": "gpt-4.1", "prediction": {"output": ["1681-05-21T12:30:00.500000000", "1681-05-21T13:30:00.500000000", "1681-05-21T14:30:00.500000000", "1681-05-21T15:30:00.500000000", "1681-05-21T16:30:00.500000000"]}, "problem_id": "pydata__xarray-4758@@xarray.coding.times.py@@decode_cf_datetime", "difficulty": "difficult"}
{"model": "gpt-4.1", "prediction": {"output": false}, "problem_id": "pytest-dev__pytest-10893@@src._pytest.pathlib.py@@on_rm_rf_error", "difficulty": "difficult"}
{"model": "gpt-4.1", "prediction": {"output": 2}, "problem_id": "atcoder_ABC169_D", "difficulty": "difficult"}
{"model": "gpt-4.1", "prediction": {"values": null, "order": null, "_tick_params": {"locator": null}, "_label_params": {"formatter": null}, "_legend": [[], []], "_matplotlib_scale": {}, "_pipeline": [{}], "_spacer": {}}, "problem_id": "mwaskom__seaborn-3202@@seaborn._core.scales.py@@_setup", "difficulty": "difficult"}
{"model": "gpt-4.1", "prediction": {"_smat": {}, "rows": 2, "cols": 1}, "problem_id": "sympy__sympy-13031@@sympy.matrices.sparse.py@@row_join", "difficulty": "difficult"}
{"model": "gpt-4.1", "prediction": {"output": ""}, "problem_id": "ClassEval_65@NumberWordFormatter.format", "difficulty": "difficult"}
{"model": "gpt-4.1", "prediction": {"output": "(1 + sqrt(5))/4"}, "problem_id": "sympy__sympy-12088@@sympy.simplify.simplify.py@@nsimplify", "difficulty": "difficult"}
{"model": "gpt-4.1", "prediction": {"output": "jS \\o\\f F"}, "problem_id": "django__django-15741@@django.utils.formats.py@@get_format", "difficulty": "difficult"}
{"model": "gpt-4.1", "prediction": {"(0, 0, 1, 1, 3)": ["x", "y"]}, "problem_id": "sympy__sympy-15225@@sympy.logic.boolalg.py@@_finger", "difficulty": "difficult"}
{"model": "gpt-4.1", "prediction": {"output": 26484595}, "problem_id": "atcoder_ABC122_D", "difficulty": "difficult"}
{"model": "gpt-4.1", "prediction": {"estimators": null, "weights": null, "n_jobs": null, "estimators_": [], "named_estimators_": {}}, "problem_id": "scikit-learn__scikit-learn-15084@@sklearn.ensemble.voting.py@@fit", "difficulty": "difficult"}
{"model": "gpt-4.1", "prediction": {"output": "2*tanh(_Dummy_561*x)"}, "problem_id": "sympy__sympy-13259@@sympy.simplify.fu.py@@_osbornei", "difficulty": "difficult"}
{"model": "gpt-4.1", "prediction": {"output": "False"}, "problem_id": "ClassEval_89@TwentyFourPointGame.answer", "difficulty": "difficult"}
{"model": "gpt-4.1", "prediction": {"output": [[0.0, 0.0, 0.0, 0.0, 0.0, 0.0, 0.0, 0.0], [0.0, 0.0, 0.0, 0.0, 0.0, 0.0, 0.0, 0.0], [0.0, 0.0, 0.0, 0.0, 0.0, 0.0, 0.0, 0.0]]}, "problem_id": "scikit-learn__scikit-learn-12682@@sklearn.decomposition.dict_learning.py@@_sparse_encode", "difficulty": "difficult"}
{"model": "gpt-4.1", "prediction": {"data": "boolean"}, "problem_id": "mwaskom__seaborn-3394@@seaborn._core.rules.py@@variable_type", "difficulty": "difficult"}
{"model": "gpt-4.1", "prediction": {"output": null}, "problem_id": "django__django-15248@@django.db.models.base.py@@delete", "difficulty": "difficult"}
{"model": "gpt-4.1", "prediction": {"output": "Dealer wins"}, "problem_id": "ClassEval_12@BlackjackGame.check_winner", "difficulty": "difficult"}
{"model": "gpt-4.1", "prediction": {"output": "R3+R4+4050"}, "problem_id": "sympy__sympy-16088@@sympy.core.exprtools.py@@factor_terms", "difficulty": "difficult"}
{"model": "gpt-4.1", "prediction": {"output": 3}, "problem_id": "atcoder_ABC164_D", "difficulty": "difficult"}
{"model": "gpt-4.1", "prediction": {"output": "[  4.36037718  19.09110312  27.95603418  33.07503047  46.9944514\n  49.91933799  55.27649668  57.22924692  66.89240597  74.77187739\n  76.85540143  86.41675651  88.34940223  95.3071847   98.03315837\n  99.45505108]"}, "problem_id": "astropy__astropy-8339@@astropy.stats.bayesian_blocks.py@@fit", "difficulty": "difficult"}
{"model": "gpt-4.1", "prediction": {"epsilon": 1.35, "max_iter": 100, "alpha": 0.0001, "warm_start": false, "fit_intercept": true, "tol": 1e-05, "n_iter_": 58, "scale_": 0.029961783359883615, "intercept_": 0.010763322132748835, "coef_": "[ 1.54977025e-02 -1.32398131e-02  8.22074812e+01 -2.45727407e-04\n -2.26475828e-02  9.66624010e+01  1.41986418e+00  3.74932146e+00\n  8.83203717e+01 -4.58982512e-02  2.99176896e-02 -5.74773489e-03\n  1.44533947e-02  3.41917964e+01  7.00870246e+01  8.79389962e-03\n  6.14821566e+01  9.94097735e+01  7.74533534e+01 -8.91951416e-03]", "outliers_": "[ True False False  True False False False False False False False False\n False False False False False  True False False False  True  True False\n  True  True False False False False False False  True False False  True\n False False False  True  True False False False  True  True  True  True\n False  True]"}, "problem_id": "scikit-learn__scikit-learn-13328@@sklearn.linear_model.huber.py@@fit", "difficulty": "difficult"}
{"model": "gpt-4.1", "prediction": {"output": "TypeError('Input expression must be a valid SymPy expression')"}, "problem_id": "sympy__sympy-23141@@sympy.integrals.intpoly.py@@polytope_integrate", "difficulty": "difficult"}
{"model": "gpt-4.1", "prediction": {"output": "BaseCrossValidator({})"}, "problem_id": "scikit-learn__scikit-learn-14983@@sklearn.model_selection._split.py@@_build_repr", "difficulty": "difficult"}
{"model": "gpt-4.1", "prediction": {"output": "(-5+3*t, 2*t)"}, "problem_id": "sympy__sympy-11989@@sympy.solvers.diophantine.py@@diop_solve", "difficulty": "difficult"}
{"model": "gpt-4.1", "prediction": {"output": "(1 + exp(2))/(y*(-1 + exp(2)))"}, "problem_id": "sympy__sympy-13265@@sympy.simplify.trigsimp.py@@exptrigsimp", "difficulty": "difficult"}
{"model": "gpt-4.1", "prediction": {"output": "              precision    recall  f1-score   support\n\n         blue       0.33      0.38      0.35        21\n greengreengreengreengreen       0.00      0.00      0.00        25\n          red       0.47      0.56      0.51        30\n\n    avg / total       0.28      0.32      0.30        76\n"}, "problem_id": "scikit-learn__scikit-learn-11160@@sklearn.metrics.classification.py@@classification_report", "difficulty": "difficult"}
{"model": "gpt-4.1", "prediction": {"output": {"nargs": {}}}, "problem_id": "sympy__sympy-15222@@sympy.core.function.py@@_eval_subs", "difficulty": "difficult"}
{"model": "gpt-4.1", "prediction": {"output": [0.0, [0.0]]}, "problem_id": "ClassEval_57@MetricsCalculator2.map", "difficulty": "difficult"}
{"model": "gpt-4.1", "prediction": {"output": false}, "problem_id": "django__django-13585@@django.contrib.auth.tokens.py@@check_token", "difficulty": "difficult"}
{"model": "gpt-4.1", "prediction": {}, "problem_id": "django__django-11334@@django.template.library.py@@simple_tag", "difficulty": "difficult"}
{"model": "gpt-4.1", "prediction": {}, "problem_id": "ClassEval_26@CSVProcessor.process_csv_data", "difficulty": "difficult"}
{"model": "gpt-4.1", "prediction": {"output": false}, "problem_id": "sympy__sympy-12945@@sympy.core.basic.py@@__eq__", "difficulty": "difficult"}
{"model": "gpt-4.1", "prediction": {"output": "Eq(self, other, evaluate=False)"}, "problem_id": "sympy__sympy-16052@@sympy.matrices.expressions.matexpr.py@@_eval_Eq", "difficulty": "difficult"}
{"model": "gpt-4.1", "prediction": {"_elements": "frozenset()"}, "problem_id": "sympy__sympy-13615@@sympy.sets.sets.py@@_complement", "difficulty": "difficult"}
{"model": "gpt-4.1", "prediction": {"output": {"exception": {"name": "TypeError", "message": "object of type 'NoneType' has no len()"}}}, "problem_id": "scikit-learn__scikit-learn-10577@@sklearn.datasets.samples_generator.py@@make_blobs", "difficulty": "difficult"}
{"model": "gpt-4.1", "prediction": {"output": "BaseCrossValidator()"}, "problem_id": "scikit-learn__scikit-learn-14983@@sklearn.model_selection._split.py@@__repr__", "difficulty": "difficult"}
{"model": "gpt-4.1", "prediction": {"output": "a=1&b=2&c=3"}, "problem_id": "django__django-11374@@django.utils.http.py@@urlencode", "difficulty": "difficult"}
{"model": "gpt-4.1", "prediction": {"output": 0}, "problem_id": "sympy__sympy-12812@@sympy.diffgeom.diffgeom.py@@contravariant_order", "difficulty": "difficult"}
{"model": "gpt-4.1", "prediction": {"output": "1"}, "problem_id": "scikit-learn__scikit-learn-25589@@sklearn.preprocessing._encoders.py@@_map_drop_idx_to_infrequent", "difficulty": "difficult"}
{"model": "gpt-4.1", "prediction": {"__module__": "template_tests.test_library", "__name__": "func", "__qualname__": "SimpleTagRegistrationTests.test_simple_tag_wrapped.\"<locals>\".func", "__doc__": null, "__annotations__": {}, "__wrapped__": {}}, "problem_id": "django__django-11334@@django.template.library.py@@dec", "difficulty": "difficult"}
{"model": "gpt-4.1", "prediction": {"threshold": 0.4, "variances_": "[0. 0. 0. 0. 0.]"}, "problem_id": "scikit-learn__scikit-learn-11635@@sklearn.feature_selection._variance_threshold.py@@fit", "difficulty": "difficult"}
{"model": "gpt-4.1", "prediction": {"output": 2}, "problem_id": "codeforces_672_A", "difficulty": "difficult"}
{"model": "gpt-4.1", "prediction": {}, "problem_id": "scikit-learn__scikit-learn-11206@@sklearn.preprocessing.data.py@@scale", "difficulty": "difficult"}
{"model": "gpt-4.1", "prediction": {"output": [0.1, 1.0, 10.0, 100.0, 1000.0]}, "problem_id": "matplotlib__matplotlib-25405@@lib.matplotlib.ticker.py@@tick_values", "difficulty": "difficult"}
{"model": "gpt-4.1", "prediction": {"output": "Digest username=\"user\", realm=\"me@kennethreitz.com\", nonce=\"54c8df80c7443b10ad9890ddfce551f9\", uri=\"/digest-auth/auth/user/pass\", response=\"b6a2e2b1e2c1e2e2e2e2e2e2e2e2e2e2\", opaque=\"cbe3b2ba4f82f0040cf76baec4025b43\", algorithm=\"MD5\", qop=\"auth\", nc=00000001, cnonce=\"XXXXXXXXXXXXXXXX\""}, "problem_id": "psf__requests-2678@@requests.auth.py@@build_digest_header", "difficulty": "difficult"}
{"model": "gpt-4.1", "prediction": {"output": [[0.90003213]]}, "problem_id": "scikit-learn__scikit-learn-13554@@sklearn.metrics.pairwise.py@@euclidean_distances", "difficulty": "difficult"}
{"model": "gpt-4.1", "prediction": {"output": "\n\nclass Migration(migrations.Migration):\n\n\n    dependencies = [\n    ]\n\n    operations = [\n    ]\n"}, "problem_id": "django__django-16662@@django.db.migrations.writer.py@@as_string", "difficulty": "difficult"}
{"model": "gpt-4.1", "prediction": {"output": "sqrt(45)"}, "problem_id": "sympy__sympy-11618@@sympy.geometry.point.py@@distance", "difficulty": "difficult"}
{"model": "gpt-4.1", "prediction": {"output": "exp(2*I*x) + 1"}, "problem_id": "sympy__sympy-13265@@sympy.simplify.trigsimp.py@@f", "difficulty": "difficult"}
{"model": "gpt-4.1", "prediction": {"output": null}, "problem_id": "sympy__sympy-15222@@sympy.core.function.py@@_eval_evalf", "difficulty": "difficult"}
{"model": "gpt-4.1", "prediction": {"output": null}, "problem_id": "sympy__sympy-14038@@sympy.concrete.products.py@@_eval_product", "difficulty": "difficult"}
{"model": "gpt-4.1", "prediction": {"output": "-I*sin(x)"}, "problem_id": "sympy__sympy-17139@@sympy.simplify.fu.py@@_f", "difficulty": "difficult"}
{"model": "gpt-4.1", "prediction": {"output": []}, "problem_id": "ClassEval_35@EightPuzzle.solve", "difficulty": "difficult"}
{"model": "gpt-4.1", "prediction": {"output": "-359538626972463141629054847463408713596141135051689993197834953606314521560057077521179117265533756343080917907028764928468642653778928365536935093407075033972099821153102564152490980180778657888151737016910267884609166473806445896331617118664246696549595652408289446337476354361838599762500808052368249716736"}, "problem_id": "django__django-12486@@django.utils.numberformat.py@@format", "difficulty": "difficult"}
{"model": "gpt-4.1", "prediction": {"output": null}, "problem_id": "sympy__sympy-21527@@sympy.polys.constructor.py@@_construct_simple", "difficulty": "difficult"}
{"model": "gpt-4.1", "prediction": {"output": 0}, "problem_id": "sympy__sympy-14070@@sympy.simplify.simplify.py@@logcombine", "difficulty": "difficult"}
{"model": "gpt-4.1", "prediction": {"output": [[0.0, 0.0, 0.0, 0.0, 0.0], [0.0, 0.0, 0.0, 0.0, 0.0], [0.0, 0.0, 0.0, 0.0, 0.0], [0.0, 0.0, 0.0, 0.0, 0.0], [0.0, 0.0, 0.0, 0.0, 0.0], [0.0, 0.0, 0.0, 0.0, 0.0], [0.0, 0.0, 0.0, 0.0, 0.0], [0.0, 0.0, 0.0, 0.0, 0.0], [0.0, 0.0, 0.0, 0.0, 0.0], [0.0, 0.0, 0.0, 0.0, 0.0]]}, "problem_id": "scikit-learn__scikit-learn-12682@@sklearn.decomposition.dict_learning.py@@dict_learning", "difficulty": "difficult"}
{"model": "gpt-4.1", "prediction": {"output": "default"}, "problem_id": "matplotlib__matplotlib-24265@@lib.matplotlib.style.core.py@@fix_style", "difficulty": "difficult"}
{"model": "gpt-4.1", "prediction": {"_indices": null, "_free": null, "_dum": null}, "problem_id": "sympy__sympy-18633@@sympy.tensor.toperators.py@@_expand_partial_derivative", "difficulty": "difficult"}
{"model": "gpt-4.1", "prediction": {}, "problem_id": "atcoder_AGC038_A", "difficulty": "difficult"}
{"model": "gpt-4.1", "prediction": {"output": false}, "problem_id": "ClassEval_54@MahjongConnect.is_valid_move", "difficulty": "difficult"}
{"model": "gpt-4.1", "prediction": {"output": [[], []]}, "problem_id": "sympy__sympy-11232@@sympy.matrices.expressions.matmul.py@@args_cnc", "difficulty": "difficult"}
{"model": "gpt-4.1", "prediction": {"output": false}, "problem_id": "sympy__sympy-18057@@sympy.core.expr.py@@__eq__", "difficulty": "difficult"}
{"model": "gpt-4.1", "prediction": {"nargs": {"_elements": ["exp(-I*pi*a/2)*besselj(a, 2*sqrt(x))"]}}, "problem_id": "sympy__sympy-13265@@sympy.simplify.simplify.py@@besselsimp", "difficulty": "difficult"}
{"model": "gpt-4.1", "prediction": {"widget": {"name": "mydate", "is_hidden": false, "required": false, "value": {"year": null, "month": null, "day": null}, "attrs": {}, "template_name": "django/forms/widgets/select_date.html", "subwidgets": [{"name": "mydate_year", "is_hidden": false, "required": false, "value": null, "attrs": {"id": "id_mydate_year", "placeholder": false}, "template_name": "django/forms/widgets/select.html"}, {"name": "mydate_month", "is_hidden": false, "required": false, "value": null, "attrs": {"id": "id_mydate_month", "placeholder": false}, "template_name": "django/forms/widgets/select.html"}, {"name": "mydate_day", "is_hidden": false, "required": false, "value": null, "attrs": {"id": "id_mydate_day", "placeholder": false}, "template_name": "django/forms/widgets/select.html"}]}}, "problem_id": "django__django-11323@@django.forms.widgets.py@@get_context", "difficulty": "difficult"}
{"model": "gpt-4.1", "prediction": {"output": "a=1&b=2&c=3 "}, "problem_id": "django__django-11638@@django.utils.http.py@@urlencode", "difficulty": "difficult"}
{"model": "gpt-4.1", "prediction": {"output": "conjugate(A)**3*conjugate(B)**6"}, "problem_id": "sympy__sympy-13551@@sympy.concrete.products.py@@_eval_product", "difficulty": "difficult"}
{"model": "gpt-4.1", "prediction": {"output": ["d", [], []]}, "problem_id": "sympy__sympy-11822@@sympy.printing.conventions.py@@split_super_sub", "difficulty": "difficult"}
{"model": "gpt-4.1", "prediction": {"output": "tests.test_util_typing."}, "problem_id": "sphinx-doc__sphinx-9464@@sphinx.util.typing.py@@stringify", "difficulty": "difficult"}
{"model": "gpt-4.1", "prediction": {"output": "^a/?$"}, "problem_id": "django__django-11728@@django.contrib.admindocs.utils.py@@replace_unnamed_groups", "difficulty": "difficult"}
{"model": "gpt-4.1", "prediction": {"_css_lists": [null, null], "_js_lists": [null, null]}, "problem_id": "django__django-13355@@django.forms.widgets.py@@__add__", "difficulty": "difficult"}
{"model": "gpt-4.1", "prediction": {"output": [[20, 20, 0], [20, 40, 0], [0, 0, 4]]}, "problem_id": "scikit-learn__scikit-learn-15625@@sklearn.metrics._classification.py@@confusion_matrix", "difficulty": "difficult"}
{"model": "gpt-4.1", "prediction": {"output": "[\n        array(10),\n        \"days since 2000-01-01\",\n        \"gregorian\"\n    ]"}, "problem_id": "pydata__xarray-5180@@xarray.coding.times.py@@encode_cf_datetime", "difficulty": "difficult"}
{"model": "gpt-4.1", "prediction": {"output": ""}, "problem_id": "psf__requests-2931@@requests.models.py@@_encode_params", "difficulty": "difficult"}
{"model": "gpt-4.1", "prediction": {"_headers": {"content-type": null}, "_closable_objects": null, "_handler_class": null, "cookies": {}, "closed": null, "_reason_phrase": null, "_charset": null, "_container": null, "_has_been_logged": null}, "problem_id": "django__django-10904@@django.middleware.csrf.py@@process_view", "difficulty": "difficult"}
{"model": "gpt-4.1", "prediction": {"output": ["x*n*m*o*n + n*m*n*o*m*n", {}, []]}, "problem_id": "sympy__sympy-15232@@sympy.core.exprtools.py@@_mask_nc", "difficulty": "difficult"}
{"model": "gpt-4.1", "prediction": {"output": "nan"}, "problem_id": "sympy__sympy-13177@@sympy.core.mod.py@@doit", "difficulty": "difficult"}
{"model": "gpt-4.1", "prediction": {"output": ["print('Hello, world!')", "for i in range(4):\n                print(i)"]}, "problem_id": "ClassEval_44@HtmlUtil.extract_code_from_html_text", "difficulty": "difficult"}
{"model": "gpt-4.1", "prediction": {"_shape": null, "maxprint": null, "indices": null, "indptr": null, "data": null}, "problem_id": "scikit-learn__scikit-learn-14520@@sklearn.feature_extraction.text.py@@transform", "difficulty": "difficult"}
{"model": "gpt-4.1", "prediction": {"output": [[[-0.70710678], [0.70710678], [0.0]], [[0.0], [1.0]], 1]}, "problem_id": "scikit-learn__scikit-learn-10306@@sklearn.cross_decomposition.pls_.py@@_nipals_twoblocks_inner_loop", "difficulty": "difficult"}
{"model": "gpt-4.1", "prediction": {"output": [[1, 6, 2], [7, 0, 8], [4, 5, 3]]}, "problem_id": "ClassEval_35@EightPuzzle.move", "difficulty": "difficult"}
{"model": "gpt-4.1", "prediction": {"nargs": {"_elements": null}}, "problem_id": "sympy__sympy-13265@@sympy.simplify.simplify.py@@repl", "difficulty": "difficult"}
{"model": "gpt-4.1", "prediction": {"output": "-(sqrt(21) + 5)**(1/3) + sqrt(3)*I*(sqrt(21) + 5)**(1/3)"}, "problem_id": "sympy__sympy-16088@@sympy.core.exprtools.py@@do", "difficulty": "difficult"}
{"model": "gpt-4.1", "prediction": {"output": "2*pi"}, "problem_id": "sympy__sympy-13286@@sympy.calculus.util.py@@periodicity", "difficulty": "difficult"}
{"model": "gpt-4.1", "prediction": {"values": null, "norm": null, "trans": "log", "_tick_params": {"locator": null, "at": null, "upto": 3, "count": null, "every": null, "between": null, "minor": null}, "_label_params": {"formatter": null, "like": null, "base": {}, "unit": null}, "_legend": null, "_matplotlib_scale": {"_transform": {"_parents": {}, "_invalid": null, "_shorthand_name": null, "_forward": {}, "_inverse": {}}}, "_pipeline": [], "_spacer": {}}, "problem_id": "mwaskom__seaborn-3190@@seaborn._core.scales.py@@_setup", "difficulty": "difficult"}
{"model": "gpt-4.1", "prediction": {"output": [0.25, [0.25]]}, "problem_id": "ClassEval_57@MetricsCalculator2.mrr", "difficulty": "difficult"}
{"model": "gpt-4.1", "prediction": {}, "problem_id": "django__django-13671@@django.core.cache.backends.base.py@@get_many", "difficulty": "difficult"}
{"model": "gpt-4.1", "prediction": {"n_iter": 300, "tol": 0.001, "alpha_1": 1e-06, "alpha_2": 1e-06, "lambda_1": 1e-06, "lambda_2": 1e-06, "alpha_init": null, "lambda_init": null, "compute_score": false, "fit_intercept": true, "normalize": false, "copy_X": true, "verbose": false, "X_offset_": [0.54585813, 0.43096441, 0.50707341, 0.44437041, 0.50523441], "X_scale_": [1.0, 1.0, 1.0, 1.0, 1.0], "scores_": [], "n_iter_": 300, "alpha_": 2.073073073073073, "lambda_": 0.9999999999999999, "coef_": [0.18696413, 0.17007313, 0.18196413, 0.17007313, 0.18196413], "sigma_": [[0.48484848, 0.0, 0.0, 0.0, 0.0], [0.0, 0.48484848, 0.0, 0.0, 0.0], [0.0, 0.0, 0.48484848, 0.0, 0.0], [0.0, 0.0, 0.0, 0.48484848, 0.0], [0.0, 0.0, 0.0, 0.0, 0.48484848]], "intercept_": 1.4999999999999998}, "problem_id": "scikit-learn__scikit-learn-13618@@sklearn.linear_model.bayes.py@@fit", "difficulty": "difficult"}
{"model": "gpt-4.1", "prediction": {"output": "(arg, kwarg=None)"}, "problem_id": "sphinx-doc__sphinx-7831@@sphinx.util.inspect.py@@signature", "difficulty": "difficult"}
{"model": "gpt-4.1", "prediction": {"output": 2.220446049250313e-16}, "problem_id": "scikit-learn__scikit-learn-25299@@sklearn.metrics._classification.py@@log_loss", "difficulty": "difficult"}
{"model": "gpt-4.1", "prediction": {"output": "[[ 0.37007341  0.37007341  0.37007341  0.37007341  0.37007341]\n [ 0.37007341  0.37007341  0.37007341  0.37007341  0.37007341]\n [ 0.37007341  0.37007341  0.37007341  0.37007341  0.37007341]\n [ 0.37007341  0.37007341  0.37007341  0.37007341  0.37007341]\n [ 0.37007341  0.37007341  0.37007341  0.37007341  0.37007341]]"}, "problem_id": "scikit-learn__scikit-learn-13241@@sklearn.decomposition.kernel_pca.py@@_fit_transform", "difficulty": "difficult"}
{"model": "gpt-4.1", "prediction": {"_smat": {}, "rows": 2, "cols": 1}, "problem_id": "sympy__sympy-13031@@sympy.matrices.sparse.py@@col_join", "difficulty": "difficult"}
{"model": "gpt-4.1", "prediction": {"output": "Attributes:\n    *empty*"}, "problem_id": "pydata__xarray-5126@@xarray.core.formatting.py@@_mapping_repr", "difficulty": "difficult"}
{"model": "gpt-4.1", "prediction": {"output": "{'__module__': 'test_util_typing', '__doc__': None}"}, "problem_id": "sphinx-doc__sphinx-8264@@sphinx.util.typing.py@@_stringify_py37", "difficulty": "difficult"}
{"model": "gpt-4.1", "prediction": {"__wrapped__": {}}, "problem_id": "django__django-15731@@django.db.models.manager.py@@create_method", "difficulty": "difficult"}
{"model": "gpt-4.1", "prediction": {"output": "self.to_physical('2.5')"}, "problem_id": "astropy__astropy-8519@@astropy.units.function.core.py@@to", "difficulty": "difficult"}
{"model": "gpt-4.1", "prediction": {"output": null}, "problem_id": "django__django-15018@@django.core.management.__init__.py@@call_command", "difficulty": "difficult"}
{"model": "gpt-4.1", "prediction": {"estimator": {"foo_param": 0}, "step": 1, "cv": 5, "scoring": null, "verbose": 0, "n_jobs": null, "min_features_to_select": 1, "support_": null, "n_features_": null, "ranking_": null, "estimator_": {"foo_param": 0, "coef_": null}, "grid_scores_": null}, "problem_id": "scikit-learn__scikit-learn-11635@@sklearn.feature_selection._rfe.py@@fit", "difficulty": "difficult"}
{"model": "gpt-4.1", "prediction": {"output": [0.0, 0.0, 0.0, 0.0, 2.15579371, 0.0, 0.0, 0.0, 0.0, 0.0, 0.0, 0.0]}, "problem_id": "scikit-learn__scikit-learn-11346@@sklearn.linear_model.omp.py@@orthogonal_mp_gram", "difficulty": "difficult"}
{"model": "gpt-4.1", "prediction": {"output": ["-x**3", "1"]}, "problem_id": "sympy__sympy-12472@@sympy.simplify.radsimp.py@@fraction", "difficulty": "difficult"}
{"model": "gpt-4.1", "prediction": {"_shape": [2, 5], "maxprint": 25, "indices": "[1 0 1 0 1 0 1 0 1]", "indptr": "[ 0  1  3  5  7  9]", "data": "[10  1 12  3 14  5 16  7 18]"}, "problem_id": "scikit-learn__scikit-learn-25102@@sklearn.feature_selection._base.py@@transform", "difficulty": "difficult"}
{"model": "gpt-4.1", "prediction": {"output": [0, 0]}, "problem_id": "sympy__sympy-13361@@sympy.core.evalf.py@@get_integer_part", "difficulty": "difficult"}
{"model": "gpt-4.1", "prediction": {"output": "1"}, "problem_id": "atcoder_ARC102_C", "difficulty": "difficult"}
{"model": "gpt-4.1", "prediction": {"_shape": [11, 2], "maxprint": 50, "indices": "[0 1 0 1 0 1 1]", "indptr": "[0 2 4 6 7 7 7 7 7 7 7 7]", "data": "[0.90453403 0.42640143 0.74329415 0.66742381 0.52573111 0.85065081 1.        ]"}, "problem_id": "scikit-learn__scikit-learn-10443@@sklearn.feature_extraction.text.py@@transform", "difficulty": "difficult"}
{"model": "gpt-4.1", "prediction": {"output": false}, "problem_id": "ClassEval_71@PushBoxGame.move", "difficulty": "difficult"}
{"model": "gpt-4.1", "prediction": {"output": "2016-06-13 00:00:00+00:00"}, "problem_id": "django__django-10910@@django.db.backends.sqlite3.base.py@@_sqlite_datetime_parse", "difficulty": "difficult"}
{"model": "gpt-4.1", "prediction": {"output": "(3, 31)"}, "problem_id": "sample_726", "difficulty": "easy"}
{"model": "gpt-4.1", "prediction": {"output": "True"}, "problem_id": "sample_96", "difficulty": "easy"}
{"model": "gpt-4.1", "prediction": {"output": "error"}, "problem_id": "sample_26", "difficulty": "easy"}
{"model": "gpt-4.1", "prediction": {"output": "we32r71g72ug94823658324"}, "problem_id": "sample_680", "difficulty": "easy"}
{"model": "gpt-4.1", "prediction": {"output": 2}, "problem_id": "sample_720", "difficulty": "easy"}
{"model": "gpt-4.1", "prediction": {"output": 34}, "problem_id": "sample_594", "difficulty": "easy"}
{"model": "gpt-4.1", "prediction": {"output": "the cow goes moo#"}, "problem_id": "sample_40", "difficulty": "easy"}
{"model": "gpt-4.1", "prediction": {"output": "001"}, "problem_id": "HumanEval_65", "difficulty": "easy"}
{"model": "gpt-4.1", "prediction": {"output": "T,Sspp,T,G ,.tB,Vxk,Cct"}, "problem_id": "sample_433", "difficulty": "easy"}
{"model": "gpt-4.1", "prediction": {"output": 3}, "problem_id": "sample_588", "difficulty": "easy"}
{"model": "gpt-4.1", "prediction": {"1": 1, "2": 2, "3": 3}, "problem_id": "sample_608", "difficulty": "easy"}
{"model": "gpt-4.1", "prediction": {"output": 0.0}, "problem_id": "atcoder_ABC168_C", "difficulty": "easy"}
{"model": "gpt-4.1", "prediction": {"output": "5"}, "problem_id": "sample_509", "difficulty": "easy"}
{"model": "gpt-4.1", "prediction": {"output": "dbtdabdahesyehu"}, "problem_id": "sample_63", "difficulty": "easy"}
{"model": "gpt-4.1", "prediction": {"output": true}, "problem_id": "sample_541", "difficulty": "easy"}
{"model": "gpt-4.1", "prediction": {"output": null}, "problem_id": "ClassEval_95@Warehouse.update_product_quantity", "difficulty": "easy"}
{"model": "gpt-4.1", "prediction": {"output": "ff"}, "problem_id": "sample_530", "difficulty": "easy"}
{"model": "gpt-4.1", "prediction": {"output": "uzlwaqiaju"}, "problem_id": "sample_237", "difficulty": "easy"}
{"model": "gpt-4.1", "prediction": {"output": ["dxh", "ix", "snegi", "wiubvu"]}, "problem_id": "sample_727", "difficulty": "easy"}
{"model": "gpt-4.1", "prediction": {"output": ""}, "problem_id": "sample_650", "difficulty": "easy"}
{"model": "gpt-4.1", "prediction": {"output": "!123Leap and the net will appear"}, "problem_id": "sample_125", "difficulty": "easy"}
{"model": "gpt-4.1", "prediction": {"output": "quiz leader = Cornareti, count = 23"}, "problem_id": "sample_774", "difficulty": "easy"}
{"model": "gpt-4.1", "prediction": {"output": "k2n7pQz3wB"}, "problem_id": "django__django-15752@@django.contrib.auth.base_user.py@@make_random_password", "difficulty": "easy"}
{"model": "gpt-4.1", "prediction": {"output": false}, "problem_id": "sample_747", "difficulty": "easy"}
{"model": "gpt-4.1", "prediction": {"output": "?XyZ"}, "problem_id": "sample_455", "difficulty": "easy"}
{"model": "gpt-4.1", "prediction": {"output": 0}, "problem_id": "sample_39", "difficulty": "easy"}
{"model": "gpt-4.1", "prediction": {"output": -3}, "problem_id": "ClassEval_30@DataStatistics2.get_min", "difficulty": "easy"}
{"model": "gpt-4.1", "prediction": {"vzjmc": "b", "ae": "f"}, "problem_id": "sample_459", "difficulty": "easy"}
{"model": "gpt-4.1", "prediction": {"output": -8389054383939643932}, "problem_id": "sphinx-doc__sphinx-10353@@sphinx.util.inspect.py@@__hash__", "difficulty": "easy"}
{"model": "gpt-4.1", "prediction": {"output": " ,,,,,, \u0645\u0646\u0628\u062a"}, "problem_id": "sample_543", "difficulty": "easy"}
{"model": "gpt-4.1", "prediction": {"output": "Hey"}, "problem_id": "sample_140", "difficulty": "easy"}
{"model": "gpt-4.1", "prediction": {"output": "qpfi jzm"}, "problem_id": "sample_501", "difficulty": "easy"}
{"model": "gpt-4.1", "prediction": {"output": null}, "problem_id": "ClassEval_28@DatabaseProcessor.insert_into_database", "difficulty": "easy"}
{"model": "gpt-4.1", "prediction": {"output": "loved a"}, "problem_id": "sample_709", "difficulty": "easy"}
{"model": "gpt-4.1", "prediction": {"output": ["m", " "]}, "problem_id": "sample_204", "difficulty": "easy"}
{"model": "gpt-4.1", "prediction": {"output": "1 100\n2 99\n3 98\n4 97\n5 96\n6 95\n7 94\n8 93\n9 92\n10 91\n11 90\n12 89\n13 88\n14 87\n15 86\n16 85\n17 84\n18 83\n19 82\n20 81\n21 80\n22 79\n23 78\n24 77\n25 76\n26 75\n27 74\n28 73\n29 72\n30 71\n31 70\n32 69\n33 68\n34 67\n35 66\n36 65\n37 64\n38 63\n39 62\n40 61\n41 60\n42 59\n43 58\n44 57\n45 56\n46 55\n47 54\n48 53\n49 52\n50 51"}, "problem_id": "codeforces_334_A", "difficulty": "easy"}
{"model": "gpt-4.1", "prediction": {"output": -1}, "problem_id": "sample_117", "difficulty": "easy"}
{"model": "gpt-4.1", "prediction": {"output": "urecord"}, "problem_id": "sample_313", "difficulty": "easy"}
{"model": "gpt-4.1", "prediction": {"output": false}, "problem_id": "ClassEval_99@ZipFileProcessor.extract_file", "difficulty": "easy"}
{"model": "gpt-4.1", "prediction": {"output": "True"}, "problem_id": "sample_72", "difficulty": "easy"}
{"model": "gpt-4.1", "prediction": {"output": [5, 3, 3, 7]}, "problem_id": "sample_734", "difficulty": "easy"}
{"model": "gpt-4.1", "prediction": {"output": null}, "problem_id": "ClassEval_96@WeatherSystem.set_city", "difficulty": "easy"}
{"model": "gpt-4.1", "prediction": {"l": 1, "t": 2}, "problem_id": "sample_25", "difficulty": "easy"}
{"model": "gpt-4.1", "prediction": {"output": false}, "problem_id": "ClassEval_43@HRManagementSystem.remove_employee", "difficulty": "easy"}
{"model": "gpt-4.1", "prediction": {"output": "001"}, "problem_id": "sample_494", "difficulty": "easy"}
{"model": "gpt-4.1", "prediction": {"output": null}, "problem_id": "ClassEval_85@Thermostat.set_target_temperature", "difficulty": "easy"}
{"model": "gpt-4.1", "prediction": {"output": "Iron Man"}, "problem_id": "sample_283", "difficulty": "easy"}
{"model": "gpt-4.1", "prediction": {"output": 1}, "problem_id": "ClassEval_18@CamelCaseMap.__len__", "difficulty": "easy"}
{"model": "gpt-4.1", "prediction": {"output": ".bpxa24fc5"}, "problem_id": "sample_221", "difficulty": "easy"}
{"model": "gpt-4.1", "prediction": {"output": "3 4 "}, "problem_id": "sample_664", "difficulty": "easy"}
{"model": "gpt-4.1", "prediction": {"output": "2025-08-25"}, "problem_id": "ClassEval_87@TimeUtils.get_current_date", "difficulty": "easy"}
{"model": "gpt-4.1", "prediction": {"output": "2:-1"}, "problem_id": "sample_83", "difficulty": "easy"}
{"model": "gpt-4.1", "prediction": {"output": 3}, "problem_id": "sample_282", "difficulty": "easy"}
{"model": "gpt-4.1", "prediction": {"output": 0}, "problem_id": "sample_395", "difficulty": "easy"}
{"model": "gpt-4.1", "prediction": {"_is_copy": null, "_mgr": {}, "_item_cache": {}, "_attrs": {}, "_flags": {"_allows_duplicate_labels": true}}, "problem_id": "mwaskom__seaborn-3010@@seaborn._stats.regression.py@@__call__", "difficulty": "easy"}
{"model": "gpt-4.1", "prediction": {"output": false}, "problem_id": "django__django-13066@@django.contrib.auth.hashers.py@@verify", "difficulty": "easy"}
{"model": "gpt-4.1", "prediction": {"output": []}, "problem_id": "sample_324", "difficulty": "easy"}
{"model": "gpt-4.1", "prediction": {"output": "qqqq"}, "problem_id": "sample_418", "difficulty": "easy"}
{"model": "gpt-4.1", "prediction": {"output": 0.5}, "problem_id": "HumanEval_2", "difficulty": "easy"}
{"model": "gpt-4.1", "prediction": {"output": "stew---corn-and-beans-in soup-.-"}, "problem_id": "sample_514", "difficulty": "easy"}
{"model": "gpt-4.1", "prediction": {"output": "aaa"}, "problem_id": "ClassEval_90@URLHandler.get_fragment", "difficulty": "easy"}
{"model": "gpt-4.1", "prediction": {"output": 0}, "problem_id": "atcoder_ABC158_B", "difficulty": "easy"}
{"model": "gpt-4.1", "prediction": {"brown": 2, "blue": 5, "bright": 4}, "problem_id": "sample_207", "difficulty": "easy"}
{"model": "gpt-4.1", "prediction": {"output": 3.141592653589793}, "problem_id": "ClassEval_1@AreaCalculator.calculate_annulus_area", "difficulty": "easy"}
{"model": "gpt-4.1", "prediction": {"output": "db1100111db"}, "problem_id": "HumanEval_79", "difficulty": "easy"}
{"model": "gpt-4.1", "prediction": {"output": 14}, "problem_id": "sample_65", "difficulty": "easy"}
{"model": "gpt-4.1", "prediction": {"output": "1co"}, "problem_id": "sample_239", "difficulty": "easy"}
{"model": "gpt-4.1", "prediction": {"penalty": "l2", "dual": false, "tol": 0.0001, "C": 1.0, "fit_intercept": true, "intercept_scaling": 1, "class_weight": null, "random_state": 123, "solver": "liblinear", "max_iter": 100, "multi_class": "ovr", "verbose": 0, "warm_start": false, "n_jobs": null, "l1_ratio": null, "classes_": [0, 1, 2], "coef_": [[0.073, -0.057], [0.011, 0.003], [-0.084, 0.054]], "intercept_": [0.019, -2.019, 2.0], "n_iter_": [5]}, "problem_id": "scikit-learn__scikit-learn-13780@@sklearn.ensemble.voting.py@@_parallel_fit_estimator", "difficulty": "easy"}
{"model": "gpt-4.1", "prediction": {"output": 3}, "problem_id": "sample_127", "difficulty": "easy"}
{"model": "gpt-4.1", "prediction": {"output": false}, "problem_id": "ClassEval_43@HRManagementSystem.add_employee", "difficulty": "easy"}
{"model": "gpt-4.1", "prediction": {"output": "iiiiiiii iiiiiiii iiioiien iiiooie iiioien"}, "problem_id": "sample_280", "difficulty": "easy"}
{"model": "gpt-4.1", "prediction": {"output": ["lsi", "s", "t", "t", "d"]}, "problem_id": "sample_322", "difficulty": "easy"}
{"model": "gpt-4.1", "prediction": {"output": null}, "problem_id": "ClassEval_84@TextFileProcessor.read_file_as_json", "difficulty": "easy"}
{"model": "gpt-4.1", "prediction": {"output": ",WpZpPPDL/"}, "problem_id": "sample_722", "difficulty": "easy"}
{"model": "gpt-4.1", "prediction": {"output": 2}, "problem_id": "sample_586", "difficulty": "easy"}
{"model": "gpt-4.1", "prediction": {"output": "p|x|c|z|n|y|f"}, "problem_id": "sample_307", "difficulty": "easy"}
{"model": "gpt-4.1", "prediction": {"output": 4.17}, "problem_id": "ClassEval_29@DataStatistics.mean", "difficulty": "easy"}
{"model": "gpt-4.1", "prediction": {"output": "$$$78$$$"}, "problem_id": "sample_770", "difficulty": "easy"}
{"model": "gpt-4.1", "prediction": {"output": "udbs l"}, "problem_id": "sample_707", "difficulty": "easy"}
{"model": "gpt-4.1", "prediction": {"output": []}, "problem_id": "sample_42", "difficulty": "easy"}
{"model": "gpt-4.1", "prediction": {"output": "manylettersasvszhelloman"}, "problem_id": "sample_46", "difficulty": "easy"}
{"model": "gpt-4.1", "prediction": {"output": "mty"}, "problem_id": "sample_78", "difficulty": "easy"}
{"model": "gpt-4.1", "prediction": {"output": "\"physicist ? mathematician. astronomer\""}, "problem_id": "codeforces_147_A", "difficulty": "easy"}
{"model": "gpt-4.1", "prediction": {"output": false}, "problem_id": "ClassEval_42@Hotel.check_in", "difficulty": "easy"}
{"model": "gpt-4.1", "prediction": {"w": 3, "wi": 10}, "problem_id": "sample_94", "difficulty": "easy"}
{"model": "gpt-4.1", "prediction": {"output": "new-medium-performing-application - XQuery 2."}, "problem_id": "sample_23", "difficulty": "easy"}
{"model": "gpt-4.1", "prediction": {"output": "r;r;r;r;r"}, "problem_id": "sample_738", "difficulty": "easy"}
{"model": "gpt-4.1", "prediction": {"output": null}, "problem_id": "pydata__xarray-6135@@xarray.coding.cftime_offsets.py@@__mul__", "difficulty": "easy"}
{"model": "gpt-4.1", "prediction": {"output": 1}, "problem_id": "ClassEval_38@ExcelProcessor.write_excel", "difficulty": "easy"}
{"model": "gpt-4.1", "prediction": {"output": 6.283185307179586}, "problem_id": "ClassEval_1@AreaCalculator.calculate_sector_area", "difficulty": "easy"}
{"model": "gpt-4.1", "prediction": {"output": null}, "problem_id": "sympy__sympy-13678@@sympy.functions.elementary.hyperbolic.py@@_eval_is_real", "difficulty": "easy"}
{"model": "gpt-4.1", "prediction": {"output": "False"}, "problem_id": "sample_406", "difficulty": "easy"}
{"model": "gpt-4.1", "prediction": {"output": "\\b[A-Za-z0-9._%+-]+@[A-Za-z0-9.-]+\\.[A-Z|a-z]{2}\\b"}, "problem_id": "ClassEval_72@RegexUtils.generate_email_pattern", "difficulty": "easy"}
{"model": "gpt-4.1", "prediction": {"output": "no"}, "problem_id": "sample_139", "difficulty": "easy"}
{"model": "gpt-4.1", "prediction": {"output": 12}, "problem_id": "HumanEval_85", "difficulty": "easy"}
{"model": "gpt-4.1", "prediction": {"output": [5, 5, 5, 5, 5, 5, 6, 6, 4, 4, 9, 9, 5]}, "problem_id": "sample_540", "difficulty": "easy"}
{"model": "gpt-4.1", "prediction": {"output": [10, 8, 6, 4, 2]}, "problem_id": "sample_515", "difficulty": "easy"}
{"model": "gpt-4.1", "prediction": {"output": "#[)[]>[^e>\n 8"}, "problem_id": "sample_474", "difficulty": "easy"}
{"model": "gpt-4.1", "prediction": {"output": false}, "problem_id": "sample_92", "difficulty": "easy"}
{"model": "gpt-4.1", "prediction": {"output": 40.0}, "problem_id": "HumanEval_45", "difficulty": "easy"}
{"model": "gpt-4.1", "prediction": {"output": " f9\n ldf9\n adf9!\n f9?"}, "problem_id": "sample_649", "difficulty": "easy"}
{"model": "gpt-4.1", "prediction": {"output": "x0x0"}, "problem_id": "sample_693", "difficulty": "easy"}
{"model": "gpt-4.1", "prediction": {"output": "p"}, "problem_id": "sample_655", "difficulty": "easy"}
{"model": "gpt-4.1", "prediction": {"output": "Name unknown"}, "problem_id": "sample_69", "difficulty": "easy"}
{"model": "gpt-4.1", "prediction": {"output": [[1, 2, 3], [1, 2], 1, [1, 2, 3], 3, [2, 1], [1, 2, 3], 3, [2, 1]]}, "problem_id": "sample_343", "difficulty": "easy"}
{"model": "gpt-4.1", "prediction": {"0": "abcca", "1": "abcca", "2": "abcca"}, "problem_id": "sample_587", "difficulty": "easy"}
{"model": "gpt-4.1", "prediction": {"output": "hhzzccww"}, "problem_id": "sample_347", "difficulty": "easy"}
{"model": "gpt-4.1", "prediction": {"output": "1Oe-ErrBzz-Bmm"}, "problem_id": "sample_38", "difficulty": "easy"}
{"model": "gpt-4.1", "prediction": {"output": null}, "problem_id": "sympy__sympy-17770@@sympy.functions.elementary.hyperbolic.py@@_eval_is_finite", "difficulty": "easy"}
{"model": "gpt-4.1", "prediction": {"output": 64}, "problem_id": "HumanEval_41", "difficulty": "easy"}
{"model": "gpt-4.1", "prediction": {"output": true}, "problem_id": "ClassEval_76@SignInSystem.sign_in", "difficulty": "easy"}
{"model": "gpt-4.1", "prediction": {"output": null}, "problem_id": "ClassEval_70@PersonRequest._validate_phoneNumber", "difficulty": "easy"}
{"model": "gpt-4.1", "prediction": {"output": "i like you"}, "problem_id": "sample_124", "difficulty": "easy"}
{"model": "gpt-4.1", "prediction": {"output": 1.25}, "problem_id": "ClassEval_30@DataStatistics2.get_variance", "difficulty": "easy"}
{"model": "gpt-4.1", "prediction": {"output": "INSERT INTO users (name, age, region) VALUES ('Tom', '30', 'USA')"}, "problem_id": "ClassEval_80@SQLQueryBuilder.insert", "difficulty": "easy"}
{"model": "gpt-4.1", "prediction": {"output": -2}, "problem_id": "sample_685", "difficulty": "easy"}
{"model": "gpt-4.1", "prediction": {"output": [5, 1, 3, 7, 8, "", 0, -1, []]}, "problem_id": "sample_430", "difficulty": "easy"}
{"model": "gpt-4.1", "prediction": {"output": [21, 58, 92, 21, 92]}, "problem_id": "sample_41", "difficulty": "easy"}
{"model": "gpt-4.1", "prediction": {"output": true}, "problem_id": "ClassEval_61@MusicPlayer.stop", "difficulty": "easy"}
{"model": "gpt-4.1", "prediction": {"output": [["a", 1], ["b", 2], ["c", 3]]}, "problem_id": "sample_797", "difficulty": "easy"}
{"model": "gpt-4.1", "prediction": {"output": "f.irst_second_third"}, "problem_id": "sample_559", "difficulty": "easy"}
{"model": "gpt-4.1", "prediction": {"output": 0.5}, "problem_id": "atcoder_ABC142_A", "difficulty": "easy"}
{"model": "gpt-4.1", "prediction": {"output": [-2, -2, 4, 4, -4, -4]}, "problem_id": "sample_150", "difficulty": "easy"}
{"model": "gpt-4.1", "prediction": {"output": "5*83*23***"}, "problem_id": "sample_292", "difficulty": "easy"}
{"model": "gpt-4.1", "prediction": {"output": "llthh#saflapkphtswp"}, "problem_id": "sample_228", "difficulty": "easy"}
{"model": "gpt-4.1", "prediction": {"output": 0.6666666666666666}, "problem_id": "HumanEval_4", "difficulty": "easy"}
{"model": "gpt-4.1", "prediction": {"output": ""}, "problem_id": "sample_427", "difficulty": "easy"}
{"model": "gpt-4.1", "prediction": {"output": []}, "problem_id": "sample_379", "difficulty": "easy"}
{"model": "gpt-4.1", "prediction": {"output": null}, "problem_id": "ClassEval_18@CamelCaseMap.__delitem__", "difficulty": "easy"}
{"model": "gpt-4.1", "prediction": {"noeohqhk": 623, "1049": 55}, "problem_id": "sample_349", "difficulty": "easy"}
{"model": "gpt-4.1", "prediction": {"output": ",saw"}, "problem_id": "sample_20", "difficulty": "easy"}
{"model": "gpt-4.1", "prediction": {"output": "Chris requires  ride to the irport on Fridy."}, "problem_id": "sample_731", "difficulty": "easy"}
{"model": "gpt-4.1", "prediction": {"output": 1}, "problem_id": "atcoder_ABC178_A", "difficulty": "easy"}
{"model": "gpt-4.1", "prediction": {"output": 5}, "problem_id": "sample_725", "difficulty": "easy"}
{"model": "gpt-4.1", "prediction": {"output": "89"}, "problem_id": "sample_618", "difficulty": "easy"}
{"model": "gpt-4.1", "prediction": {"output": [1, 3, 3, 3, 3]}, "problem_id": "sample_226", "difficulty": "easy"}
{"model": "gpt-4.1", "prediction": {"output": "816"}, "problem_id": "sample_49", "difficulty": "easy"}
{"model": "gpt-4.1", "prediction": {"output": "True"}, "problem_id": "sample_97", "difficulty": "easy"}
{"model": "gpt-4.1", "prediction": {"output": [6, 4, 2, 8, 15]}, "problem_id": "sample_344", "difficulty": "easy"}
{"model": "gpt-4.1", "prediction": {"output": "zbzquiuqnfkx"}, "problem_id": "sample_118", "difficulty": "easy"}
{"model": "gpt-4.1", "prediction": {"output": "abcdefghij"}, "problem_id": "sample_103", "difficulty": "easy"}
{"model": "gpt-4.1", "prediction": {"output": [["a", 2], ["b", 1]]}, "problem_id": "sample_182", "difficulty": "easy"}
{"model": "gpt-4.1", "prediction": {"output": [12, 1]}, "problem_id": "HumanEval_159", "difficulty": "easy"}
{"model": "gpt-4.1", "prediction": {"output": 5}, "problem_id": "ClassEval_29@DataStatistics.median", "difficulty": "easy"}
{"model": "gpt-4.1", "prediction": {"output": "2$z&5H3*1a@#a*1hris"}, "problem_id": "sample_294", "difficulty": "easy"}
{"model": "gpt-4.1", "prediction": {"output": [15, 15, 15]}, "problem_id": "sample_202", "difficulty": "easy"}
{"model": "gpt-4.1", "prediction": {"output": 1021668996}, "problem_id": "codeforces_171_A", "difficulty": "easy"}
{"model": "gpt-4.1", "prediction": {"output": 0}, "problem_id": "atcoder_ABC169_C", "difficulty": "easy"}
{"model": "gpt-4.1", "prediction": {"output": "mathematics"}, "problem_id": "sample_401", "difficulty": "easy"}
{"model": "gpt-4.1", "prediction": {"output": 2}, "problem_id": "sample_403", "difficulty": "easy"}
{"model": "gpt-4.1", "prediction": {"output": 6.25}, "problem_id": "ClassEval_94@VendingMachine.insert_coin", "difficulty": "easy"}
{"model": "gpt-4.1", "prediction": {"1": {"employee_ID": "1", "name": "John", "position": "Manager", "department": "Sales", "salary": 100000}}, "problem_id": "ClassEval_43@HRManagementSystem.list_employees", "difficulty": "easy"}
{"model": "gpt-4.1", "prediction": {"output": "unrndqafi"}, "problem_id": "sample_468", "difficulty": "easy"}
{"model": "gpt-4.1", "prediction": {"output": 1}, "problem_id": "sample_54", "difficulty": "easy"}
{"model": "gpt-4.1", "prediction": {"output": "a---l---a"}, "problem_id": "sample_393", "difficulty": "easy"}
