{"model": "o4-mini", "prediction": {"regressor": {"fit_intercept": true, "normalize": false, "copy_X": true, "n_jobs": null}, "transformer": null, "func": "<function sqrt>", "inverse_func": "<function log>", "check_inverse": true, "_training_dim": 1, "transformer_": {"func": "<function sqrt>", "inverse_func": "<function log>", "validate": true, "accept_sparse": false, "check_inverse": true, "kw_args": null, "inv_kw_args": null}, "regressor_": {"fit_intercept": true, "normalize": false, "copy_X": true, "n_jobs": null, "coef_": [0.27983219, -0.37401987, 0.44854716, -0.19283605, 0.11940768, 0.26109253, -0.08762431, 0.15377042, -0.24157314, 0.33348629], "_residues": 0.00214735, "rank_": 10, "singular_": [12.34567891, 11.23456789, 10.12345678, 9.01234567, 8.90123456, 7.89012345, 6.78901234, 5.67890123, 4.56789012, 3.45678901], "intercept_": 4.56789012}}, "problem_id": "scikit-learn__scikit-learn-14890@@sklearn.compose._target.py@@fit", "difficulty": "difficult"}
{"model": "o4-mini", "prediction": {"_shape": [2, 2], "maxprint": 50, "indices": [1, 0], "indptr": [0, 1, 2], "data": [1.0, 1.0]}, "problem_id": "scikit-learn__scikit-learn-25589@@sklearn.preprocessing._encoders.py@@transform", "difficulty": "difficult"}
{"model": "o4-mini", "prediction": {"output": "Digest username=\"user\", realm=\"me@kennethreitz.com\", nonce=\"b65c75a3f423e5780128d1a798ec40b4\", uri=\"/digest-auth/auth/user/pass\", response=\"<computed-response>\", opaque=\"21d73260ff0b61c1f304ee40444f24bf\", algorithm=\"MD5\", qop=\"auth\", nc=00000002, cnonce=\"<computed-cnonce>\""}, "problem_id": "psf__requests-1766@@requests.auth.py@@build_digest_header", "difficulty": "difficult"}
{"model": "o4-mini", "prediction": {"output": "[[1.85825298e+00, -1.98980636e+00, -1.37361285e+00, 2.91634040e-01, 7.28569828e-02, -1.85542451e-02, 1.00037285e-01, 4.28080951e-01, -1.03978785e+00, 2.91228380e-01],\n               [2.30995454e+00, -2.00350437e+00, -9.21717771e-01, -5.76890440e-03, -9.82699680e-01, -8.04159716e-01, -1.19818671e+00, 7.66768767e-01, 2.17525545e-01, 2.08444169e+00],\n               [1.47572479e+00, 1.07501650e+00, -4.27094590e-01, 1.51347609e+00, -2.10082473e+00, 1.00607292e+00, -1.03711487e+00, -1.80526763e+00, -1.10219609e+00, 1.07857910e+00],\n               [9.21438361e-01, 1.91909252e+00, 1.47565847e-02, -5.18734066e-01, -2.81526351e-01, 5.60369332e-01, 7.55208981e-01, -1.06089086e+00, 5.44738496e-02, -1.04278632e-01],\n               [1.08550982e+00, 9.76464463e-02, -1.69350694e+00, -3.51609684e-01, 5.89799139e-01, -1.47896813e+00, -1.42295597e+00, -8.26461121e-01, 7.84208626e-01, -1.95417204e-01],\n               [2.31580755e-01, 2.99723497e+00, -7.60471796e-01, -1.26459544e+00, 8.56933176e-01, -4.93994346e-01, 1.46366584e-02, -1.60646646e+00, 1.61989515e-01, 5.35038317e-01],\n               [1.98662127e+00, 1.04376635e-01, -7.56994029e-01, 8.30588610e-01, 1.04362959e+00, -7.60947295e-01, -8.54313176e-02, -7.89963635e-01, -4.70839626e-01, -1.03305371e+00],\n               [1.61842204e+00, -1.30848704e+00, -8.17405876e-01, -2.31186710e-01, -1.61024346e+00, 1.43060190e+00, -1.72538572e+00, 3.59249589e-01, 8.81934954e-01, 2.05013088e-01],\n               [1.39904258e+00, 2.20474963e+00, -3.34520319e-01, 1.21136351e+00, -2.16942319e+00, -3.35021039e-01, -1.71697153e+00, -1.46186553e+00, -5.71102085e-01, -1.96792820e+00],\n               [2.45509176e+00, 1.17574587e+00, 6.88397839e-01, 6.08832004e-02, 4.48718882e-01, -2.28156367e+00, -7.88809508e-01, 1.18727088e+00, -9.41222103e-01, -1.28229697e-01],\n               [9.55268724e-01, 2.37717493e+00, -8.10849468e-01, 1.27238613e+00, -8.02994742e-01, 1.02230320e+00, 1.50787592e+00, -9.23341696e-01, 6.58777556e-01, 1.28597256e+00],\n               [1.01100510e+00, 2.35171315e+00, -4.58504439e-01, -1.15506703e+00, 1.18876454e-01, 1.03214498e+00, 5.39952432e-01, -2.25126119e+00, -3.43617256e-01, -6.79435318e-02],\n               [-1.19576120e-01, 2.73826765e+00, -7.21954121e-01, 1.17658723e+00, -1.51501515e+00, -8.93671812e-01, -6.80243627e-01, 1.94206644e-01, -9.67497398e-01, 1.06825969e+00],\n               [9.45979776e-01, 1.24170346e+00, -1.03253746e+00, 1.21308761e+00, 1.14471880e+00, 1.67840445e+00, 4.78404880e-01, 9.17376518e-02, 4.26534769e-02, 1.36425174e+00],\n               [4.87594623e-01, 2.16143176e+00, -8.54671773e-01, 1.09958891e+00, -6.27734441e-01, -1.29316820e-01, -8.98539413e-01, 1.93064772e+00, 1.98606513e-01, -1.45807253e-01],\n               [4.43018479e-01, 7.93584893e-01, -2.44499934e+00, -2.19114451e-01, 1.76249777e+00, -1.28223947e+00, 2.69826794e-01, 8.78698596e-01, 7.96627365e-03, 1.08857292e+00],\n               [6.19901882e-01, 1.99716634e+00, -8.98758004e-01, 7.89783026e-02, 8.06082332e-01, 5.19104919e-01, -1.27284450e-01, -8.40984011e-01, -4.95306201e-01, -1.37020005e-01],\n               [1.74408082e+00, 4.02634030e-01, -9.41469103e-01, 9.87424495e-01, -7.18549682e-01, 1.93803498e+00, 2.20391311e-01, -4.75094890e-01, 2.38653989e-01, 4.05642436e-01],\n               [7.46976936e-01, 1.09511887e-03, -8.83627294e-01, 2.99658730e-01, 6.91165041e-01, -1.90583721e+00, 2.82044327e-01, -2.28763993e+00, -5.51474125e-01, 1.20762067e+00],\n               [1.00595744e+00, 2.25674669e+00, -4.61929909e-01, -1.15179807e+00, 1.55182596e-01, -6.32009056e-01, -1.81677267e+00, -1.88014899e-01, 8.90667144e-02, -1.60539390e+00],\n               [6.16095802e-01, 1.86806798e+00, -1.37755966e+00, -7.07515588e-01, -2.14910446e+00, 1.26303753e-01, -4.36291006e-02, 1.01271502e+00, -1.74233712e+00, -1.06847438e+00],\n               [1.00716417e+00, -1.07388574e+00, -1.22093531e+00, 1.65534940e+00, 8.51931977e-01, 1.37098216e+00, 2.74074532e-01, 4.03809029e-01, -1.04002865e+00, 1.25338482e+00],\n               [-9.57086733e-02, 2.14467225e+00, -1.32945751e+00, -4.02224817e-01, -1.53301551e+00, 1.54624556e+00, 1.24546645e-01, 2.06549848e-01, -9.04994546e-01, 6.54498125e-01],\n               [6.40385487e-01, 1.62374343e-01, -1.82980550e+00, 4.61331047e-01, -1.65459123e+00, -1.38543012e+00, 4.44631643e-01, -8.46761737e-01, 8.93276358e-01, 3.86761165e-01],\n               [1.31480704e+00, 1.06916261e+00, -1.43667649e+00, -5.13427186e-03, -9.30139995e-01, -1.49407352e+00, 4.68739268e-01, 2.22334149e-01, -2.04646486e-01, -4.64435230e-02],\n               [3.23400957e-02, 2.39922700e+00, -1.80094780e+00, -6.97883742e-01, -1.12701649e-01, -1.00826485e+00, -5.29337845e-02, 3.33005742e-01, -6.48981763e-01, -1.54305643e+00],\n               [-4.06060001e+00, 7.46947451e-01, -1.96841529e+00, 1.65946033e+00, -9.70092222e-01, 1.29233496e+00, -9.38761907e-01, -1.21253290e+00, 1.67364748e+00, 1.97539178e+00],\n               [-3.42805379e+00, 2.24562395e+00, -2.08410582e+00, -1.17701205e+00, 1.28612871e+00, 8.71773490e-01, -9.85959963e-01, 9.34594650e-02, -1.61964135e+00, -1.62542609e+00],\n               [-8.68079124e-01, 4.78750536e-01, -1.20052684e+00, -5.14445498e-01, 3.12787072e-01, 1.56451260e+00, 8.18435504e-01, 4.02149816e-01, 1.18055558e-01, 3.54427721e-02],\n               [4.04508861e-03, 1.67865008e+00, -1.90969694e+00, -4.77901096e-01, 6.23693170e-01, -2.46952308e+00, -1.14912376e+00, -5.00970786e-01, 1.47594784e-02, -3.91050579e-01],\n               [-2.62802110e+00, 1.11522162e+00, -1.99440882e+00, -3.88419578e-01, 1.05014196e+00, -3.20693872e-02, -4.77338656e-02, -2.77342949e-01, -4.72136268e-01, -1.85329637e-01],\n               [-9.99810700e-01, 2.34915913e-01, -1.69422985e+00, 1.95420226e-01, 1.48838294e+00, 3.24843567e-01, -1.18814232e+00, -1.49414282e-01, -3.03328915e-01, -1.35969704e+00],\n               [-3.33221787e-01, 2.04613745e+00, -1.37096470e+00, -2.13801735e+00, 4.00937099e-01, 7.06842389e-01, 7.92607785e-01, -2.33423082e-01, 8.59745314e-01, 3.66280535e-01],\n               [-2.17657710e+00, 2.34322552e+00, -2.68912154e+00, 7.26423161e-01, 1.79384552e-02, -2.28547991e+00, -1.47884513e+00, -1.35319994e+00, -2.89455283e-02, -1.71743247e+00],\n               [-3.48009873e+00, 1.56159908e+00, -1.76162036e+00, -1.15290926e+00, 9.41030811e-01, -1.02852693e+00, 6.55358098e-02, 4.10470290e-01, -1.16893036e+00, -1.91440763e+00],\n               [-1.06094604e+00, 4.01014780e-01, 7.38864004e-01, 7.32355692e-02, 7.49688133e-01, 8.61383002e-02, -1.73723493e+00, 1.54933777e-01, -3.06099839e-01, 9.01940817e-01],\n               [-4.36630320e+00, 9.66684149e-01, -1.36577153e+00, 8.32378766e-01, -4.21705878e-01, -2.25102829e+00, -1.68572411e+00, 7.95706156e-01, -3.42584529e-01, 3.68466907e-01],\n               [-1.97219995e+00, 1.10853712e+00, -3.36639787e+00, -9.74300398e-02, 6.38873498e-01, 1.06138668e+00, -7.73586770e-01, -6.96015438e-01, -4.12356440e-01, -1.81030697e+00],\n               [-6.56347352e-01, 2.29382288e+00, -1.62114780e+00, 1.53082680e+00, -3.32510932e-02, -7.19820378e-02, 6.86529783e-02, 1.16556960e+00, -2.48495962e-01, -4.79482926e-01],\n               [-6.79200921e-02, -4.87976437e-01, 8.09777481e-01, -8.41456671e-01, -1.34346249e-01, -7.57249672e-01, 1.63389801e-01, -9.39805434e-01, 5.56344157e-01, -1.46217032e+00],\n               [-6.58006077e-01, 3.64712167e-01, -5.82721586e-01, -1.64254441e-01, 6.56636677e-01, -8.01201043e-01, -8.27585338e-01, -5.74829043e-01, -2.07515845e-02, -1.14888952e+00],\n               [-1.30029722e+00, 1.28561144e+00, -1.40293897e+00, 1.75039066e+00, 1.18641832e+00, -4.70147241e-01, 7.59823716e-01, -2.82994349e-01, -6.55994180e-01, 1.24212850e+00],\n               [-6.33328049e-01, 3.68959450e-02, -2.80323407e-01, -1.46855646e+00, 8.45067053e-01, -5.84190471e-01, -5.30002369e-01, 1.48760981e+00, -5.88254817e-01, -1.40026191e+00],\n               [-4.37614692e+00, 9.36719391e-01, -1.11010691e+00, 3.05732433e+00, 3.25540031e-01, 3.85129741e-01, 3.44041564e-01, -1.10931502e+00, 3.42057513e-01, -5.76887123e-01],\n               [-3.16284215e+00, 1.60820915e-01, -1.40306748e+00, 1.13274122e+00, 4.99166204e-01, 8.60161983e-01, -4.27433228e-02, -7.51771468e-02, -1.63576967e-01, -6.26979908e-01],\n               [1.20092391e+00, 8.72183204e-01, -8.83740496e-01, 1.64650580e+00, -1.13275442e-01, 1.33844805e+00, 3.45790962e-01, 5.66636928e-01, -1.75982722e+00, -1.25596928e+00],\n               [-1.58555095e+00, 1.84738090e+00, -5.76645604e-01, 9.99327972e-01, 4.01681980e-02, 5.08473989e-01, 2.35333669e-01, -8.54504872e-01, 5.56776133e-01, -1.14480657e+00],\n               [-6.49356338e-01, -1.41598983e-01, -3.67996635e-02, -5.24587051e-02, 5.54647259e-01, -1.78917486e-01, -2.03510357e-01, 3.96692602e-01, 1.04508300e+00, -1.67242863e+00],\n               [-5.39911391e-01, 8.41410061e-01, -2.79835815e+00, 5.68466213e-01, -3.69916074e-01, 9.49620217e-01, -1.92983748e-02, 1.39899247e-01, -1.34673130e+00, -1.19974717e+00],\n               [-1.25784684e+00, 1.75749240e+00, -3.70110723e+00, -1.13613554e+00, -2.08212975e+00, -1.65279195e+00, 6.83384035e-01, -2.34924655e-01, 9.20402707e-01, 9.37379898e-01],\n               [-2.64032452e+00, -2.81982178e-01, 1.32367941e+00, 6.21740853e-01, -1.68086937e+00, 6.61217747e-01, 6.24507479e-01, 1.18991667e+00, -6.82961987e-01, -6.53126506e-01],\n               [-2.58252871e+00, -4.39138444e-01, 1.11118053e+00, 4.29766650e-01, -1.73271971e-01, 1.08060125e+00, -2.89279430e+00, -7.61401332e-01, 1.97513784e+00, 1.10593412e+00],\n               [-2.52544490e+00, 2.95798151e-01, 4.72395984e-01, 1.11319836e+00, -5.52499373e-03, -1.29947161e+00, 1.68392246e+00, 1.28237242e+00, -3.43690224e-01, -1.15738312e+00],\n               [6.76455827e-01, -2.31961214e+00, 2.70028988e+00, -6.08917010e-01, -1.00218322e+00, -5.11008522e-01, -1.97161176e+00, 9.92744768e-01, 1.21169846e+00, -7.42269288e-01],\n               [-1.48733742e+00, -2.09188299e+00, 2.80110024e+00, 1.09854667e+00, -1.29482133e+00, -2.30105665e+00, 2.65181314e+00, 1.24011278e-01, 9.10395829e-01, 5.45170045e-01],\n               [-3.14154840e+00, 2.32002350e-01, -7.79516662e-01, 7.89964813e-01, 1.99339379e-01, -1.39994935e-01, -1.13065905e-01, -3.09592764e-01, -5.71847002e-02, -9.37661759e-01],\n               [-1.38291500e+00, -1.81340364e+00, 2.40917243e+00, -5.63310038e-01, 8.93263427e-01, -4.40111295e-01, -9.05112893e-01, -3.24566482e-01, 2.83288178e-01, -7.97924624e-01],\n               [-6.86561437e-01, -1.69233636e+00, 1.51291825e+00, 1.56672894e+00, 1.11945991e+00, -9.68579604e-01, 1.23322873e+00, -8.88071635e-01, -5.45084673e-01, 6.08529041e-01],\n               [-1.14473926e+00, -5.82821879e-01, 2.28671192e-01, -8.66789568e-01, -5.66190674e-01, -2.76452748e-01, -2.14204050e+00, 1.17151627e+00, 7.34698736e-02, -2.38254846e-01],\n               [-1.91005732e+00, -9.29200047e-01, 7.48629275e-01, 3.31508150e-01, -8.62574894e-01, 2.72855164e-01, -1.95718820e+00, -4.51991358e-01, -1.88771897e-01, -1.98897469e+00],\n               [-1.00117046e+00, -1.37441918e+00, 3.37388823e+00, -2.71683402e-01, 1.44934635e-01, 3.56005595e-01, 5.74871852e-01, 3.48210100e-02, 4.39764393e-04, 1.61204613e-01],\n               [-3.12453979e+00, 6.40038633e-03, 8.67119077e-01, -1.39804320e+00, -1.01704708e+00, -1.08937084e+00, 7.50761402e-01, 1.62118288e-01, 6.23900444e-01, 8.50464703e-01],\n               [5.94214526e-02, -1.85136997e+00, 1.80289957e+00, 7.90211266e-01, 1.10726865e-01, 1.07790748e+00, -2.20251153e-02, -4.66046593e-01, 5.43921150e-01, -1.10468650e+00],\n               [-1.22268348e+00, -3.66974013e-01, 5.79747031e-01, -7.23721365e-01, 1.72756670e+00, 5.00572525e-02, 3.45050086e-02, -9.30303747e-01, 8.88980112e-01, 1.69546183e+00],\n               [-1.22077801e+00, -1.90298162e+00, 3.12941725e+00, -1.36275092e-02, -2.76192007e-01, 5.53468585e-02, 1.04600797e+00, 1.01641982e-01, 5.60163343e-01, -3.20779869e-01],\n               [-2.79545999e+00, -6.01532166e-01, 1.67653631e+00, -5.92664816e-01, -3.92029426e-01, -3.54314898e-02, -3.11160999e-01, -2.60894165e+00, 5.11219351e-01, -1.47832026e+00],\n               [-5.40163424e-01, -1.31250651e+00, 1.16857992e+00, -8.06606856e-01, 7.73246330e-01, 1.51207245e+00, 1.30498247e+00, -3.30370129e-02, 1.20127110e+00, -8.36044283e-02],\n               [-1.39628404e+00, -3.60248516e-01, 6.23991737e-03, -1.08565485e+00, -1.26851699e+00, -7.74727167e-01, -6.02698660e-01, -3.79525367e-01, -1.14763415e+00, 8.26930893e-02],\n               [-2.55838858e+00, -8.04283448e-02, 1.95477431e-01, 1.02256840e+00, -1.47905171e+00, 1.90105139e+00, -8.73317724e-01, -8.18601322e-02, 1.17189492e+00, -1.09348814e-02],\n               [-1.55578684e+00, -1.14588226e+00, 8.55341874e-01, -3.27425388e-01, 7.31955483e-01, -5.51449180e-01, -7.52133713e-01, -1.06136058e+00, 6.75133304e-01, 9.13890330e-01],\n               [-1.70729866e+00, -3.75747530e-01, -4.40514255e-02, 1.77751719e+00, 5.03479124e-01, 6.91955581e-03, -3.01307206e-01, -9.71076399e-02, 1.93478628e-01, 5.76733349e-01],\n               [-1.70935021e+00, -7.69818145e-01, 3.45385372e-01, -9.45930329e-01, -3.11302987e-01, -5.17311351e-01, 5.56669627e-02, 1.89635392e-01, -2.45511846e+00, 4.97313271e-01],\n               [5.37360653e-01, -1.61531358e+00, 1.40710078e+00, -5.05013009e-01, 3.86100654e-01, -4.65020047e-01, 1.19697214e-01, 5.22751047e-01, 2.54056325e-01, -2.17701608e+00],\n               [-7.04584707e-01, -1.34648160e+00, 5.15051882e-01, 3.67035539e-01, 3.32867440e-01, -4.95868029e-01, 9.41143562e-02, 3.82038320e-01, -1.80080112e+00, 4.62789703e-01],\n               [-3.24335000e+00, -6.45827544e-01, 3.09499716e+00, -1.43008571e-01, 2.62254866e-01, 1.00556421e-01, 1.50065676e+00, -4.74304137e-02, -7.46071191e-01, -1.38334937e+00],\n               [-3.04289309e-01, 9.20981697e-01, -1.46106691e-01, -2.87390509e-01, -1.87314661e+00, -1.00625302e+00, -2.12163514e-01, -1.21710680e+00, 1.59486295e-01, -1.71468747e+00],\n               [1.82903403e+00, 2.01791323e+00, 1.83901760e+00, 2.18520383e-01, 1.31476412e+00, 2.82197575e-01, -8.40083657e-01, -9.79970994e-01, 2.72202195e-01, 1.14944062e+00],\n               [6.77886300e-01, 3.01451640e-01, 6.21896644e-01, -1.40832679e+00, 9.63107897e-02, -4.71294408e-02, -8.95927054e-01, 1.20207421e+00, -2.44402587e-01, 1.81983084e-01],\n               [1.91039177e+00, 1.93619068e+00, 1.90624191e+00, -1.33840856e+00, -5.16967803e-01, -6.60833743e-01, 3.05399322e-01, -1.52986900e+00, -7.05336005e-01, -2.19112354e+00],\n               [1.68521522e+00, 1.51895879e+00, 1.66740311e+00, 9.25909732e-02, -1.27612782e+00, 6.34618476e-01, 8.33958569e-01, -6.42409617e-01, -1.00020255e-01, 2.48384406e-01],\n               [1.39101924e+00, 8.30260607e-01, 1.30318480e+00, 1.32472804e+00, 7.07037513e-01, -2.49271276e-01, -1.15888632e+00, 5.15970069e-02, -2.74490054e-01, 1.37188643e+00],\n               [6.09850446e-01, 5.92100017e-01, 5.97043665e-01, -2.96105082e-01, -2.18016884e-01, 4.59657118e-01, -2.98291299e-01, -2.42484631e+00, 2.52735371e-01, 4.60448811e-02],\n               [1.05164314e+00, -2.29414921e-01, 8.78066956e-01, -8.70139251e-01, 1.55457199e+00, 4.14492860e-01, -6.85819297e-01, 2.18723312e-01, 5.65047079e-01, -1.33661320e+00],\n               [1.25954955e+00, 7.12380227e-01, 1.17793173e+00, -3.41672277e-01, 1.41960331e+00, -9.09415697e-01, 5.90905303e-01, 2.06461417e-01, 2.33268845e-01, 2.70684859e-01],\n               [1.59488797e+00, 4.23578558e-01, 1.44072419e+00, -2.44407396e-01, 4.49612612e-01, -1.37905044e+00, -1.49812229e+00, 1.90890194e+00, 6.85979436e-01, -1.61975312e+00],\n               [5.06089822e-02, 4.85121874e-01, 9.75046894e-02, -8.52525820e-01, 3.86729905e-01, 9.10739425e-01, 6.33476548e-01, -2.01925572e+00, 4.92764102e-01, 5.06954730e-01],\n               [1.27262208e+00, 2.59591868e+00, 1.42297198e+00, 1.43182264e-01, -5.05563308e-01, -1.28828278e+00, 9.57129036e-03, 4.17663343e-01, -5.37435768e-01, 3.12334895e-01],\n               [3.47483388e+00, 2.65996104e+00, 3.37073006e+00, 4.37740072e-02, -2.62019165e-01, -1.60160988e+00, -7.42722142e-01, 6.45057527e-01, -1.30223596e+00, 2.74850289e-01],\n               [8.54329169e-01, 7.68427150e-01, 8.34380281e-01, 1.83530126e+00, -8.39939858e-01, -7.80424051e-01, -1.85233956e-01, -1.26128171e-01, -2.48586565e-01, 3.62151560e-01],\n               [2.35591190e+00, 8.25965273e-01, 2.16249561e+00, -4.13496072e-\n01, 1.54038891e+00, 1.91435438e+00, 4.80689295e-01, 1.23092949e-02, 1.21424357e+00, -5.74215222e-01],\n               [-9.72127850e-01, -1.74111785e+00, -1.07770654e+00, -2.12295070e+00, 1.12475605e+00, 1.12060791e-01, 5.19141226e-01, -2.10944804e-01, -9.74857047e-01, 6.99210125e-01],\n               [4.59846403e-02, 6.02537082e-01, 1.03880988e-01, 1.01619520e+00, -1.97651391e-01, 3.41988824e-01, -2.47415048e-01, 1.59205834e+00, 5.62919999e-01, 9.10596658e-02],\n               [1.68491804e+00, 1.48845667e+00, 1.64981464e+00, 8.24386339e-01, -2.99608423e-01, -9.74980966e-01, 1.93050135e+00, 1.49385428e+00,\u000e1.09907658e-02, 7.83704523e-01],\n               [-2.97861010e-01, 4.15053582e-01, -1.96717062e-01, 6.62119196e-01, 9.52040078e-01, -6.30947375e-01, -1.42027726e+00, 2.60087917e+00, -3.04736481e-01, -5.83134624e-01],\n               [-1.14107653e+00, 1.21680084e-01, -9.84808213e-01, -3.79564509e-01, -1.43223234e-01, -1.22614079e+00, -1.15146565e+00, -2.83185876e-01, -6.98597551e-02, 4.83376747e-01],\n               [-1.39110805e-01, -6.32590150e-01, -1.91213197e-01, 9.96739464e-01, -5.49801958e-01, -1.74971277e+00, 6.28205254e-01, 1.04562595e+00, 1.65080687e-01, 5.96687779e-01],\n               [1.22239501e+00, 2.52931692e+00, 1.38156571e+00, 7.60782600e-01, 9.66481353e-01, -1.33892235e-01, -5.75767902e-01, 3.86551672e-01, -3.99352841e-01, 6.75381363e-01],\n               [4.92098576e-01, 1.14108402e+00, 5.79328250e-01, 3.53540107e-01, 1.03034223e+00, -5.02940554e-01, -2.56005329e-01, 5.42708444e-01, 3.35635696e-01, 4.03416893e-02],\n               [-1.91864533e-02, -3.51001040e-01, -5.64478140e-02, 1.67106186e+00, -1.00292551e+00, 1.40244569e+00, -5.18321382e-01, -1.58978847e+00, 1.67864515e-01, -9.26909137e-01],\n               [4.72894081e-01, 6.73166092e-01, 5.04768488e-01, -8.76158446e-01, 1.86125222e+00, 2.96060703e-01, 1.16046856e-01, 2.68629115e-01, -5.71806466e-01, 4.85655601e-01]]"}, "problem_id": "scikit-learn__scikit-learn-11635@@sklearn.feature_selection._base.py@@transform", "difficulty": "difficult"}
{"model": "o4-mini", "prediction": {"_args_set": "{2.0, 3}"}, "problem_id": "sympy__sympy-21586@@sympy.core.sympify.py@@sympify", "difficulty": "difficult"}
{"model": "o4-mini", "prediction": {"output": [2, 3, 5, 7, 11, 13]}, "problem_id": "ClassEval_19@ChandrasekharSieve.generate_primes", "difficulty": "difficult"}
{"model": "o4-mini", "prediction": {"output": null}, "problem_id": "sympy__sympy-13146@@sympy.core.operations.py@@_eval_evalf", "difficulty": "difficult"}
{"model": "o4-mini", "prediction": {"output": "ONE MILLION ONLY"}, "problem_id": "ClassEval_65@NumberWordFormatter.format_string", "difficulty": "difficult"}
{"model": "o4-mini", "prediction": {"values": null, "norm": null, "trans": "log", "_tick_params": {"locator": null, "at": null, "upto": null, "count": null, "every": null, "between": null, "minor": null}, "_label_params": {"formatter": null, "like": null, "base": {}, "unit": null}, "_legend": null, "_priority": 0, "_matplotlib_scale": {"_transform": {"_parents": {}, "_invalid": null, "_shorthand_name": null, "_forward": {}, "_inverse": {}}}, "_pipeline": [null, null, null, null], "_spacer": {}}, "problem_id": "mwaskom__seaborn-3187@@seaborn._core.scales.py@@_setup", "difficulty": "difficult"}
{"model": "o4-mini", "prediction": {"output": ["b", [[0.0, 0.0, 1.0, 1.0]], "r"]}, "problem_id": "matplotlib__matplotlib-24403@@lib.matplotlib.axes._axes.py@@_parse_scatter_color_args", "difficulty": "difficult"}
{"model": "o4-mini", "prediction": {"with_mean": true, "with_std": true, "copy": true, "mean_": "[ 0.01868038 -0.32145479  0.09072486  0.01138857 -0.19859000  0.35107633  -0.00040580  0.82498465  1.15872912  0.57111660  0.43914133 -0.37380340 -0.05973827  0.83268170  -0.90612485 -1.32985339 -1.07306638  0.60420482  0.55887026  0.54175133  1.00278020  1.04441729 -0.59090007  0.39582295 -0.89772564  0.20469348 -0.34341291  0.84848634  0.39095334 -0.14686551]", "n_samples_seen_": 470, "var_": "[12.81299129 60.99926579 27.31101182 33.91772639  1.31040527 42.40631665 40.28604753 48.41895545 94.01123287 44.00126117 19.28731510 25.29225791 48.22680121  2.35653315 44.62899855 50.05505604  8.30762509  4.64360498 16.89548412 17.11657537 34.32148055 24.58013030 102.17551166  3.53639127  8.93911212  5.81702582 41.58786502  8.15686950 29.05060144  9.94289665]", "scale_": "[3.57925876 7.80818924 5.22646544 5.82542059 1.14472905 6.51048491 6.34675106 6.95859917 9.69587642 6.63418276 4.39194933 5.02908448 6.94574228 1.53434233 6.67842700 7.07847104 2.88299703 2.15469343 4.11088766 4.13831788 5.86180814 4.95784034 10.10801338 1.88050214 2.98983793 2.41206753 6.44639108 2.85710783 5.38949716 3.15322253]"}, "problem_id": "scikit-learn__scikit-learn-11235@@sklearn.preprocessing.data.py@@partial_fit", "difficulty": "difficult"}
{"model": "o4-mini", "prediction": {"output": "AttributeError: 'dict' object has no attribute 'base'"}, "problem_id": "sympy__sympy-18728@@sympy.core.power.py@@_eval_is_extended_real", "difficulty": "difficult"}
{"model": "o4-mini", "prediction": {"output": 3.0}, "problem_id": "ClassEval_39@ExpressionCalculator.calculate", "difficulty": "difficult"}
{"model": "o4-mini", "prediction": {"output": [0.0, 0.0]}, "problem_id": "astropy__astropy-13579@@astropy.wcs.wcsapi.wrappers.sliced_wcs.py@@world_to_pixel_values", "difficulty": "difficult"}
{"model": "o4-mini", "prediction": {"transformers": null, "remainder": "drop", "n_jobs": 2, "transformer_weights": null}, "problem_id": "scikit-learn__scikit-learn-11333@@sklearn.utils.metaestimators.py@@_set_params", "difficulty": "difficult"}
{"model": "o4-mini", "prediction": {"output": [[], "x**2"]}, "problem_id": "sympy__sympy-15011@@sympy.utilities.lambdify.py@@_preprocess", "difficulty": "difficult"}
{"model": "o4-mini", "prediction": {"output": false}, "problem_id": "ClassEval_7@BalancedBrackets.check_balanced_brackets", "difficulty": "difficult"}
{"model": "o4-mini", "prediction": {"output": "_x"}, "problem_id": "sympy__sympy-21432@@sympy.simplify.powsimp.py@@powdenest", "difficulty": "difficult"}
{"model": "o4-mini", "prediction": {"alpha": 1.0, "fit_intercept": true, "normalize": false, "copy_X": true, "max_iter": null, "tol": 0.001, "solver": "auto", "random_state": null, "coef_": [0.169103, -0.549427], "n_iter_": null, "intercept_": -0.964766}, "problem_id": "scikit-learn__scikit-learn-13363@@sklearn.linear_model.ridge.py@@fit", "difficulty": "difficult"}
{"model": "o4-mini", "prediction": {"_rows": 2, "_cols": 2, "_mat": null}, "problem_id": "sympy__sympy-21208@@sympy.matrices.expressions.matexpr.py@@_matrix_derivative", "difficulty": "difficult"}
{"model": "o4-mini", "prediction": {"n_components": null, "whiten": false, "copy": true, "batch_size": "18", "components_": [[0.61345312, -0.09234567, 0.78451234], [0.12789012, 0.98912345, -0.07890123], [0.78012345, -0.10789012, -0.6156789]], "n_samples_seen_": 100, "mean_": [0.090962, -0.12025564, -0.02202145], "var_": [0.98004747, 0.87277966, 1.00953559], "singular_values_": [12.3456789, 8.7654321, 7.65432109], "explained_variance_": [1.54012345, 0.77654321, 0.59213456], "explained_variance_ratio_": [0.53801234, 0.27165432, 0.19033334], "noise_variance_": 0.0, "batch_size_": "18", "n_components_": 3}, "problem_id": "scikit-learn__scikit-learn-13960@@sklearn.decomposition.incremental_pca.py@@partial_fit", "difficulty": "difficult"}
{"model": "o4-mini", "prediction": {}, "problem_id": "scikit-learn__scikit-learn-13779@@sklearn.ensemble.voting.py@@fit", "difficulty": "difficult"}
{"model": "o4-mini", "prediction": {"output": [1, [["x + 4", 1]]]}, "problem_id": "sympy__sympy-18698@@sympy.polys.polytools.py@@_symbolic_factor_list", "difficulty": "difficult"}
{"model": "o4-mini", "prediction": {}, "problem_id": "scikit-learn__scikit-learn-13960@@sklearn.decomposition.incremental_pca.py@@fit", "difficulty": "difficult"}
{"model": "o4-mini", "prediction": {"nargs": {"_elements": ["-log(2/3)"]}}, "problem_id": "sympy__sympy-14070@@sympy.simplify.simplify.py@@f", "difficulty": "difficult"}
{"model": "o4-mini", "prediction": {"output": "ABC"}, "problem_id": "ClassEval_66@NumericEntityUnescaper.replace", "difficulty": "difficult"}
{"model": "o4-mini", "prediction": {"output": "O"}, "problem_id": "ClassEval_41@GomokuGame.check_winner", "difficulty": "difficult"}
{"model": "o4-mini", "prediction": {"output": [[[-0.13391871, 0.81593331], [0.69763999, -1.1446667], [-0.23189441, -0.07416102], [1.19541705, 0.53035547], [0.3135779, -0.8540783], [-2.55298982, 0.6536186], [0.8644362, -0.74216502], [2.26975462, -1.45436567], [0.04575852, -0.18718385], [1.53277921, 1.46935877], [0.15494743, 0.37816252], [-0.88778575, -1.98079647], [-0.34791215, 0.15634897], [1.23029068, 1.20237985], [-0.38732682, -0.30230275], [-1.04855297, -1.42001794], [-1.70627019, 1.9507754], [-0.50965218, -0.4380743], [-1.25279536, 0.77749036], [-1.61389785, -0.21274028], [0.38967045, -1.8861859], [-0.62124058, 1.66638322], [0.63503144, -0.28425286], [-0.90802408, -1.4123037], [1.46564877, -0.2257763], [0.0675282, -1.42474819], [0.11092259, -1.15099358], [-0.60170661, 1.85227818], [-0.01349722, -1.05771093], [0.82254491, -1.22084365], [0.2088636, -1.95967012], [0.83794491, -0.81850348], [-0.09609841, 0.54436643], [0.81546143, -1.37042095], [-0.26664124, -0.67888615], [-0.09470897, -1.42723976], [0.5533135, 0.47294243], [0.35339898, 0.18319136], [1.73846658, 0.17136828], [-0.11564828, -0.3011037], [1.2245077, -0.86828353], [-0.87785842, 0.04221375], [0.40317939, 0.83898341], [1.14127213, 1.82641301], [-0.20515826, 0.40234164], [0.22876297, 0.7013559], [-2.55298982, 0.6536186], [0.8644362, -0.74216502], [2.26975462, -1.45436567], [0.04575852, -0.18718385], [1.53277921, 1.46935877], [0.15494743, 0.37816252], [-0.88778575, -1.98079647], [-0.34791215, 0.15634897], [1.23029068, 1.20237985], [-0.38732682, -0.30230275], [-1.04855297, -1.42001794], [-1.70627019, 1.9507754], [-0.50965218, -0.4380743], [-1.25279536, 0.77749036], [-1.61389785, -0.21274028], [0.38967045, -1.8861859], [-0.62124058, 1.66638322], [0.63503144, -0.28425286], [-0.90802408, -1.4123037], [1.46564877, -0.2257763], [0.0675282, -1.42474819], [0.11092259, -1.15099358], [-0.60170661, 1.85227818], [-0.01349722, -1.05771093], [0.82254491, -1.22084365], [0.2088636, -1.95967012], [0.83794491, -0.81850348], [-0.09609841, 0.54436643], [0.81546143, -1.37042095], [-0.26664124, -0.67888615], [-0.09470897, -1.42723976], [0.5533135, 0.47294243], [0.35339898, 0.18319136], [1.73846658, 0.17136828], [-0.11564828, -0.3011037], [1.2245077, -0.86828353], [-0.87785842, 0.04221375], [0.40317939, 0.83898341], [1.14127213, 1.82641301], [-0.20515826, 0.40234164], [0.22876297, 0.7013559]], [0, 0, 0, 0, 0, 0, 0, 0, 0, 0, 0, 0, 0, 0, 0, 0, 0, 0, 0, 0, 0, 0, 0, 0, 0, 0, 0, 0, 0, 0, 0, 0, 0, 0, 0, 0, 0, 0, 0, 0, 1, 1, 1, 1, 1, 1, 1, 1, 1, 1, 1, 1, 1, 1, 1, 1, 1, 1, 1, 1, 1, 1, 1, 1, 1, 1, 1, 1, 1, 1, 1, 1, 1, 1, 1, 1, 1, 1, 1, 1, 2, 2, 2, 2, 2, 2, 2, 2, 2, 2, 2, 2, 2, 2, 2, 2, 2, 2, 2, 2, 2, 2, 2, 2, 2, 2, 2, 2, 2, 2, 2, 2, 2, 2, 2, 2, 2, 2, 2, 2, 3, 3, 3, 3, 3, 3, 3, 3, 3, 3, 3, 3, 3, 3, 3, 3, 3, 3, 3, 3, 3, 3, 3, 3, 3, 3, 3, 3, 3, 3, 3, 3, 3, 3, 3, 3, 3, 3, 3, 3]]}, "problem_id": "scikit-learn__scikit-learn-14764@@sklearn.datasets.samples_generator.py@@make_classification", "difficulty": "difficult"}
{"model": "o4-mini", "prediction": {"output": null}, "problem_id": "ClassEval_39@ExpressionCalculator.prepare", "difficulty": "difficult"}
{"model": "o4-mini", "prediction": {"output": "admin/password_change/done/"}, "problem_id": "django__django-11728@@django.contrib.admindocs.utils.py@@replace_named_groups", "difficulty": "difficult"}
{"model": "o4-mini", "prediction": {"steps": null, "memory": null, "verbose": false}, "problem_id": "scikit-learn__scikit-learn-15119@@sklearn.pipeline.py@@fit", "difficulty": "difficult"}
{"model": "o4-mini", "prediction": {"output": "tanh(x)**(-3)"}, "problem_id": "sympy__sympy-13259@@sympy.simplify.fu.py@@f", "difficulty": "difficult"}
{"model": "o4-mini", "prediction": {"coef0": 0.1, "degree": 3.1}, "problem_id": "scikit-learn__scikit-learn-14706@@sklearn.kernel_approximation.py@@_get_kernel_params", "difficulty": "difficult"}
{"model": "o4-mini", "prediction": {}, "problem_id": "scikit-learn__scikit-learn-14704@@sklearn.model_selection._split.py@@_make_test_folds", "difficulty": "difficult"}
{"model": "o4-mini", "prediction": {"output": "            precision    recall  f1-score  support\n\n        blue      0.83      0.79      0.81        24\n       green      0.33      0.10      0.15        30\n         red      0.44      0.90      0.59        21\n\n    accuracy                      0.55        75\n   macro avg      0.53      0.60      0.52        75\nweighted avg      0.52      0.55      0.49        75\n"}, "problem_id": "scikit-learn__scikit-learn-12758@@sklearn.metrics.classification.py@@classification_report", "difficulty": "difficult"}
{"model": "o4-mini", "prediction": {"_shape": [1, 7], "maxprint": 10, "indices": [4], "indptr": [0, 1], "data": [1]}, "problem_id": "scikit-learn__scikit-learn-11042@@sklearn.preprocessing.data.py@@transform", "difficulty": "difficult"}
{"model": "o4-mini", "prediction": {"output": "-359538626972463141629054847463408713596141135051689993197834953606314521560057077521179117265533756343080917907028764928468642653778928365536935093407075033972099821153102564152490980180778657888151737016910267884609166473806445896331617118664246696549595652408289446337476354361838599762500808052368249716736"}, "problem_id": "django__django-11206@@django.utils.numberformat.py@@format", "difficulty": "difficult"}
{"model": "o4-mini", "prediction": {"output": "1.0e-14*I"}, "problem_id": "sympy__sympy-13264@@sympy.simplify.simplify.py@@simplify", "difficulty": "difficult"}
{"model": "o4-mini", "prediction": {"output": ":class:`dict`"}, "problem_id": "sphinx-doc__sphinx-9015@@sphinx.util.typing.py@@restify", "difficulty": "difficult"}
{"model": "o4-mini", "prediction": {"output": ":py:obj:`None`"}, "problem_id": "sphinx-doc__sphinx-9665@@sphinx.util.typing.py@@restify", "difficulty": "difficult"}
{"model": "o4-mini", "prediction": {"output": "()"}, "problem_id": "sphinx-doc__sphinx-7462@@sphinx.pycode.ast.py@@unparse", "difficulty": "difficult"}
{"model": "o4-mini", "prediction": {"_unit": {"_names": null, "_short_names": null, "_long_names": null, "_format": {}, "__doc__": "meter: base unit of length in SI", "_hash": 7151119826131856767, "_type_id": [["m", 1]]}}, "problem_id": "astropy__astropy-14253@@astropy.units.quantity.py@@_result_as_quantity", "difficulty": "difficult"}
{"model": "o4-mini", "prediction": {"output": "32"}, "problem_id": "ClassEval_97@Words2Numbers.text2int", "difficulty": "difficult"}
{"model": "o4-mini", "prediction": {"output": ["^\\\"(?P<lang>[^/]+)\\\"\\/\\\"(?P<url>.+)\\\"\\/$", {"lang": "django.urls.converters.StringConverter", "url": "django.urls.converters.PathConverter"}]}, "problem_id": "django__django-11688@@django.urls.resolvers.py@@_route_to_regex", "difficulty": "difficult"}
{"model": "o4-mini", "prediction": {"output": "[-]Item 1."}, "problem_id": "ClassEval_44@HtmlUtil.format_line_html_text", "difficulty": "difficult"}
{"model": "o4-mini", "prediction": {"output": "http://www.example.com/category/"}, "problem_id": "django__django-16614@@django.forms.fields.py@@to_python", "difficulty": "difficult"}
{"model": "o4-mini", "prediction": {"output": "2*I*sin(2)"}, "problem_id": "sympy__sympy-13259@@sympy.simplify.fu.py@@_osborne", "difficulty": "difficult"}
{"model": "o4-mini", "prediction": {"n_jobs": 1, "remainder__copy": true, "remainder__with_mean": true, "remainder__with_std": false, "remainder": {"with_mean": true, "with_std": false, "copy": true}, "transformer_weights": null, "transformers": null, "trans1": null}, "problem_id": "scikit-learn__scikit-learn-11315@@sklearn.utils.metaestimators.py@@_get_params", "difficulty": "difficult"}
{"model": "o4-mini", "prediction": {"output": 50}, "problem_id": "sympy__sympy-13265@@sympy.simplify.simplify.py@@simplify", "difficulty": "difficult"}
{"model": "o4-mini", "prediction": {"output": "array(['1681-05-27T12:00:00.500000000', '1681-05-27T13:00:00.500000000', '1681-05-27T14:00:00.500000000', '1681-05-27T15:00:00.500000000', '1681-05-27T16:00:00.500000000'], dtype='datetime64[ns]')"}, "problem_id": "pydata__xarray-4758@@xarray.coding.times.py@@decode_cf_datetime", "difficulty": "difficult"}
{"model": "o4-mini", "prediction": {"output": false}, "problem_id": "pytest-dev__pytest-10893@@src._pytest.pathlib.py@@on_rm_rf_error", "difficulty": "difficult"}
{"model": "o4-mini", "prediction": {"output": 5}, "problem_id": "atcoder_ABC169_D", "difficulty": "difficult"}
{"model": "o4-mini", "prediction": {"values": null, "order": null, "_tick_params": {"locator": {}}, "_label_params": {"formatter": {}}, "_legend": null, "_matplotlib_scale": {}, "_pipeline": [{}, {}], "_spacer": {}}, "problem_id": "mwaskom__seaborn-3202@@seaborn._core.scales.py@@_setup", "difficulty": "difficult"}
{"model": "o4-mini", "prediction": {"_smat": {}, "rows": 2, "cols": 1}, "problem_id": "sympy__sympy-13031@@sympy.matrices.sparse.py@@row_join", "difficulty": "difficult"}
{"model": "o4-mini", "prediction": {"output": ""}, "problem_id": "ClassEval_65@NumberWordFormatter.format", "difficulty": "difficult"}
{"model": "o4-mini", "prediction": {"output": "(sqrt(5) + 1)/4"}, "problem_id": "sympy__sympy-12088@@sympy.simplify.simplify.py@@nsimplify", "difficulty": "difficult"}
{"model": "o4-mini", "prediction": {"output": "jS \\o\\f F"}, "problem_id": "django__django-15741@@django.utils.formats.py@@get_format", "difficulty": "difficult"}
{"model": "o4-mini", "prediction": {"(0, 0, 1, 1, 3)": ["x", "y"]}, "problem_id": "sympy__sympy-15225@@sympy.logic.boolalg.py@@_finger", "difficulty": "difficult"}
{"model": "o4-mini", "prediction": {"output": 367295851}, "problem_id": "atcoder_ABC122_D", "difficulty": "difficult"}
{"model": "o4-mini", "prediction": {"estimators": [], "weights": null, "n_jobs": null, "estimators_": [], "named_estimators_": {}}, "problem_id": "scikit-learn__scikit-learn-15084@@sklearn.ensemble.voting.py@@fit", "difficulty": "difficult"}
{"model": "o4-mini", "prediction": {"output": "2*tanh(1 + I*_Dummy_561)"}, "problem_id": "sympy__sympy-13259@@sympy.simplify.fu.py@@_osbornei", "difficulty": "difficult"}
{"model": "o4-mini", "prediction": {"output": false}, "problem_id": "ClassEval_89@TwentyFourPointGame.answer", "difficulty": "difficult"}
{"model": "o4-mini", "prediction": {"output": "TypeError: fit() got an unexpected keyword argument 'check_input'"}, "problem_id": "scikit-learn__scikit-learn-12682@@sklearn.decomposition.dict_learning.py@@_sparse_encode", "difficulty": "difficult"}
{"model": "o4-mini", "prediction": {"data": "numeric"}, "problem_id": "mwaskom__seaborn-3394@@seaborn._core.rules.py@@variable_type", "difficulty": "difficult"}
{"model": "o4-mini", "prediction": {"output": [1, {"Model": 1}]}, "problem_id": "django__django-15248@@django.db.models.base.py@@delete", "difficulty": "difficult"}
{"model": "o4-mini", "prediction": {"output": "Player wins"}, "problem_id": "ClassEval_12@BlackjackGame.check_winner", "difficulty": "difficult"}
{"model": "o4-mini", "prediction": {"output": "R3 + R4 + 4050"}, "problem_id": "sympy__sympy-16088@@sympy.core.exprtools.py@@factor_terms", "difficulty": "difficult"}
{"model": "o4-mini", "prediction": {"output": 1}, "problem_id": "atcoder_ABC164_D", "difficulty": "difficult"}
{"model": "o4-mini", "prediction": {"output": [66.89240597, 19.09110312]}, "problem_id": "astropy__astropy-8339@@astropy.stats.bayesian_blocks.py@@fit", "difficulty": "difficult"}
{"model": "o4-mini", "prediction": {"epsilon": 1.35, "max_iter": 100, "alpha": 0.0001, "warm_start": false, "fit_intercept": true, "tol": 1e-05, "n_iter_": 58, "scale_": 0.029961783359883615, "intercept_": 0.010763322132748835, "coef_": "[ 1.54977025e-02 -1.32398131e-02  8.22074812e+01 -2.45727407e-04\n -2.26475828e-02  9.66624010e+01  1.41986418e+00  3.74932146e+00\n  8.83203717e+01 -4.58982512e-02  2.99176896e-02 -5.74773489e-03\n  1.44533947e-02  3.41917964e+01  7.00870246e+01  8.79389962e-03\n  6.14821566e+01  9.94097735e+01  7.74533534e+01 -8.91951416e-03]", "outliers_": "[ True False False  True False False False False False False False False\n False False False False False  True False False False  True  True False\n  True  True False False False False False False  True False False  True\n False False False  True  True False False False  True  True  True  True\n False  True]"}, "problem_id": "scikit-learn__scikit-learn-13328@@sklearn.linear_model.huber.py@@fit", "difficulty": "difficult"}
{"model": "o4-mini", "prediction": {"output": "KeyError: 0"}, "problem_id": "sympy__sympy-23141@@sympy.integrals.intpoly.py@@polytope_integrate", "difficulty": "difficult"}
{"model": "o4-mini", "prediction": {"output": "LeavePGroupsOut(n_groups=3)"}, "problem_id": "scikit-learn__scikit-learn-14983@@sklearn.model_selection._split.py@@_build_repr", "difficulty": "difficult"}
{"model": "o4-mini", "prediction": {"output": "{(-3*t - 5, -2*t - 5)}"}, "problem_id": "sympy__sympy-11989@@sympy.solvers.diophantine.py@@diop_solve", "difficulty": "difficult"}
{"model": "o4-mini", "prediction": {"output": "(1 + \"exp(2)\")/(y*(-1 + \"exp(2)\"))"}, "problem_id": "sympy__sympy-13265@@sympy.simplify.trigsimp.py@@exptrigsimp", "difficulty": "difficult"}
{"model": "o4-mini", "prediction": {"output": "                     precision    recall  f1-score  support\n\n                     blue      0.83      0.79      0.81       24\ngreengreengreengreengreen      0.33      0.10      0.15       31\n                     red      0.42      0.90      0.57       20\n\n              avg / total      0.51      0.53      0.47       75"}, "problem_id": "scikit-learn__scikit-learn-11160@@sklearn.metrics.classification.py@@classification_report", "difficulty": "difficult"}
{"model": "o4-mini", "prediction": {"output": {"nargs": {}}}, "problem_id": "sympy__sympy-15222@@sympy.core.function.py@@_eval_subs", "difficulty": "difficult"}
{"model": "o4-mini", "prediction": {"output": "(0.0, [0.0])"}, "problem_id": "ClassEval_57@MetricsCalculator2.map", "difficulty": "difficult"}
{"model": "o4-mini", "prediction": {"output": true}, "problem_id": "django__django-13585@@django.contrib.auth.tokens.py@@check_token", "difficulty": "difficult"}
{"model": "o4-mini", "prediction": {}, "problem_id": "django__django-11334@@django.template.library.py@@simple_tag", "difficulty": "difficult"}
{"model": "o4-mini", "prediction": {"output": 1}, "problem_id": "ClassEval_26@CSVProcessor.process_csv_data", "difficulty": "difficult"}
{"model": "o4-mini", "prediction": {"output": false}, "problem_id": "sympy__sympy-12945@@sympy.core.basic.py@@__eq__", "difficulty": "difficult"}
{"model": "o4-mini", "prediction": {"output": false}, "problem_id": "sympy__sympy-16052@@sympy.matrices.expressions.matexpr.py@@_eval_Eq", "difficulty": "difficult"}
{"model": "o4-mini", "prediction": {"_elements": "frozenset({10, 15})"}, "problem_id": "sympy__sympy-13615@@sympy.sets.sets.py@@_complement", "difficulty": "difficult"}
{"model": "o4-mini", "prediction": {"output": "ValueError: Parameter `centers` must be array-like. Got None instead"}, "problem_id": "scikit-learn__scikit-learn-10577@@sklearn.datasets.samples_generator.py@@make_blobs", "difficulty": "difficult"}
{"model": "o4-mini", "prediction": {"output": "PredefinedSplit(test_fold=[1 1 2 2], unique_folds=[1 2])"}, "problem_id": "scikit-learn__scikit-learn-14983@@sklearn.model_selection._split.py@@__repr__", "difficulty": "difficult"}
{"model": "o4-mini", "prediction": {"output": "a=1&b=2&c=3"}, "problem_id": "django__django-11374@@django.utils.http.py@@urlencode", "difficulty": "difficult"}
{"model": "o4-mini", "prediction": {"output": 0}, "problem_id": "sympy__sympy-12812@@sympy.diffgeom.diffgeom.py@@contravariant_order", "difficulty": "difficult"}
{"model": "o4-mini", "prediction": {"output": "1"}, "problem_id": "scikit-learn__scikit-learn-25589@@sklearn.preprocessing._encoders.py@@_map_drop_idx_to_infrequent", "difficulty": "difficult"}
{"model": "o4-mini", "prediction": {"__module__": "template_tests.test_library", "__name__": "func", "__qualname__": "SimpleTagRegistrationTests.test_simple_tag_wrapped.\"<locals>\".func", "__doc__": null, "__annotations__": {}, "__wrapped__": {}}, "problem_id": "django__django-11334@@django.template.library.py@@dec", "difficulty": "difficult"}
{"model": "o4-mini", "prediction": {}, "problem_id": "scikit-learn__scikit-learn-11635@@sklearn.feature_selection._variance_threshold.py@@fit", "difficulty": "difficult"}
{"model": "o4-mini", "prediction": {"output": 7}, "problem_id": "codeforces_672_A", "difficulty": "difficult"}
{"model": "o4-mini", "prediction": {"output": ""}, "problem_id": "scikit-learn__scikit-learn-11206@@sklearn.preprocessing.data.py@@scale", "difficulty": "difficult"}
{"model": "o4-mini", "prediction": {"output": [0.1, 0.2, 0.3, 0.4, 0.5, 0.6, 0.7, 0.8, 0.9, 1.0, 2.0, 3.0, 4.0, 5.0, 6.0, 7.0, 8.0, 9.0, 10.0, 20.0, 30.0, 40.0, 50.0, 60.0, 70.0, 80.0, 90.0, 100.0, 200.0, 300.0, 400.0, 500.0, 600.0, 700.0, 800.0, 900.0, 1000.0, 2000.0, 3000.0, 4000.0, 5000.0, 6000.0, 7000.0, 8000.0, 9000.0, 10000.0, 20000.0, 30000.0, 40000.0, 50000.0, 60000.0, 70000.0, 80000.0, 90000.0]}, "problem_id": "matplotlib__matplotlib-25405@@lib.matplotlib.ticker.py@@tick_values", "difficulty": "difficult"}
{"model": "o4-mini", "prediction": {"output": "Digest username=\"user\", realm=\"me@kennethreitz.com\", nonce=\"54c8df80c7443b10ad9890ddfce551f9\", uri=\"/digest-auth/auth/user/pass\", response=\"<computed MD5 digest>\", opaque=\"cbe3b2ba4f82f0040cf76baec4025b43\", algorithm=\"MD5\", qop=\"auth\", nc=00000001, cnonce=\"<generated cnonce>\""}, "problem_id": "psf__requests-2678@@requests.auth.py@@build_digest_header", "difficulty": "difficult"}
{"model": "o4-mini", "prediction": {"output": [[1.16495759]]}, "problem_id": "scikit-learn__scikit-learn-13554@@sklearn.metrics.pairwise.py@@euclidean_distances", "difficulty": "difficult"}
{"model": "o4-mini", "prediction": {"output": "from django.db import migrations\n\nclass Migration(migrations.Migration):\n    dependencies = [\n    ]\n\n    operations = [\n    ]\n"}, "problem_id": "django__django-16662@@django.db.migrations.writer.py@@as_string", "difficulty": "difficult"}
{"model": "o4-mini", "prediction": {"output": "sqrt(45) "}, "problem_id": "sympy__sympy-11618@@sympy.geometry.point.py@@distance", "difficulty": "difficult"}
{"model": "o4-mini", "prediction": {"output": "1 + exp(2*I*x)"}, "problem_id": "sympy__sympy-13265@@sympy.simplify.trigsimp.py@@f", "difficulty": "difficult"}
{"model": "o4-mini", "prediction": {"output": null}, "problem_id": "sympy__sympy-15222@@sympy.core.function.py@@_eval_evalf", "difficulty": "difficult"}
{"model": "o4-mini", "prediction": {"output": "ValueError: not enough values to unpack (expected 3, got 1)"}, "problem_id": "sympy__sympy-14038@@sympy.concrete.products.py@@_eval_product", "difficulty": "difficult"}
{"model": "o4-mini", "prediction": {"output": "-I*sin(x)"}, "problem_id": "sympy__sympy-17139@@sympy.simplify.fu.py@@_f", "difficulty": "difficult"}
{"model": "o4-mini", "prediction": {"output": []}, "problem_id": "ClassEval_35@EightPuzzle.solve", "difficulty": "difficult"}
{"model": "o4-mini", "prediction": {"output": "-359538626972463141629054847463408713596141135051689993197834953606314521560057077521179117265533756343080917907028764928468642653778928365536935093407075033972099821153102564152490980180778657888151737016910267884609166473806445896331617118664246696549595652408289446337476354361838599762500808052368249716736"}, "problem_id": "django__django-12486@@django.utils.numberformat.py@@format", "difficulty": "difficult"}
{"model": "o4-mini", "prediction": {"output": null}, "problem_id": "sympy__sympy-21527@@sympy.polys.constructor.py@@_construct_simple", "difficulty": "difficult"}
{"model": "o4-mini", "prediction": {"output": 2}, "problem_id": "sympy__sympy-14070@@sympy.simplify.simplify.py@@logcombine", "difficulty": "difficult"}
{"model": "o4-mini", "prediction": {"output": "ValueError(\"'RandomState(MT19937)' cannot be used to seed a numpy.random.RandomState instance\")"}, "problem_id": "scikit-learn__scikit-learn-12682@@sklearn.decomposition.dict_learning.py@@dict_learning", "difficulty": "difficult"}
{"model": "o4-mini", "prediction": {"output": "default"}, "problem_id": "matplotlib__matplotlib-24265@@lib.matplotlib.style.core.py@@fix_style", "difficulty": "difficult"}
{"model": "o4-mini", "prediction": {"_indices": [], "_free": [], "_dum": []}, "problem_id": "sympy__sympy-18633@@sympy.tensor.toperators.py@@_expand_partial_derivative", "difficulty": "difficult"}
{"model": "o4-mini", "prediction": {"output": "1111111111...1111111111\n1111111111...1111111111\n...(total 486 lines of 1000 '1's)\n0000000000...0000000000\n0000000000...0000000000\n...(total 514 lines of 1000 '0's)"}, "problem_id": "atcoder_AGC038_A", "difficulty": "difficult"}
{"model": "o4-mini", "prediction": {"output": false}, "problem_id": "ClassEval_54@MahjongConnect.is_valid_move", "difficulty": "difficult"}
{"model": "o4-mini", "prediction": {"output": ""}, "problem_id": "sympy__sympy-11232@@sympy.matrices.expressions.matmul.py@@args_cnc", "difficulty": "difficult"}
{"model": "o4-mini", "prediction": {"output": "NotImplemented"}, "problem_id": "sympy__sympy-18057@@sympy.core.expr.py@@__eq__", "difficulty": "difficult"}
{"model": "o4-mini", "prediction": {"nargs": {"_elements": ["exp(-I*pi*a/2)", "besseli(a,2*sqrt(x))", "exp_polar(I*pi/2)"]}}, "problem_id": "sympy__sympy-13265@@sympy.simplify.simplify.py@@besselsimp", "difficulty": "difficult"}
{"model": "o4-mini", "prediction": {"widget": {"name": "mydate", "is_hidden": false, "required": false, "value": {"year": null, "month": null, "day": null}, "attrs": {}, "template_name": "django/forms/widgets/select_date.html", "subwidgets": [{"name": "mydate_year", "is_hidden": false, "required": false, "value": null, "attrs": {"id": "id_mydate_year", "placeholder": false}, "template_name": "django/forms/widgets/select.html"}, {"name": "mydate_month", "is_hidden": false, "required": false, "value": null, "attrs": {"id": "id_mydate_month", "placeholder": false}, "template_name": "django/forms/widgets/select.html"}, {"name": "mydate_day", "is_hidden": false, "required": false, "value": null, "attrs": {"id": "id_mydate_day", "placeholder": false}, "template_name": "django/forms/widgets/select.html"}]}}, "problem_id": "django__django-11323@@django.forms.widgets.py@@get_context", "difficulty": "difficult"}
{"model": "o4-mini", "prediction": {"output": "a=1&b=2&c=3"}, "problem_id": "django__django-11638@@django.utils.http.py@@urlencode", "difficulty": "difficult"}
{"model": "o4-mini", "prediction": {"output": "conjugate(A)**3*conjugate(B)**6"}, "problem_id": "sympy__sympy-13551@@sympy.concrete.products.py@@_eval_product", "difficulty": "difficult"}
{"model": "o4-mini", "prediction": {"output": ["alpha", ["+"], ["1"]]}, "problem_id": "sympy__sympy-11822@@sympy.printing.conventions.py@@split_super_sub", "difficulty": "difficult"}
{"model": "o4-mini", "prediction": {"output": "dict"}, "problem_id": "sphinx-doc__sphinx-9464@@sphinx.util.typing.py@@stringify", "difficulty": "difficult"}
{"model": "o4-mini", "prediction": {"output": "^a/?$"}, "problem_id": "django__django-11728@@django.contrib.admindocs.utils.py@@replace_unnamed_groups", "difficulty": "difficult"}
{"model": "o4-mini", "prediction": {"_css_lists": [], "_js_lists": []}, "problem_id": "django__django-13355@@django.forms.widgets.py@@__add__", "difficulty": "difficult"}
{"model": "o4-mini", "prediction": {"output": [[20, 20, 0], [0, 60, 0], [0, 0, 4]]}, "problem_id": "scikit-learn__scikit-learn-15625@@sklearn.metrics._classification.py@@confusion_matrix", "difficulty": "difficult"}
{"model": "o4-mini", "prediction": {"output": [[10], "days since 2000-01-01", "gregorian"]}, "problem_id": "pydata__xarray-5180@@xarray.coding.times.py@@encode_cf_datetime", "difficulty": "difficult"}
{"model": "o4-mini", "prediction": {"output": ""}, "problem_id": "psf__requests-2931@@requests.models.py@@_encode_params", "difficulty": "difficult"}
{"model": "o4-mini", "prediction": {"_headers": {"content-type": "text/html; charset=utf-8"}, "_closable_objects": [], "_handler_class": null, "cookies": {}, "closed": false, "_reason_phrase": "Forbidden", "_charset": "utf-8", "_container": "[b\"CSRF token missing or incorrect.\"]", "_has_been_logged": false}, "problem_id": "django__django-10904@@django.middleware.csrf.py@@process_view", "difficulty": "difficult"}
{"model": "o4-mini", "prediction": {"output": ["x*n*m*o*n + n*m*n*o*m*n", {}, []]}, "problem_id": "sympy__sympy-15232@@sympy.core.exprtools.py@@_mask_nc", "difficulty": "difficult"}
{"model": "o4-mini", "prediction": {"output": null}, "problem_id": "sympy__sympy-13177@@sympy.core.mod.py@@doit", "difficulty": "difficult"}
{"model": "o4-mini", "prediction": {"output": ["print('Hello, world!')", "for i in range(4):\n                print(i)"]}, "problem_id": "ClassEval_44@HtmlUtil.extract_code_from_html_text", "difficulty": "difficult"}
{"model": "o4-mini", "prediction": {"_shape": [0, 11], "maxprint": 50, "indices": "[]", "indptr": "[0]", "data": "[]"}, "problem_id": "scikit-learn__scikit-learn-14520@@sklearn.feature_extraction.text.py@@transform", "difficulty": "difficult"}
{"model": "o4-mini", "prediction": {"output": [[[0.3660254037844386], [0.3660254037844386], [0.3660254037844386]], [[-1.0], [7.7e-15]], 2]}, "problem_id": "scikit-learn__scikit-learn-10306@@sklearn.cross_decomposition.pls_.py@@_nipals_twoblocks_inner_loop", "difficulty": "difficult"}
{"model": "o4-mini", "prediction": {"output": [[1, 6, 2], [7, 0, 8], [4, 5, 3]]}, "problem_id": "ClassEval_35@EightPuzzle.move", "difficulty": "difficult"}
{"model": "o4-mini", "prediction": {"nargs": {"_elements": []}}, "problem_id": "sympy__sympy-13265@@sympy.simplify.simplify.py@@repl", "difficulty": "difficult"}
{"model": "o4-mini", "prediction": {"output": "(sqrt(21) + 5)**(1/3)*(-1 + I*sqrt(3))"}, "problem_id": "sympy__sympy-16088@@sympy.core.exprtools.py@@do", "difficulty": "difficult"}
{"model": "o4-mini", "prediction": {"output": "2*pi"}, "problem_id": "sympy__sympy-13286@@sympy.calculus.util.py@@periodicity", "difficulty": "difficult"}
{"model": "o4-mini", "prediction": {"values": null, "norm": null, "trans": "log", "_tick_params": {"locator": null, "at": null, "upto": 3, "count": null, "every": null, "between": null, "minor": null}, "_label_params": {"formatter": null, "like": null, "base": {}, "unit": null}, "_legend": null, "_matplotlib_scale": {"_transform": {"_parents": {}, "_invalid": null, "_shorthand_name": null, "_forward": {}, "_inverse": {}}}, "_pipeline": null, "_spacer": {}}, "problem_id": "mwaskom__seaborn-3190@@seaborn._core.scales.py@@_setup", "difficulty": "difficult"}
{"model": "o4-mini", "prediction": {"output": [0.25, [0.25]]}, "problem_id": "ClassEval_57@MetricsCalculator2.mrr", "difficulty": "difficult"}
{"model": "o4-mini", "prediction": {}, "problem_id": "django__django-13671@@django.core.cache.backends.base.py@@get_many", "difficulty": "difficult"}
{"model": "o4-mini", "prediction": {"n_iter": 300, "tol": 0.001, "alpha_1": 1e-06, "alpha_2": 1e-06, "lambda_1": 1e-06, "lambda_2": 1e-06, "alpha_init": null, "lambda_init": null, "compute_score": false, "fit_intercept": true, "normalize": false, "copy_X": true, "verbose": false, "X_offset_": [0.55847953, 0.52407244, 0.55361716, 0.49271827, 0.53091577], "X_scale_": [1.0, 1.0, 1.0, 1.0, 1.0], "scores_": [], "n_iter_": 10, "alpha_": 0.9264578123456789, "lambda_": 1.2345678901234567, "coef_": [0.12345678, -0.23456789, 0.3456789, -0.45678901, 0.56789012], "sigma_": [[0.01234567, -0.00123456, 0.00012345, -1.234e-05, 1.23e-06], [-0.00123456, 0.02345678, -0.00234567, 0.00023456, -2.345e-05], [0.00012345, -0.00234567, 0.03456789, -0.00345678, 0.00034567], [-1.234e-05, 0.00023456, -0.00345678, 0.0456789, -0.00456789], [1.23e-06, -2.345e-05, 0.00034567, -0.00456789, 0.05678901]], "intercept_": 1.51234567}, "problem_id": "scikit-learn__scikit-learn-13618@@sklearn.linear_model.bayes.py@@fit", "difficulty": "difficult"}
{"model": "o4-mini", "prediction": {"output": "(arg, kwarg=None)"}, "problem_id": "sphinx-doc__sphinx-7831@@sphinx.util.inspect.py@@signature", "difficulty": "difficult"}
{"model": "o4-mini", "prediction": {"output": 2.220446049250313e-16}, "problem_id": "scikit-learn__scikit-learn-25299@@sklearn.metrics._classification.py@@log_loss", "difficulty": "difficult"}
{"model": "o4-mini", "prediction": {"output": [[0.02090526, -0.02984846, 0.04445677, 0.00073659, -0.03625016], [-0.02984846, 0.15811977, -0.10110064, -0.14692452, 0.11975385], [0.04445677, -0.10110064, 0.57855486, -0.18284347, -0.33906752], [0.00073659, -0.14692452, -0.18284347, 0.6706584, -0.341627], [-0.03625016, 0.11975385, -0.33906752, -0.341627, 0.59719083]]}, "problem_id": "scikit-learn__scikit-learn-13241@@sklearn.decomposition.kernel_pca.py@@_fit_transform", "difficulty": "difficult"}
{"model": "o4-mini", "prediction": {"_smat": {"(0, 0)": 1, "(1, 0)": 2}, "rows": 2, "cols": 1}, "problem_id": "sympy__sympy-13031@@sympy.matrices.sparse.py@@col_join", "difficulty": "difficult"}
{"model": "o4-mini", "prediction": {"output": "Attributes: (1)"}, "problem_id": "pydata__xarray-5126@@xarray.core.formatting.py@@_mapping_repr", "difficulty": "difficult"}
{"model": "o4-mini", "prediction": {"output": {}}, "problem_id": "sphinx-doc__sphinx-8264@@sphinx.util.typing.py@@_stringify_py37", "difficulty": "difficult"}
{"model": "o4-mini", "prediction": {"__wrapped__": {}}, "problem_id": "django__django-15731@@django.db.models.manager.py@@create_method", "difficulty": "difficult"}
{"model": "o4-mini", "prediction": {"output": 2.5}, "problem_id": "astropy__astropy-8519@@astropy.units.function.core.py@@to", "difficulty": "difficult"}
{"model": "o4-mini", "prediction": {"output": "Unknown command: 'transaction'"}, "problem_id": "django__django-15018@@django.core.management.__init__.py@@call_command", "difficulty": "difficult"}
{"model": "o4-mini", "prediction": {}, "problem_id": "scikit-learn__scikit-learn-11635@@sklearn.feature_selection._rfe.py@@fit", "difficulty": "difficult"}
{"model": "o4-mini", "prediction": {"output": [0.0, 0.0, 0.0, 0.0, 2.15579371, 0.0, 0.0, 0.0, 0.0, 0.0, 0.0, 0.0]}, "problem_id": "scikit-learn__scikit-learn-11346@@sklearn.linear_model.omp.py@@orthogonal_mp_gram", "difficulty": "difficult"}
{"model": "o4-mini", "prediction": {"output": ["-x**3", 1]}, "problem_id": "sympy__sympy-12472@@sympy.simplify.radsimp.py@@fraction", "difficulty": "difficult"}
{"model": "o4-mini", "prediction": {"_shape": [2, 10], "maxprint": 50, "indices": "[1 2 3 4 5 6 7 8 9 0 1 2 3 4 5 6 7 8 9]", "indptr": "[0 9 19]", "data": "[1 2 3 4 5 6 7 8 9 10 11 12 13 14 15 16 17 18 19]"}, "problem_id": "scikit-learn__scikit-learn-25102@@sklearn.feature_selection._base.py@@transform", "difficulty": "difficult"}
{"model": "o4-mini", "prediction": {"output": [0, 0]}, "problem_id": "sympy__sympy-13361@@sympy.core.evalf.py@@get_integer_part", "difficulty": "difficult"}
{"model": "o4-mini", "prediction": {"output": "0"}, "problem_id": "atcoder_ARC102_C", "difficulty": "difficult"}
{"model": "o4-mini", "prediction": {"_shape": [11, 2], "maxprint": 50, "indices": "[0 1 0 1 0 1 1]", "indptr": "[0 2 4 6 7 7 7 7 7 7 7 7]", "data": "[0.9130 0.4080 0.7457 0.6666 0.4885 0.8726 1.0000]"}, "problem_id": "scikit-learn__scikit-learn-10443@@sklearn.feature_extraction.text.py@@transform", "difficulty": "difficult"}
{"model": "o4-mini", "prediction": {"output": false}, "problem_id": "ClassEval_71@PushBoxGame.move", "difficulty": "difficult"}
{"model": "o4-mini", "prediction": {"output": ""}, "problem_id": "django__django-10910@@django.db.backends.sqlite3.base.py@@_sqlite_datetime_parse", "difficulty": "difficult"}
{"model": "o4-mini", "prediction": {"output": [2, 34]}, "problem_id": "sample_726", "difficulty": "easy"}
{"model": "o4-mini", "prediction": {"output": true}, "problem_id": "sample_96", "difficulty": "easy"}
{"model": "o4-mini", "prediction": {"output": "error"}, "problem_id": "sample_26", "difficulty": "easy"}
{"model": "o4-mini", "prediction": {"output": "we32r71g72ug94823658324"}, "problem_id": "sample_680", "difficulty": "easy"}
{"model": "o4-mini", "prediction": {"output": 2}, "problem_id": "sample_720", "difficulty": "easy"}
{"model": "o4-mini", "prediction": {"output": 33}, "problem_id": "sample_594", "difficulty": "easy"}
{"model": "o4-mini", "prediction": {"output": "the cow goes moo#"}, "problem_id": "sample_40", "difficulty": "easy"}
{"model": "o4-mini", "prediction": {"output": "001"}, "problem_id": "HumanEval_65", "difficulty": "easy"}
{"model": "o4-mini", "prediction": {"output": "T,T,Sspp,G, .tB,Vxk,Cct"}, "problem_id": "sample_433", "difficulty": "easy"}
{"model": "o4-mini", "prediction": {"output": 3}, "problem_id": "sample_588", "difficulty": "easy"}
{"model": "o4-mini", "prediction": {"1": 1, "2": 2, "3": 3}, "problem_id": "sample_608", "difficulty": "easy"}
{"model": "o4-mini", "prediction": {"output": 0.0}, "problem_id": "atcoder_ABC168_C", "difficulty": "easy"}
{"model": "o4-mini", "prediction": {"output": "5"}, "problem_id": "sample_509", "difficulty": "easy"}
{"model": "o4-mini", "prediction": {"output": "dbtdabdahesyehu"}, "problem_id": "sample_63", "difficulty": "easy"}
{"model": "o4-mini", "prediction": {"output": false}, "problem_id": "sample_541", "difficulty": "easy"}
{"model": "o4-mini", "prediction": {"output": null}, "problem_id": "ClassEval_95@Warehouse.update_product_quantity", "difficulty": "easy"}
{"model": "o4-mini", "prediction": {"output": "ff"}, "problem_id": "sample_530", "difficulty": "easy"}
{"model": "o4-mini", "prediction": {"output": "uuzlwaqiaj"}, "problem_id": "sample_237", "difficulty": "easy"}
{"model": "o4-mini", "prediction": {"output": ["dxh", "ix", "snegi", "wiubvu"]}, "problem_id": "sample_727", "difficulty": "easy"}
{"model": "o4-mini", "prediction": {"output": ""}, "problem_id": "sample_650", "difficulty": "easy"}
{"model": "o4-mini", "prediction": {"output": "3Leap and the net will appear"}, "problem_id": "sample_125", "difficulty": "easy"}
{"model": "o4-mini", "prediction": {"output": "quiz leader = Cornareti, count = 23"}, "problem_id": "sample_774", "difficulty": "easy"}
{"model": "o4-mini", "prediction": {"output": "hF4k9Q2bTn"}, "problem_id": "django__django-15752@@django.contrib.auth.base_user.py@@make_random_password", "difficulty": "easy"}
{"model": "o4-mini", "prediction": {"output": false}, "problem_id": "sample_747", "difficulty": "easy"}
{"model": "o4-mini", "prediction": {"output": "?XyZ"}, "problem_id": "sample_455", "difficulty": "easy"}
{"model": "o4-mini", "prediction": {"output": 0}, "problem_id": "sample_39", "difficulty": "easy"}
{"model": "o4-mini", "prediction": {"output": "[ 0 -1 -3  2]"}, "problem_id": "ClassEval_30@DataStatistics2.get_min", "difficulty": "easy"}
{"model": "o4-mini", "prediction": {"vzjmc": "b", "ae": "f"}, "problem_id": "sample_459", "difficulty": "easy"}
{"model": "o4-mini", "prediction": {"output": "hash(\"example\")"}, "problem_id": "sphinx-doc__sphinx-10353@@sphinx.util.inspect.py@@__hash__", "difficulty": "easy"}
{"model": "o4-mini", "prediction": {"output": ".,,,,, , \u0645\u0646\u0628\u062a"}, "problem_id": "sample_543", "difficulty": "easy"}
{"model": "o4-mini", "prediction": {"output": "Hey"}, "problem_id": "sample_140", "difficulty": "easy"}
{"model": "o4-mini", "prediction": {"output": "jqjfj zm"}, "problem_id": "sample_501", "difficulty": "easy"}
{"model": "o4-mini", "prediction": {"output": null}, "problem_id": "ClassEval_28@DatabaseProcessor.insert_into_database", "difficulty": "easy"}
{"model": "o4-mini", "prediction": {"output": "loved a"}, "problem_id": "sample_709", "difficulty": "easy"}
{"model": "o4-mini", "prediction": {"output": ["m", "a"]}, "problem_id": "sample_204", "difficulty": "easy"}
{"model": "o4-mini", "prediction": {"output": "1 100\n2 99\n3 98\n4 97\n5 96\n6 95\n7 94\n8 93\n9 92\n10 91\n11 90\n12 89\n13 88\n14 87\n15 86\n16 85\n17 84\n18 83\n19 82\n20 81\n21 80\n22 79\n23 78\n24 77\n25 76\n26 75\n27 74\n28 73\n29 72\n30 71\n31 70\n32 69\n33 68\n34 67\n35 66\n36 65\n37 64\n38 63\n39 62\n40 61\n41 60\n42 59\n43 58\n44 57\n45 56\n46 55\n47 54\n48 53\n49 52\n50 51"}, "problem_id": "codeforces_334_A", "difficulty": "easy"}
{"model": "o4-mini", "prediction": {"output": -1}, "problem_id": "sample_117", "difficulty": "easy"}
{"model": "o4-mini", "prediction": {"output": "urecord"}, "problem_id": "sample_313", "difficulty": "easy"}
{"model": "o4-mini", "prediction": {"output": true}, "problem_id": "ClassEval_99@ZipFileProcessor.extract_file", "difficulty": "easy"}
{"model": "o4-mini", "prediction": {"output": true}, "problem_id": "sample_72", "difficulty": "easy"}
{"model": "o4-mini", "prediction": {"output": [5, 3, 3, 7]}, "problem_id": "sample_734", "difficulty": "easy"}
{"model": "o4-mini", "prediction": {"output": null}, "problem_id": "ClassEval_96@WeatherSystem.set_city", "difficulty": "easy"}
{"model": "o4-mini", "prediction": {"l": 1, "t": 2}, "problem_id": "sample_25", "difficulty": "easy"}
{"model": "o4-mini", "prediction": {"output": false}, "problem_id": "ClassEval_43@HRManagementSystem.remove_employee", "difficulty": "easy"}
{"model": "o4-mini", "prediction": {"output": "001"}, "problem_id": "sample_494", "difficulty": "easy"}
{"model": "o4-mini", "prediction": {"output": null}, "problem_id": "ClassEval_85@Thermostat.set_target_temperature", "difficulty": "easy"}
{"model": "o4-mini", "prediction": {"output": "KeyError: 'Iron Man'"}, "problem_id": "sample_283", "difficulty": "easy"}
{"model": "o4-mini", "prediction": {"output": 1}, "problem_id": "ClassEval_18@CamelCaseMap.__len__", "difficulty": "easy"}
{"model": "o4-mini", "prediction": {"output": ".bpxa24fc5"}, "problem_id": "sample_221", "difficulty": "easy"}
{"model": "o4-mini", "prediction": {"output": "3 4 "}, "problem_id": "sample_664", "difficulty": "easy"}
{"model": "o4-mini", "prediction": {"output": "2025-08-25"}, "problem_id": "ClassEval_87@TimeUtils.get_current_date", "difficulty": "easy"}
{"model": "o4-mini", "prediction": {"output": "2:0"}, "problem_id": "sample_83", "difficulty": "easy"}
{"model": "o4-mini", "prediction": {"output": 2}, "problem_id": "sample_282", "difficulty": "easy"}
{"model": "o4-mini", "prediction": {"output": 0}, "problem_id": "sample_395", "difficulty": "easy"}
{"model": "o4-mini", "prediction": {"_is_copy": null, "_mgr": {}, "_item_cache": {}, "_attrs": {}, "_flags": {"_allows_duplicate_labels": true}}, "problem_id": "mwaskom__seaborn-3010@@seaborn._stats.regression.py@@__call__", "difficulty": "easy"}
{"model": "o4-mini", "prediction": {"output": true}, "problem_id": "django__django-13066@@django.contrib.auth.hashers.py@@verify", "difficulty": "easy"}
{"model": "o4-mini", "prediction": {"output": []}, "problem_id": "sample_324", "difficulty": "easy"}
{"model": "o4-mini", "prediction": {"output": "qqqqq"}, "problem_id": "sample_418", "difficulty": "easy"}
{"model": "o4-mini", "prediction": {"output": 0.5}, "problem_id": "HumanEval_2", "difficulty": "easy"}
{"model": "o4-mini", "prediction": {"output": "stew---corn-and-beans-in soup-."}, "problem_id": "sample_514", "difficulty": "easy"}
{"model": "o4-mini", "prediction": {"output": "aaa"}, "problem_id": "ClassEval_90@URLHandler.get_fragment", "difficulty": "easy"}
{"model": "o4-mini", "prediction": {"output": 0}, "problem_id": "atcoder_ABC158_B", "difficulty": "easy"}
{"model": "o4-mini", "prediction": {"brown": 2, "blue": 5, "bright": 4}, "problem_id": "sample_207", "difficulty": "easy"}
{"model": "o4-mini", "prediction": {"output": 3.141592653589793}, "problem_id": "ClassEval_1@AreaCalculator.calculate_annulus_area", "difficulty": "easy"}
{"model": "o4-mini", "prediction": {"output": "db1100111db"}, "problem_id": "HumanEval_79", "difficulty": "easy"}
{"model": "o4-mini", "prediction": {"output": 21}, "problem_id": "sample_65", "difficulty": "easy"}
{"model": "o4-mini", "prediction": {"output": "1co"}, "problem_id": "sample_239", "difficulty": "easy"}
{"model": "o4-mini", "prediction": {"penalty": "l2", "dual": false, "tol": 0.0001, "C": 1.0, "fit_intercept": true, "intercept_scaling": 1, "class_weight": null, "random_state": 123, "solver": "liblinear", "max_iter": 100, "multi_class": "ovr", "verbose": 0, "warm_start": false, "n_jobs": null, "l1_ratio": null, "classes_": [0, 1, 2], "coef_": [[-2.00529101, 1.07124004], [1.03238331, -0.10505407], [0.9729077, -0.96618597]], "intercept_": [6.54816438, -0.3321035, -6.21606088], "n_iter_": [14]}, "problem_id": "scikit-learn__scikit-learn-13780@@sklearn.ensemble.voting.py@@_parallel_fit_estimator", "difficulty": "easy"}
{"model": "o4-mini", "prediction": {"output": 3}, "problem_id": "sample_127", "difficulty": "easy"}
{"model": "o4-mini", "prediction": {"output": true}, "problem_id": "ClassEval_43@HRManagementSystem.add_employee", "difficulty": "easy"}
{"model": "o4-mini", "prediction": {"output": "00000000 00000000 0ii0ii00 0ii00i0i 0ii0iii0"}, "problem_id": "sample_280", "difficulty": "easy"}
{"model": "o4-mini", "prediction": {"output": ["lsi", "s", "t", "t", "d"]}, "problem_id": "sample_322", "difficulty": "easy"}
{"model": "o4-mini", "prediction": {"output": {}}, "problem_id": "ClassEval_84@TextFileProcessor.read_file_as_json", "difficulty": "easy"}
{"model": "o4-mini", "prediction": {"output": ",WpZpPPDL/"}, "problem_id": "sample_722", "difficulty": "easy"}
{"model": "o4-mini", "prediction": {"output": 2}, "problem_id": "sample_586", "difficulty": "easy"}
{"model": "o4-mini", "prediction": {"output": "px|||||cznyf"}, "problem_id": "sample_307", "difficulty": "easy"}
{"model": "o4-mini", "prediction": {"output": 4.17}, "problem_id": "ClassEval_29@DataStatistics.mean", "difficulty": "easy"}
{"model": "o4-mini", "prediction": {"output": "$$78$$"}, "problem_id": "sample_770", "difficulty": "easy"}
{"model": "o4-mini", "prediction": {"output": "udbs l"}, "problem_id": "sample_707", "difficulty": "easy"}
{"model": "o4-mini", "prediction": {"output": []}, "problem_id": "sample_42", "difficulty": "easy"}
{"model": "o4-mini", "prediction": {"output": "manylettersasvszhelloman"}, "problem_id": "sample_46", "difficulty": "easy"}
{"model": "o4-mini", "prediction": {"output": "mty"}, "problem_id": "sample_78", "difficulty": "easy"}
{"model": "o4-mini", "prediction": {"output": "\"physicist? mathematician. astronomer\""}, "problem_id": "codeforces_147_A", "difficulty": "easy"}
{"model": "o4-mini", "prediction": {"output": null}, "problem_id": "ClassEval_42@Hotel.check_in", "difficulty": "easy"}
{"model": "o4-mini", "prediction": {"w": 3, "wi": 10}, "problem_id": "sample_94", "difficulty": "easy"}
{"model": "o4-mini", "prediction": {"output": "new-medium-performing-application - XQuery 2."}, "problem_id": "sample_23", "difficulty": "easy"}
{"model": "o4-mini", "prediction": {"output": "r;r;r;r;r;r;r;r;"}, "problem_id": "sample_738", "difficulty": "easy"}
{"model": "o4-mini", "prediction": {"output": "NotImplemented"}, "problem_id": "pydata__xarray-6135@@xarray.coding.cftime_offsets.py@@__mul__", "difficulty": "easy"}
{"model": "o4-mini", "prediction": {"output": 1}, "problem_id": "ClassEval_38@ExcelProcessor.write_excel", "difficulty": "easy"}
{"model": "o4-mini", "prediction": {"output": 6.283185307179586}, "problem_id": "ClassEval_1@AreaCalculator.calculate_sector_area", "difficulty": "easy"}
{"model": "o4-mini", "prediction": {"output": null}, "problem_id": "sympy__sympy-13678@@sympy.functions.elementary.hyperbolic.py@@_eval_is_real", "difficulty": "easy"}
{"model": "o4-mini", "prediction": {"output": false}, "problem_id": "sample_406", "difficulty": "easy"}
{"model": "o4-mini", "prediction": {"output": "\\b[A-Za-z0-9._%+-]+@[A-Za-z0-9.-]+\\.[A-Z|a-z]{2}\\b"}, "problem_id": "ClassEval_72@RegexUtils.generate_email_pattern", "difficulty": "easy"}
{"model": "o4-mini", "prediction": {"output": "no"}, "problem_id": "sample_139", "difficulty": "easy"}
{"model": "o4-mini", "prediction": {"output": 12}, "problem_id": "HumanEval_85", "difficulty": "easy"}
{"model": "o4-mini", "prediction": {"output": [5, 5, 5, 5, 5, 5, 6, 4, 9, 5]}, "problem_id": "sample_540", "difficulty": "easy"}
{"model": "o4-mini", "prediction": {"output": [10, 8, 6, 4, 2]}, "problem_id": "sample_515", "difficulty": "easy"}
{"model": "o4-mini", "prediction": {"output": "#[)[]>[^e>\n 8"}, "problem_id": "sample_474", "difficulty": "easy"}
{"model": "o4-mini", "prediction": {"output": false}, "problem_id": "sample_92", "difficulty": "easy"}
{"model": "o4-mini", "prediction": {"output": 40.0}, "problem_id": "HumanEval_45", "difficulty": "easy"}
{"model": "o4-mini", "prediction": {"output": " f9\n ldf9\n adf9!\n f9?"}, "problem_id": "sample_649", "difficulty": "easy"}
{"model": "o4-mini", "prediction": {"output": "x0x0"}, "problem_id": "sample_693", "difficulty": "easy"}
{"model": "o4-mini", "prediction": {"output": "p"}, "problem_id": "sample_655", "difficulty": "easy"}
{"model": "o4-mini", "prediction": {"output": "Name unknown"}, "problem_id": "sample_69", "difficulty": "easy"}
{"model": "o4-mini", "prediction": {"output": [[1, 2, 3], [1, 2], 1, [1, 2, 3], 3, [2, 1], [1, 2, 3], 3, [2, 1]]}, "problem_id": "sample_343", "difficulty": "easy"}
{"model": "o4-mini", "prediction": {"0": "abcca", "1": "abcca", "2": "abcca"}, "problem_id": "sample_587", "difficulty": "easy"}
{"model": "o4-mini", "prediction": {"output": "hhhhhzcw"}, "problem_id": "sample_347", "difficulty": "easy"}
{"model": "o4-mini", "prediction": {"output": "1Oe-ErrBzz-Bmm"}, "problem_id": "sample_38", "difficulty": "easy"}
{"model": "o4-mini", "prediction": {"output": null}, "problem_id": "sympy__sympy-17770@@sympy.functions.elementary.hyperbolic.py@@_eval_is_finite", "difficulty": "easy"}
{"model": "o4-mini", "prediction": {"output": 64}, "problem_id": "HumanEval_41", "difficulty": "easy"}
{"model": "o4-mini", "prediction": {"output": true}, "problem_id": "ClassEval_76@SignInSystem.sign_in", "difficulty": "easy"}
{"model": "o4-mini", "prediction": {"output": null}, "problem_id": "ClassEval_70@PersonRequest._validate_phoneNumber", "difficulty": "easy"}
{"model": "o4-mini", "prediction": {"output": "i like you"}, "problem_id": "sample_124", "difficulty": "easy"}
{"model": "o4-mini", "prediction": {"output": 1.25}, "problem_id": "ClassEval_30@DataStatistics2.get_variance", "difficulty": "easy"}
{"model": "o4-mini", "prediction": {"output": "INSERT INTO users (name, age, region) VALUES ('Tom', '30', 'USA')"}, "problem_id": "ClassEval_80@SQLQueryBuilder.insert", "difficulty": "easy"}
{"model": "o4-mini", "prediction": {"output": -2}, "problem_id": "sample_685", "difficulty": "easy"}
{"model": "o4-mini", "prediction": {"output": [5, 1, 3, 7, 8, "", 0, -1, []]}, "problem_id": "sample_430", "difficulty": "easy"}
{"model": "o4-mini", "prediction": {"output": [58, 92, 92, 21, 21]}, "problem_id": "sample_41", "difficulty": "easy"}
{"model": "o4-mini", "prediction": {"output": true}, "problem_id": "ClassEval_61@MusicPlayer.stop", "difficulty": "easy"}
{"model": "o4-mini", "prediction": {"output": [["a", 1], ["b", 2], ["c", 3]]}, "problem_id": "sample_797", "difficulty": "easy"}
{"model": "o4-mini", "prediction": {"output": "f.irst_second_third"}, "problem_id": "sample_559", "difficulty": "easy"}
{"model": "o4-mini", "prediction": {"output": 0.5}, "problem_id": "atcoder_ABC142_A", "difficulty": "easy"}
{"model": "o4-mini", "prediction": {"output": [-2, 4, -4, -2, 4, -4]}, "problem_id": "sample_150", "difficulty": "easy"}
{"model": "o4-mini", "prediction": {"output": "5*83*23***"}, "problem_id": "sample_292", "difficulty": "easy"}
{"model": "o4-mini", "prediction": {"output": "llthh#saflapkphtswp"}, "problem_id": "sample_228", "difficulty": "easy"}
{"model": "o4-mini", "prediction": {"output": 0.6666666666666666}, "problem_id": "HumanEval_4", "difficulty": "easy"}
{"model": "o4-mini", "prediction": {"output": ""}, "problem_id": "sample_427", "difficulty": "easy"}
{"model": "o4-mini", "prediction": {"output": []}, "problem_id": "sample_379", "difficulty": "easy"}
{"model": "o4-mini", "prediction": {"output": "AttributeError: 'CamelCaseMap' object has no attribute '_to_camel_case'"}, "problem_id": "ClassEval_18@CamelCaseMap.__delitem__", "difficulty": "easy"}
{"model": "o4-mini", "prediction": {"noeohqhk": 623, "1049": 55}, "problem_id": "sample_349", "difficulty": "easy"}
{"model": "o4-mini", "prediction": {"output": ",saw"}, "problem_id": "sample_20", "difficulty": "easy"}
{"model": "o4-mini", "prediction": {"output": "Chris requires  ride to the irport on Fridy."}, "problem_id": "sample_731", "difficulty": "easy"}
{"model": "o4-mini", "prediction": {"output": 1}, "problem_id": "atcoder_ABC178_A", "difficulty": "easy"}
{"model": "o4-mini", "prediction": {"output": 5}, "problem_id": "sample_725", "difficulty": "easy"}
{"model": "o4-mini", "prediction": {"output": "89"}, "problem_id": "sample_618", "difficulty": "easy"}
{"model": "o4-mini", "prediction": {"output": [1, 3, 3, 3, 3]}, "problem_id": "sample_226", "difficulty": "easy"}
{"model": "o4-mini", "prediction": {"output": "816"}, "problem_id": "sample_49", "difficulty": "easy"}
{"model": "o4-mini", "prediction": {"output": true}, "problem_id": "sample_97", "difficulty": "easy"}
{"model": "o4-mini", "prediction": {"output": [6, 4, 2, 8, 15]}, "problem_id": "sample_344", "difficulty": "easy"}
{"model": "o4-mini", "prediction": {"output": "zbzquiuqnmfkx"}, "problem_id": "sample_118", "difficulty": "easy"}
{"model": "o4-mini", "prediction": {"output": "abcdefghij"}, "problem_id": "sample_103", "difficulty": "easy"}
{"model": "o4-mini", "prediction": {"output": "[(\"a\", 2), (\"b\", 1)]"}, "problem_id": "sample_182", "difficulty": "easy"}
{"model": "o4-mini", "prediction": {"output": [12, 1]}, "problem_id": "HumanEval_159", "difficulty": "easy"}
{"model": "o4-mini", "prediction": {"output": 5}, "problem_id": "ClassEval_29@DataStatistics.median", "difficulty": "easy"}
{"model": "o4-mini", "prediction": {"output": "2$z&5H3*1a@#a*1hris"}, "problem_id": "sample_294", "difficulty": "easy"}
{"model": "o4-mini", "prediction": {"output": [15, 15, 15]}, "problem_id": "sample_202", "difficulty": "easy"}
{"model": "o4-mini", "prediction": {}, "problem_id": "codeforces_171_A", "difficulty": "easy"}
{"model": "o4-mini", "prediction": {"output": 0}, "problem_id": "atcoder_ABC169_C", "difficulty": "easy"}
{"model": "o4-mini", "prediction": {"output": "mathematics"}, "problem_id": "sample_401", "difficulty": "easy"}
{"model": "o4-mini", "prediction": {"output": 2}, "problem_id": "sample_403", "difficulty": "easy"}
{"model": "o4-mini", "prediction": {"output": 6.25}, "problem_id": "ClassEval_94@VendingMachine.insert_coin", "difficulty": "easy"}
{"model": "o4-mini", "prediction": {"1": {"employee_ID": "1", "name": "John", "position": "Manager", "department": "Sales", "salary": 100000}}, "problem_id": "ClassEval_43@HRManagementSystem.list_employees", "difficulty": "easy"}
{"model": "o4-mini", "prediction": {"output": "unrndqafi"}, "problem_id": "sample_468", "difficulty": "easy"}
{"model": "o4-mini", "prediction": {"output": 1}, "problem_id": "sample_54", "difficulty": "easy"}
{"model": "o4-mini", "prediction": {"output": "a---c---s"}, "problem_id": "sample_393", "difficulty": "easy"}
