{"model": "gemini-2.5-pro", "prediction": {"regressor": {"fit_intercept": true, "normalize": false, "copy_X": true, "n_jobs": null}, "transformer": null, "func": "\"<function sqrt>\"", "inverse_func": "\"<function log>\"", "check_inverse": true, "_training_dim": 1, "transformer_": {"func": "<function sqrt>", "inverse_func": "<function log>", "validate": true, "accept_sparse": false, "check_inverse": true, "kw_args": null, "inv_kw_args": null}, "regressor_": {"fit_intercept": true, "normalize": false, "copy_X": true, "n_jobs": null, "coef_": [-0.01500786930843114, 0.00834395027538381, 0.002803324310054335, -0.001443325435032221, 0.00406181539989322, -0.002514839955419302, 0.0015233203466050328, 0.001730123907327652, -0.0015194909181445837, 0.0011318138102069497], "_residues": 0.0001118443790182937, "rank_": 10, "singular_": [2.725880421894043, 2.620356950926361, 2.5531681624874474, 2.492293659960793, 2.416592010995416, 2.349825801046312, 2.2833101905416697, 2.2148264348506927, 2.153291344642639, 2.069213390350342], "intercept_": 3.7778990399837493}}, "problem_id": "scikit-learn__scikit-learn-14890@@sklearn.compose._target.py@@fit", "difficulty": "difficult"}
{"model": "gemini-2.5-pro", "prediction": {"_shape": [2, 2], "maxprint": 50, "indices": [1, 0], "indptr": [0, 1, 2], "data": [1.0, 1.0]}, "problem_id": "scikit-learn__scikit-learn-25589@@sklearn.preprocessing._encoders.py@@transform", "difficulty": "difficult"}
{"model": "gemini-2.5-pro", "prediction": {"output": "Digest username=\"user\", realm=\"me@kennethreitz.com\", nonce=\"b65c75a3f423e5780128d1a798ec40b4\", uri=\"/digest-auth/auth/user/pass\", response=\"21b2442388a4b483b3ad5541b843b432\", opaque=\"21d73260ff0b61c1f304ee40444f24bf\", algorithm=\"MD5\", qop=\"auth\", nc=00000002, cnonce=\"9e81904d1c6a531a\""}, "problem_id": "psf__requests-1766@@requests.auth.py@@build_digest_header", "difficulty": "difficult"}
{"model": "gemini-2.5-pro", "prediction": {"output": "[[-1.98980636e+00  7.28569828e-02]\n [-2.00350437e+00 -9.82699680e-01]\n [ 1.07501650e+00 -2.10082473e+00]\n [ 1.91909252e+00 -2.81526351e-01]\n [ 9.76464463e-02  5.89799139e-01]\n [ 2.99723497e+00  8.56933176e-01]\n [ 1.04376635e-01  1.04362959e+00]\n [-1.30848704e+00 -1.61024346e+00]\n [ 2.20474963e+00 -2.16942319e+00]\n [ 1.17574587e+00  4.48718882e-01]\n [ 2.37717493e+00 -8.02994742e-01]\n [ 2.35171315e+00  1.18876454e-01]\n [ 2.73826765e+00 -1.51501515e+00]\n [ 1.24170346e+00  1.14471880e+00]\n [ 2.16143176e+00 -6.27734441e-01]\n [ 7.93584893e-01  1.76249777e+00]\n [ 1.99716634e+00  8.06082332e-01]\n [ 4.02634030e-01 -7.18549682e-01]\n [ 1.09511887e-03  6.91165041e-01]\n [ 2.25674669e+00  1.55182596e-01]\n [ 1.86806798e+00 -2.14910446e+00]\n [-1.07388574e+00  8.51931977e-01]\n [ 2.14467225e+00 -1.53301551e+00]\n [ 1.62374343e-01 -1.65459123e+00]\n [ 1.06916261e+00 -9.30139995e-01]\n [ 2.39922700e+00 -1.12701649e-01]\n [ 7.46947451e-01 -9.70092222e-01]\n [ 2.24562395e+00  1.28612871e+00]\n [ 4.78750536e-01  3.12787072e-01]\n [ 1.67865008e+00  6.23693170e-01]\n [ 1.11522162e+00  1.05014196e+00]\n [ 2.34915913e-01  1.48838294e+00]\n [ 2.04613745e+00  4.00937099e-01]\n [ 2.34322552e+00  1.79384552e-02]\n [ 1.56159908e+00  9.41030811e-01]\n [ 4.01014780e-01  7.49688133e-01]\n [ 9.66684149e-01 -4.21705878e-01]\n [ 1.10853712e+00  6.38873498e-01]\n [ 2.29382288e+00 -3.32510932e-02]\n [-4.87976437e-01 -1.34346249e-01]\n [ 3.64712167e-01  6.56636677e-01]\n [ 1.28561144e+00  1.18641832e+00]\n [ 3.68959450e-02  8.45067053e-01]\n [ 9.36719391e-01  3.25540031e-01]\n [ 1.60820915e-01  4.99166204e-01]\n [ 8.72183204e-01 -1.13275442e-01]\n [ 1.84738090e+00  4.01681980e-02]\n [-1.41598983e-01  5.54647259e-01]\n [ 8.41410061e-01 -3.69916074e-01]\n [ 1.75749240e+00 -2.08212975e+00]\n [-2.81982178e-01 -1.68086937e+00]\n [-4.39138444e-01 -1.73271971e-01]\n [ 2.95798151e-01 -5.52499373e-03]\n [-2.31961214e+00 -1.00218322e+00]\n [-2.09188299e+00 -1.29482133e+00]\n [ 2.32002350e-01  1.99339379e-01]\n [-1.81340364e+00  8.93263427e-01]\n [-1.69233636e+00  1.11945991e+00]\n [-5.82821879e-01 -5.66190674e-01]\n [-9.29200047e-01 -8.62574894e-01]\n [-1.37441918e+00  1.44934635e-01]\n [ 6.40038633e-03 -1.01704708e+00]\n [-1.85136997e+00  1.10726865e-01]\n [-3.66974013e-01  1.72756670e+00]\n [-1.90298162e+00 -2.76192007e-01]\n [-6.01532166e-01 -3.92029426e-01]\n [-1.31250651e+00  7.73246330e-01]\n [-3.60248516e-01 -1.26851699e+00]\n [-8.04283448e-02 -1.47905171e+00]\n [-1.14588226e+00  7.31955483e-01]\n [-3.75747530e-01  5.03479124e-01]\n [-7.69818145e-01 -3.11302987e-01]\n [-1.61531358e+00  3.86100654e-01]\n [-1.34648160e+00  3.32867440e-01]\n [-6.45827544e-01  2.62254866e-01]\n [ 9.20981697e-01 -1.87314661e+00]\n [ 2.01791323e+00  1.31476412e+00]\n [ 3.01451640e-01  9.63107897e-02]\n [ 1.93619068e+00 -5.16967803e-01]\n [ 1.51895879e+00 -1.27612782e+00]\n [ 8.30260607e-01  7.07037513e-01]\n [ 5.92100017e-01 -2.18016884e-01]\n [-2.29414921e-01  1.55457199e+00]\n [ 7.12380227e-01  1.41960331e+00]\n [ 4.23578558e-01  4.49612612e-01]\n [ 4.85121874e-01  3.86729905e-01]\n [ 2.59591868e+00 -5.05563308e-01]\n [ 2.65996104e+00 -2.62019165e-01]\n [ 7.68427150e-01 -8.39939858e-01]\n [ 8.25965273e-01  1.54038891e+00]\n [-1.74111785e+00  1.12475605e+00]\n [ 6.02537082e-01 -1.97651391e-01]\n [ 1.48845667e+00 -2.99608423e-01]\n [ 4.15053582e-01  9.52040078e-01]\n [ 1.21680084e-01 -1.43223234e-01]\n [-6.32590150e-01 -5.49801958e-01]\n [ 2.52931692e+00  9.66481353e-01]\n [ 1.14108402e+00  1.03034223e+00]\n [-3.51001040e-01 -1.00292551e+00]\n [ 6.73166092e-01  1.86125222e+00]]"}, "problem_id": "scikit-learn__scikit-learn-11635@@sklearn.feature_selection._base.py@@transform", "difficulty": "difficult"}
{"model": "gemini-2.5-pro", "prediction": {"_args_set": [2.0, 3]}, "problem_id": "sympy__sympy-21586@@sympy.core.sympify.py@@sympify", "difficulty": "difficult"}
{"model": "gemini-2.5-pro", "prediction": {"output": [2, 3, 5, 7, 11, 13]}, "problem_id": "ClassEval_19@ChandrasekharSieve.generate_primes", "difficulty": "difficult"}
{"model": "gemini-2.5-pro", "prediction": {"output": 0}, "problem_id": "sympy__sympy-13146@@sympy.core.operations.py@@_eval_evalf", "difficulty": "difficult"}
{"model": "gemini-2.5-pro", "prediction": {"output": "ONE MILLION ONLY"}, "problem_id": "ClassEval_65@NumberWordFormatter.format_string", "difficulty": "difficult"}
{"model": "gemini-2.5-pro", "prediction": {"values": null, "norm": null, "trans": "log", "_tick_params": {"locator": null, "at": null, "upto": null, "count": null, "every": null, "between": null, "minor": null}, "_label_params": {"formatter": null, "like": null, "base": {}, "unit": null}, "_legend": [[1.0, 10.0, 100.0], ["1", "10", "100"]], "_priority": 0, "_matplotlib_scale": {"_transform": {"_parents": {}, "_invalid": true, "_shorthand_name": "log", "_forward": {}, "_inverse": {}}}, "_pipeline": [{}, {}, {}, {}], "_spacer": {}}, "problem_id": "mwaskom__seaborn-3187@@seaborn._core.scales.py@@_setup", "difficulty": "difficult"}
{"model": "gemini-2.5-pro", "prediction": {"output": ["b", [[0.0, 0.0, 1.0, 1.0]], "r"]}, "problem_id": "matplotlib__matplotlib-24403@@lib.matplotlib.axes._axes.py@@_parse_scatter_color_args", "difficulty": "difficult"}
{"model": "gemini-2.5-pro", "prediction": {"with_mean": true, "with_std": true, "copy": true, "mean_": "[ 0.01868038  0.32000001  0.12256707 -0.3425564  -0.19817911  0.35822566\n -0.27268229  0.8238109   1.15999884  0.56996691  0.43914878 -0.37000001\n -0.26443007  0.82968081 -0.93744475 -1.3389606  -1.07021662  0.60929247\n  0.55692077  0.53314883  1.00064011  1.04321749 -0.5972426   0.39323401\n -0.89616209  0.2042872  -0.34263066  0.84918896  0.10339437 -0.1466043 ]", "n_samples_seen_": 470, "var_": "[ 12.81349377  61.        27.09340426  33.86170213   1.30787234\n  42.14893617  40.          48.29787234  93.80851064  43.74468085\n  19.05319149  25.17021277  47.68085106   2.34468085  43.27659574\n  49.80851064   8.18510638   4.61276596  16.17021277  17.05319149\n  34.21276596  24.4893617  101.55319149   3.52340426   8.88297872\n   5.79787234  41.44680851   9.53191489  24.80851064   9.9212766 ]", "scale_": "[ 3.57960777  7.81024967  5.2051325   5.81908095  1.14362249  6.49222136\n  6.32455532  6.9496671   9.6854804   6.61397618  4.36499616  5.0169924\n  6.9051322   1.53123508  6.57849492  7.05751448  2.86096251  2.14773508\n  4.02121906  4.12955095  5.84916797  4.94867272 10.0773599   1.87707332\n  2.98043265  2.40787715  6.43792004  3.08738002  4.98081426  3.1498058 ]"}, "problem_id": "scikit-learn__scikit-learn-11235@@sklearn.preprocessing.data.py@@partial_fit", "difficulty": "difficult"}
{"model": "gemini-2.5-pro", "prediction": {"output": true}, "problem_id": "sympy__sympy-18728@@sympy.core.power.py@@_eval_is_extended_real", "difficulty": "difficult"}
{"model": "gemini-2.5-pro", "prediction": {"output": 3.0}, "problem_id": "ClassEval_39@ExpressionCalculator.calculate", "difficulty": "difficult"}
{"model": "gemini-2.5-pro", "prediction": {"output": [0.0, 0.0]}, "problem_id": "astropy__astropy-13579@@astropy.wcs.wcsapi.wrappers.sliced_wcs.py@@world_to_pixel_values", "difficulty": "difficult"}
{"model": "gemini-2.5-pro", "prediction": {"transformers": null, "remainder": "drop", "n_jobs": 2, "transformer_weights": null}, "problem_id": "scikit-learn__scikit-learn-11333@@sklearn.utils.metaestimators.py@@_set_params", "difficulty": "difficult"}
{"model": "gemini-2.5-pro", "prediction": {"output": [[], "x**2"]}, "problem_id": "sympy__sympy-15011@@sympy.utilities.lambdify.py@@_preprocess", "difficulty": "difficult"}
{"model": "gemini-2.5-pro", "prediction": {"output": false}, "problem_id": "ClassEval_7@BalancedBrackets.check_balanced_brackets", "difficulty": "difficult"}
{"model": "gemini-2.5-pro", "prediction": {"output": "_x"}, "problem_id": "sympy__sympy-21432@@sympy.simplify.powsimp.py@@powdenest", "difficulty": "difficult"}
{"model": "gemini-2.5-pro", "prediction": {"alpha": 1, "fit_intercept": true, "normalize": false, "copy_X": true, "max_iter": null, "tol": 0.001, "solver": "auto", "random_state": null, "coef_": "[ 0.16856 -0.54883]", "n_iter_": null, "intercept_": -0.96425596}, "problem_id": "scikit-learn__scikit-learn-13363@@sklearn.linear_model.ridge.py@@fit", "difficulty": "difficult"}
{"model": "gemini-2.5-pro", "prediction": {"_rows": 2, "_cols": 2, "_mat": [0, 0, 0, 0]}, "problem_id": "sympy__sympy-21208@@sympy.matrices.expressions.matexpr.py@@_matrix_derivative", "difficulty": "difficult"}
{"model": "gemini-2.5-pro", "prediction": {"n_components": null, "whiten": false, "copy": true, "batch_size": "18", "components_": "[[ 0.61332935  0.53558099 -0.5795016 ]\n [-0.67530334  0.72438806  0.1369309 ]\n [ 0.40497035  0.43442655  0.80388415]]", "n_samples_seen_": "100", "mean_": "[ 0.10265848 -0.12230508 -0.04202145]", "var_": "[0.95927001 0.88170816 1.0170893 ]", "singular_values_": "[11.019338   9.808563   9.001444  ]", "explained_variance_": "[1.2265199  0.9715991  0.8184499 ]", "explained_variance_ratio_": "[0.4248731  0.3366269  0.28353   ]", "noise_variance_": 0.0, "batch_size_": "18", "n_components_": 3}, "problem_id": "scikit-learn__scikit-learn-13960@@sklearn.decomposition.incremental_pca.py@@partial_fit", "difficulty": "difficult"}
{"model": "gemini-2.5-pro", "prediction": {"estimators": null, "voting": "soft", "weights": null, "n_jobs": null, "flatten_transform": true, "le_": {"classes_": "[0 1 2]"}, "classes_": "[0 1 2]", "estimators_": [], "named_estimators_": {}}, "problem_id": "scikit-learn__scikit-learn-13779@@sklearn.ensemble.voting.py@@fit", "difficulty": "difficult"}
{"model": "gemini-2.5-pro", "prediction": {"output": [1, [["Poly(x + 4, x, domain='ZZ')", 1]]]}, "problem_id": "sympy__sympy-18698@@sympy.polys.polytools.py@@_symbolic_factor_list", "difficulty": "difficult"}
{"model": "gemini-2.5-pro", "prediction": {"n_components": null, "whiten": false, "copy": true, "batch_size": "38", "components_": [[-0.5979195535182953, 0.7940525412559509, 0.10315211117267609], [-0.5895446538925171, -0.29282182455062866, -0.7513731718063354], [0.5428568124771118, 0.5321301817893982, -0.6511235237121582]], "n_samples_seen_": 100, "mean_": [0.1661013386, -0.101311745, -0.1005471013], "var_": [1.033223938318788, 1.05833924191871, 1.06360031189881], "singular_values_": [12.196911811828613, 10.10135269165039, 9.401156425476074], "explained_variance_": [1.5031894445419312, 1.0304722785949707, 0.8930168151855469], "explained_variance_ratio_": [0.46901199221611023, 0.3215441107749939, 0.27865129709243774], "noise_variance_": 0.0, "batch_size_": 38, "n_components_": 3}, "problem_id": "scikit-learn__scikit-learn-13960@@sklearn.decomposition.incremental_pca.py@@fit", "difficulty": "difficult"}
{"model": "gemini-2.5-pro", "prediction": {"nargs": {"_elements": ["log(3/2)"]}}, "problem_id": "sympy__sympy-14070@@sympy.simplify.simplify.py@@f", "difficulty": "difficult"}
{"model": "gemini-2.5-pro", "prediction": {"output": "ABC"}, "problem_id": "ClassEval_66@NumericEntityUnescaper.replace", "difficulty": "difficult"}
{"model": "gemini-2.5-pro", "prediction": {"output": "O"}, "problem_id": "ClassEval_41@GomokuGame.check_winner", "difficulty": "difficult"}
{"model": "gemini-2.5-pro", "prediction": {"output": [[[233950.4525182319, -355567.7961344512], [232469.20834398054, -354564.2599860896], [234285.0220065962, -355899.4849083996], [235018.52261990833, -356518.1736166365], [232301.88878163323, -354418.5234421287], [232281.1311682593, -354399.9870331199], [233103.0615406991, -355000.4253983125], [232453.1147492388, -354551.11992112116], [232018.18399420846, -354172.2111000199], [233294.4231948051, -355164.01685019955], [233233.1136913183, -355111.1833931189], [232539.8244960126, -354624.2011480895], [233483.9215861813, -355325.89811991155], [233788.2514822185, -355583.18218918145], [232901.8001532182, -354831.19188218936], [233245.31899928115, -355121.7831181893], [232887.64313217252, -354818.8181811897], [233248.4011121895, -355124.4181811893], [233118.86318118963, -355014.1818181891], [233248.3181811896, -355124.3454545454], [233118.81818118962, -355014.13636363635], [233248.3181811896, -355124.3454545454], [233118.81818118962, -355014.13636363635], [233248.3181811896, -355124.3454545454], [233118.81818118962, -355014.13636363635], [233248.3181811896, -355124.3454545454], [233118.81818118962, -355014.13636363635], [233248.3181811896, -355124.3454545454], [233118.81818118962, -355014.13636363635], [233248.3181811896, -355124.3454545454], [233118.81818118962, -355014.13636363635], [233248.3181811896, -355124.3454545454], [233118.81818118962, -355014.13636363635], [233248.3181811896, -355124.3454545454], [233118.81818118962, -355014.13636363635], [233248.3181811896, -355124.3454545454], [233118.81818118962, -355014.13636363635], [233248.3181811896, -355124.3454545454], [233118.81818118962, -355014.13636363635], [233248.3181811896, -355124.3454545454], [233118.81818118962, -355014.13636363635], [233248.3181811896, -355124.3454545454], [233118.81818118962, -355014.13636363635], [233248.3181811896, -355124.3454545454], [233118.81818118962, -355014.13636363635], [233248.3181811896, -355124.3454545454], [233118.81818118962, -355014.13636363635], [233248.3181811896, -355124.3454545454], [233118.81818118962, -355014.13636363635], [233248.3181811896, -355124.3454545454], [-302429.8318181818, 461488.3181818182], [-303118.8181818182, 462136.36363636365], [-302429.8318181818, 461488.3181818182], [-303118.8181818182, 462136.36363636365], [-302429.8318181818, 461488.3181818182], [-303118.8181818182, 462136.36363636365], [-302429.8318181818, 461488.3181818182], [-303118.8181818182, 462136.36363636365], [-302429.8318181818, 461488.3181818182], [-303118.8181818182, 462136.36363636365], [-302429.8318181818, 461488.3181818182], [-303118.8181818182, 462136.36363636365], [-302429.8318181818, 461488.3181818182], [-303118.8181818182, 462136.36363636365], [-302429.8318181818, 461488.3181818182], [-303118.8181818182, 462136.36363636365], [-302429.8318181818, 461488.3181818182], [-303118.8181818182, 462136.36363636365], [-302429.8318181818, 461488.3181818182], [-303118.8181818182, 462136.36363636365], [-302429.8318181818, 461488.3181818182], [-303118.8181818182, 462136.36363636365], [-302429.8318181818, 461488.3181818182], [-303118.8181818182, 462136.36363636365], [-302429.8318181818, 461488.3181818182], [-303118.8181818182, 462136.36363636365], [-302429.8318181818, 461488.3181818182], [-303118.8181818182, 462136.36363636365], [-302429.8318181818, 461488.3181818182], [-303118.8181818182, 462136.36363636365], [-302429.8318181818, 461488.3181818182], [-303118.8181818182, 462136.36363636365], [-302429.8318181818, 461488.3181818182], [-303118.8181818182, 462136.36363636365], [-302429.8318181818, 461488.3181818182], [-303118.8181818182, 462136.36363636365], [-302429.8318181818, 461488.3181818182], [-303118.8181818182, 462136.36363636365], [-302429.8318181818, 461488.3181818182], [-303118.8181818182, 462136.36363636365], [-302429.8318181818, 461488.3181818182], [-303118.8181818182, 462136.36363636365], [-302429.8318181818, 461488.3181818182], [-303118.8181818182, 462136.36363636365], [-302429.8318181818, 461488.3181818182], [-303118.8181818182, 462136.36363636365], [-302429.8318181818, 461488.3181818182], [-303118.8181818182, 462136.36363636365], [255383.0, 389329.0], [255383.0, 389329.0], [255383.0, 389329.0], [255383.0, 389329.0], [255383.0, 389329.0], [255383.0, 389329.0], [255383.0, 389329.0], [255383.0, 389329.0], [255383.0, 389329.0], [255383.0, 389329.0], [255383.0, 389329.0], [255383.0, 389329.0], [255383.0, 389329.0], [255383.0, 389329.0], [255383.0, 389329.0], [255383.0, 389329.0], [255383.0, 389329.0], [255383.0, 389329.0], [255383.0, 389329.0], [255383.0, 389329.0], [255383.0, 389329.0], [255383.0, 389329.0], [255383.0, 389329.0], [255383.0, 389329.0], [255383.0, 389329.0], [255383.0, 389329.0], [255383.0, 389329.0], [255383.0, 389329.0], [255383.0, 389329.0], [255383.0, 389329.0], [255383.0, 389329.0], [255383.0, 389329.0], [255383.0, 389329.0], [255383.0, 389329.0], [255383.0, 389329.0], [255383.0, 389329.0], [255383.0, 389329.0], [255383.0, 389329.0], [255383.0, 389329.0], [255383.0, 389329.0], [255383.0, 389329.0], [255383.0, 389329.0], [255383.0, 389329.0], [255383.0, 389329.0], [255383.0, 389329.0], [255383.0, 389329.0], [255383.0, 389329.0], [255383.0, 389329.0], [255383.0, 389329.0], [255383.0, 389329.0], [-230865.0, -351923.5], [-230865.0, -351923.5], [-230865.0, -351923.5], [-230865.0, -351923.5], [-230865.0, -351923.5], [-230865.0, -351923.5], [-230865.0, -351923.5], [-230865.0, -351923.5], [-230865.0, -351923.5], [-230865.0, -351923.5], [-230865.0, -351923.5], [-230865.0, -351923.5], [-230865.0, -351923.5], [-230865.0, -351923.5], [-230865.0, -351923.5], [-230865.0, -351923.5], [-230865.0, -351923.5], [-230865.0, -351923.5], [-230865.0, -351923.5], [-230865.0, -351923.5], [-230865.0, -351923.5], [-230865.0, -351923.5], [-230865.0, -351923.5], [-230865.0, -351923.5], [-230865.0, -351923.5], [-230865.0, -351923.5], [-230865.0, -351923.5], [-230865.0, -351923.5], [-230865.0, -351923.5], [-230865.0, -351923.5], [-230865.0, -351923.5], [-230865.0, -351923.5], [-230865.0, -351923.5], [-230865.0, -351923.5], [-230865.0, -351923.5], [-230865.0, -351923.5], [-230865.0, -351923.5], [-230865.0, -351923.5], [-230865.0, -351923.5], [-230865.0, -351923.5], [-230865.0, -351923.5], [-230865.0, -351923.5], [-230865.0, -351923.5], [-230865.0, -351923.5], [-230865.0, -351923.5], [-230865.0, -351923.5], [-230865.0, -351923.5], [-230865.0, -351923.5], [-230865.0, -351923.5]], [0, 0, 0, 0, 0, 0, 0, 0, 0, 0, 0, 0, 0, 0, 0, 0, 0, 0, 0, 0, 0, 0, 0, 0, 0, 0, 0, 0, 0, 0, 0, 0, 0, 0, 0, 0, 0, 0, 0, 0, 0, 0, 0, 0, 0, 0, 0, 0, 0, 0, 1, 1, 1, 1, 1, 1, 1, 1, 1, 1, 1, 1, 1, 1, 1, 1, 1, 1, 1, 1, 1, 1, 1, 1, 1, 1, 1, 1, 1, 1, 1, 1, 1, 1, 1, 1, 1, 1, 1, 1, 1, 1, 1, 1, 1, 1, 1, 1, 1, 1, 2, 2, 2, 2, 2, 2, 2, 2, 2, 2, 2, 2, 2, 2, 2, 2, 2, 2, 2, 2, 2, 2, 2, 2, 2, 2, 2, 2, 2, 2, 2, 2, 2, 2, 2, 2, 2, 2, 2, 2, 2, 2, 2, 2, 2, 2, 2, 2, 2, 2, 3, 3, 3, 3, 3, 3, 3, 3, 3, 3, 3, 3, 3, 3, 3, 3, 3, 3, 3, 3, 3, 3, 3, 3, 3, 3, 3, 3, 3, 3, 3, 3, 3, 3, 3, 3, 3, 3, 3, 3, 3, 3, 3, 3, 3, 3, 3, 3, 3, 3]]}, "problem_id": "scikit-learn__scikit-learn-14764@@sklearn.datasets.samples_generator.py@@make_classification", "difficulty": "difficult"}
{"model": "gemini-2.5-pro", "prediction": {"output": null}, "problem_id": "ClassEval_39@ExpressionCalculator.prepare", "difficulty": "difficult"}
{"model": "gemini-2.5-pro", "prediction": {"output": "admin/password_change/done/"}, "problem_id": "django__django-11728@@django.contrib.admindocs.utils.py@@replace_named_groups", "difficulty": "difficult"}
{"model": "gemini-2.5-pro", "prediction": {"steps": null, "memory": null, "verbose": false}, "problem_id": "scikit-learn__scikit-learn-15119@@sklearn.pipeline.py@@fit", "difficulty": "difficult"}
{"model": "gemini-2.5-pro", "prediction": {"output": "tanh(x)**(-3)"}, "problem_id": "sympy__sympy-13259@@sympy.simplify.fu.py@@f", "difficulty": "difficult"}
{"model": "gemini-2.5-pro", "prediction": {"coef0": 0.1, "degree": 3.1}, "problem_id": "scikit-learn__scikit-learn-14706@@sklearn.kernel_approximation.py@@_get_kernel_params", "difficulty": "difficult"}
{"model": "gemini-2.5-pro", "prediction": {"output": "0 0 0 0 0 0 0 0 0 0 0 0 0 0 0 0 0 0 0 0 0 0 0 0 0 0 0 1 0 1 0 1 1 0 1 1 1 1 1 1 1 1 1 1 1 1 1 1 1 1 1 1 1 2 2 2 1 1 1 1 2 1 2 1 2 2 2 2 2 1 1 1 1 2 1 2 1 1 2 2 2 2 2 2 2 2 2 2 2 2 2 2 2 3 2 3 2 3 3 3 3 3 3 3 3 3 3 3 3 3 3 3 3 3 3 3 3 3 4 4 4 4 4 4 4 4 4 4 4 4 4 4 4 4 4 4 4 4 4 4 4 4 4 4 4 4 4 4"}, "problem_id": "scikit-learn__scikit-learn-14704@@sklearn.model_selection._split.py@@_make_test_folds", "difficulty": "difficult"}
{"model": "gemini-2.5-pro", "prediction": {"output": "              precision    recall  f1-score   support\n\n        blue       0.82      0.70      0.76        20\n       green       0.67      0.25      0.36        32\n         red       0.41      0.83      0.55        23\n\n    accuracy                           0.55        75\n   macro avg       0.63      0.59      0.56        75\nweighted avg       0.63      0.55      0.53        75\n"}, "problem_id": "scikit-learn__scikit-learn-12758@@sklearn.metrics.classification.py@@classification_report", "difficulty": "difficult"}
{"model": "gemini-2.5-pro", "prediction": {"_shape": [1, 7], "maxprint": 50, "indices": [4], "indptr": [0, 1], "data": [1.0]}, "problem_id": "scikit-learn__scikit-learn-11042@@sklearn.preprocessing.data.py@@transform", "difficulty": "difficult"}
{"model": "gemini-2.5-pro", "prediction": {"output": "-359538626972463141629054847463408713596141135051689993197834953606314521560057077521179117265533756343080917907028764928468642653778928365536935093407075033972099821153102564152490980180778657888151737016910267884609166473806445896331617118664246696549595652408289446337476354361838599762500808052368249716736"}, "problem_id": "django__django-11206@@django.utils.numberformat.py@@format", "difficulty": "difficult"}
{"model": "gemini-2.5-pro", "prediction": {"output": "1.0e-14*I"}, "problem_id": "sympy__sympy-13264@@sympy.simplify.simplify.py@@simplify", "difficulty": "difficult"}
{"model": "gemini-2.5-pro", "prediction": {"output": ":mod:`~tests.test_util_typing`"}, "problem_id": "sphinx-doc__sphinx-9015@@sphinx.util.typing.py@@restify", "difficulty": "difficult"}
{"model": "gemini-2.5-pro", "prediction": {"output": ":py:obj:`None`"}, "problem_id": "sphinx-doc__sphinx-9665@@sphinx.util.typing.py@@restify", "difficulty": "difficult"}
{"model": "gemini-2.5-pro", "prediction": {"output": "()"}, "problem_id": "sphinx-doc__sphinx-7462@@sphinx.pycode.ast.py@@unparse", "difficulty": "difficult"}
{"model": "gemini-2.5-pro", "prediction": {"_unit": {"_names": null, "_short_names": null, "_long_names": null, "_format": {}, "__doc__": "meter: base unit of length in SI", "_hash": 7151119826131856767, "_type_id": [["m", 1]]}}, "problem_id": "astropy__astropy-14253@@astropy.units.quantity.py@@_result_as_quantity", "difficulty": "difficult"}
{"model": "gemini-2.5-pro", "prediction": {"output": "32"}, "problem_id": "ClassEval_97@Words2Numbers.text2int", "difficulty": "difficult"}
{"model": "gemini-2.5-pro", "prediction": {"output": "[\n        \"^\\\"(?P<lang>[^/]+)\\\"/\\\\\\\"(?P<url>.+)\\\\\\\"/\\$\",\n        {\n            \"lang\": \"<class 'django.urls.converters.StringConverter'>\",\n            \"url\": \"<class 'django.urls.converters.PathConverter'>\"\n        }\n    ]"}, "problem_id": "django__django-11688@@django.urls.resolvers.py@@_route_to_regex", "difficulty": "difficult"}
{"model": "gemini-2.5-pro", "prediction": {"output": "[-]Item 1."}, "problem_id": "ClassEval_44@HtmlUtil.format_line_html_text", "difficulty": "difficult"}
{"model": "gemini-2.5-pro", "prediction": {"output": "http://www.example.com/category/"}, "problem_id": "django__django-16614@@django.forms.fields.py@@to_python", "difficulty": "difficult"}
{"model": "gemini-2.5-pro", "prediction": {"output": "-2*sinh(2)"}, "problem_id": "sympy__sympy-13259@@sympy.simplify.fu.py@@_osborne", "difficulty": "difficult"}
{"model": "gemini-2.5-pro", "prediction": {"n_jobs": 1, "remainder__copy": true, "remainder__with_mean": true, "remainder__with_std": false, "remainder": {"with_mean": true, "with_std": false, "copy": true}, "transformer_weights": null, "transformers": null, "trans1": "passthrough"}, "problem_id": "scikit-learn__scikit-learn-11315@@sklearn.utils.metaestimators.py@@_get_params", "difficulty": "difficult"}
{"model": "gemini-2.5-pro", "prediction": {"output": 50}, "problem_id": "sympy__sympy-13265@@sympy.simplify.simplify.py@@simplify", "difficulty": "difficult"}
{"model": "gemini-2.5-pro", "prediction": {"output": "['1681-05-26T12:00:00.500000000' '1681-05-26T13:00:00.500000000'\n '1681-05-26T14:00:00.500000000' '1681-05-26T15:00:00.500000000'\n '1681-05-26T16:00:00.500000000']"}, "problem_id": "pydata__xarray-4758@@xarray.coding.times.py@@decode_cf_datetime", "difficulty": "difficult"}
{"model": "gemini-2.5-pro", "prediction": {"output": true}, "problem_id": "pytest-dev__pytest-10893@@src._pytest.pathlib.py@@on_rm_rf_error", "difficulty": "difficult"}
{"model": "gemini-2.5-pro", "prediction": {"output": "2"}, "problem_id": "atcoder_ABC169_D", "difficulty": "difficult"}
{"model": "gemini-2.5-pro", "prediction": {"values": null, "order": null, "_tick_params": {"locator": {}}, "_label_params": {"formatter": {}}, "_legend": [[], []], "_matplotlib_scale": {}, "_pipeline": [{}, {}], "_spacer": {}}, "problem_id": "mwaskom__seaborn-3202@@seaborn._core.scales.py@@_setup", "difficulty": "difficult"}
{"model": "gemini-2.5-pro", "prediction": {"_smat": {"(0, 0)": "M[0, 0]", "(1, 0)": "M[1, 0]"}, "rows": 2, "cols": 1}, "problem_id": "sympy__sympy-13031@@sympy.matrices.sparse.py@@row_join", "difficulty": "difficult"}
{"model": "gemini-2.5-pro", "prediction": {"output": ""}, "problem_id": "ClassEval_65@NumberWordFormatter.format", "difficulty": "difficult"}
{"model": "gemini-2.5-pro", "prediction": {"output": "sqrt(5)/4 + 1/4"}, "problem_id": "sympy__sympy-12088@@sympy.simplify.simplify.py@@nsimplify", "difficulty": "difficult"}
{"model": "gemini-2.5-pro", "prediction": {"output": "jS \\o\\f F"}, "problem_id": "django__django-15741@@django.utils.formats.py@@get_format", "difficulty": "difficult"}
{"model": "gemini-2.5-pro", "prediction": {"(0, 0, 1, 1, 3)": ["x", "y"]}, "problem_id": "sympy__sympy-15225@@sympy.logic.boolalg.py@@_finger", "difficulty": "difficult"}
{"model": "gemini-2.5-pro", "prediction": {"output": "293333322"}, "problem_id": "atcoder_ABC122_D", "difficulty": "difficult"}
{"model": "gemini-2.5-pro", "prediction": {"estimators": null, "weights": null, "n_jobs": null, "estimators_": [], "named_estimators_": {}}, "problem_id": "scikit-learn__scikit-learn-15084@@sklearn.ensemble.voting.py@@fit", "difficulty": "difficult"}
{"model": "gemini-2.5-pro", "prediction": {"output": "2*tanh(_Dummy_561)"}, "problem_id": "sympy__sympy-13259@@sympy.simplify.fu.py@@_osbornei", "difficulty": "difficult"}
{"model": "gemini-2.5-pro", "prediction": {"output": false}, "problem_id": "ClassEval_89@TwentyFourPointGame.answer", "difficulty": "difficult"}
{"model": "gemini-2.5-pro", "prediction": {"output": "[[0.0, 0.0, 1.001101110143581, 0.0, 0.4859811199180111, 0.613311304131021, 0.0, 0.0], [0.0, 0.0, 0.0, 0.0, 0.0, 0.4853333395153284, 0.0, 0.0], [0.8873455389618874, 0.0, 0.36708183765411377, 0.0, 0.0, 0.0, 0.0, 0.9599428176879883]]"}, "problem_id": "scikit-learn__scikit-learn-12682@@sklearn.decomposition.dict_learning.py@@_sparse_encode", "difficulty": "difficult"}
{"model": "gemini-2.5-pro", "prediction": {"data": "numeric"}, "problem_id": "mwaskom__seaborn-3394@@seaborn._core.rules.py@@variable_type", "difficulty": "difficult"}
{"model": "gemini-2.5-pro", "prediction": {"output": [1, {"auth.User": 1}]}, "problem_id": "django__django-15248@@django.db.models.base.py@@delete", "difficulty": "difficult"}
{"model": "gemini-2.5-pro", "prediction": {"output": "Player wins"}, "problem_id": "ClassEval_12@BlackjackGame.check_winner", "difficulty": "difficult"}
{"model": "gemini-2.5-pro", "prediction": {"output": "R3 + R4 + 4050"}, "problem_id": "sympy__sympy-16088@@sympy.core.exprtools.py@@factor_terms", "difficulty": "difficult"}
{"model": "gemini-2.5-pro", "prediction": {"output": "1"}, "problem_id": "atcoder_ABC164_D", "difficulty": "difficult"}
{"model": "gemini-2.5-pro", "prediction": {"output": "[ 4.36037718 48.4568947  52.59791734 99.45505108]"}, "problem_id": "astropy__astropy-8339@@astropy.stats.bayesian_blocks.py@@fit", "difficulty": "difficult"}
{"model": "gemini-2.5-pro", "prediction": {"epsilon": 1.35, "max_iter": 100, "alpha": 0.0001, "warm_start": false, "fit_intercept": true, "tol": 1e-05, "n_iter_": 58, "scale_": 0.029961783359883615, "intercept_": 0.010763322132748835, "coef_": "[ 1.54977025e-02 -1.32398131e-02  8.22074812e+01 -2.45727407e-04\n -2.26475828e-02  9.66624010e+01  1.41986418e+00  3.74932146e+00\n  8.83203717e+01 -4.58982512e-02  2.99176896e-02 -5.74773489e-03\n  1.44533947e-02  3.41917964e+01  7.00870246e+01  8.79389962e-03\n  6.14821566e+01  9.94097735e+01  7.74533534e+01 -8.91951416e-03]", "outliers_": "[ True False False  True False False False False False False False False\n False False False False False  True False False False  True  True False\n  True  True False False False False False False  True False False  True\n False False False  True  True False False False  True  True  True  True\n False  True]"}, "problem_id": "scikit-learn__scikit-learn-13328@@sklearn.linear_model.huber.py@@fit", "difficulty": "difficult"}
{"model": "gemini-2.5-pro", "prediction": {"output": "KeyError: 0"}, "problem_id": "sympy__sympy-23141@@sympy.integrals.intpoly.py@@polytope_integrate", "difficulty": "difficult"}
{"model": "gemini-2.5-pro", "prediction": {"output": "LeavePGroupsOut(n_groups=3)"}, "problem_id": "scikit-learn__scikit-learn-14983@@sklearn.model_selection._split.py@@_build_repr", "difficulty": "difficult"}
{"model": "gemini-2.5-pro", "prediction": {"output": "{(-3*t - 5, -2*t - 5)}"}, "problem_id": "sympy__sympy-11989@@sympy.solvers.diophantine.py@@diop_solve", "difficulty": "difficult"}
{"model": "gemini-2.5-pro", "prediction": {"output": "(1 + exp(2))/(y*(-1 + exp(2)))"}, "problem_id": "sympy__sympy-13265@@sympy.simplify.trigsimp.py@@exptrigsimp", "difficulty": "difficult"}
{"model": "gemini-2.5-pro", "prediction": {"output": "                           precision    recall  f1-score   support\n\n                       blue       0.59      0.54      0.57        24\n    greengreengreengreengreen       0.78      0.27      0.40        26\n                          red       0.59      0.97      0.73        30\n\n                  avg / total       0.65      0.61      0.57        80\n"}, "problem_id": "scikit-learn__scikit-learn-11160@@sklearn.metrics.classification.py@@classification_report", "difficulty": "difficult"}
{"model": "gemini-2.5-pro", "prediction": {"output": null}, "problem_id": "sympy__sympy-15222@@sympy.core.function.py@@_eval_subs", "difficulty": "difficult"}
{"model": "gemini-2.5-pro", "prediction": {"output": [0.0, [0.0]]}, "problem_id": "ClassEval_57@MetricsCalculator2.map", "difficulty": "difficult"}
{"model": "gemini-2.5-pro", "prediction": {"output": true}, "problem_id": "django__django-13585@@django.contrib.auth.tokens.py@@check_token", "difficulty": "difficult"}
{"model": "gemini-2.5-pro", "prediction": {}, "problem_id": "django__django-11334@@django.template.library.py@@simple_tag", "difficulty": "difficult"}
{"model": "gemini-2.5-pro", "prediction": {"output": 1}, "problem_id": "ClassEval_26@CSVProcessor.process_csv_data", "difficulty": "difficult"}
{"model": "gemini-2.5-pro", "prediction": {"output": false}, "problem_id": "sympy__sympy-12945@@sympy.core.basic.py@@__eq__", "difficulty": "difficult"}
{"model": "gemini-2.5-pro", "prediction": {"output": true}, "problem_id": "sympy__sympy-16052@@sympy.matrices.expressions.matexpr.py@@_eval_Eq", "difficulty": "difficult"}
{"model": "gemini-2.5-pro", "prediction": {"_elements": "frozenset({10, 15})"}, "problem_id": "sympy__sympy-13615@@sympy.sets.sets.py@@_complement", "difficulty": "difficult"}
{"model": "gemini-2.5-pro", "prediction": {"output": "TypeError: object of type 'NoneType' has no len()"}, "problem_id": "scikit-learn__scikit-learn-10577@@sklearn.datasets.samples_generator.py@@make_blobs", "difficulty": "difficult"}
{"model": "gemini-2.5-pro", "prediction": {"output": "BaseCrossValidator(test_fold='[1 1 2 2]', unique_folds='[1 2]')"}, "problem_id": "scikit-learn__scikit-learn-14983@@sklearn.model_selection._split.py@@__repr__", "difficulty": "difficult"}
{"model": "gemini-2.5-pro", "prediction": {"output": "a=1&b=2&c=3"}, "problem_id": "django__django-11374@@django.utils.http.py@@urlencode", "difficulty": "difficult"}
{"model": "gemini-2.5-pro", "prediction": {"output": 0}, "problem_id": "sympy__sympy-12812@@sympy.diffgeom.diffgeom.py@@contravariant_order", "difficulty": "difficult"}
{"model": "gemini-2.5-pro", "prediction": {"output": "1"}, "problem_id": "scikit-learn__scikit-learn-25589@@sklearn.preprocessing._encoders.py@@_map_drop_idx_to_infrequent", "difficulty": "difficult"}
{"model": "gemini-2.5-pro", "prediction": {"__module__": "template_tests.test_library", "__name__": "func", "__qualname__": "SimpleTagRegistrationTests.test_simple_tag_wrapped.\"<locals>\".func", "__doc__": null, "__annotations__": {}, "__wrapped__": {}}, "problem_id": "django__django-11334@@django.template.library.py@@dec", "difficulty": "difficult"}
{"model": "gemini-2.5-pro", "prediction": {"threshold": 0.4, "variances_": [0.2222222222222222, 0.2222222222222222, 0.0, 0.2222222222222222, 4.666666666666667]}, "problem_id": "scikit-learn__scikit-learn-11635@@sklearn.feature_selection._variance_threshold.py@@fit", "difficulty": "difficult"}
{"model": "gemini-2.5-pro", "prediction": {"output": "7"}, "problem_id": "codeforces_672_A", "difficulty": "difficult"}
{"model": "gemini-2.5-pro", "prediction": {}, "problem_id": "scikit-learn__scikit-learn-11206@@sklearn.preprocessing.data.py@@scale", "difficulty": "difficult"}
{"model": "gemini-2.5-pro", "prediction": {"output": [0.1, 1.0, 10.0, 100.0, 1000.0, 10000.0]}, "problem_id": "matplotlib__matplotlib-25405@@lib.matplotlib.ticker.py@@tick_values", "difficulty": "difficult"}
{"model": "gemini-2.5-pro", "prediction": {"output": "Digest username=\"user\", realm=\"me@kennethreitz.com\", nonce=\"54c8df80c7443b10ad9890ddfce551f9\", uri=\"/digest-auth/auth/user/pass\", response=\"92b83359e1f6b11b981c49351853434e\", opaque=\"cbe3b2ba4f82f0040cf76baec4025b43\", algorithm=\"MD5\", qop=\"auth\", nc=00000001, cnonce=\"166676a744955d84\""}, "problem_id": "psf__requests-2678@@requests.auth.py@@build_digest_header", "difficulty": "difficult"}
{"model": "gemini-2.5-pro", "prediction": {"output": "[[1.16499571]]"}, "problem_id": "scikit-learn__scikit-learn-13554@@sklearn.metrics.pairwise.py@@euclidean_distances", "difficulty": "difficult"}
{"model": "gemini-2.5-pro", "prediction": {"output": "from django.db import migrations\n\n\nclass Migration(migrations.Migration):\n\n    dependencies = [\n    ]\n\n    operations = [\n    ]\n"}, "problem_id": "django__django-16662@@django.db.migrations.writer.py@@as_string", "difficulty": "difficult"}
{"model": "gemini-2.5-pro", "prediction": {"output": "3*sqrt(5)"}, "problem_id": "sympy__sympy-11618@@sympy.geometry.point.py@@distance", "difficulty": "difficult"}
{"model": "gemini-2.5-pro", "prediction": {"output": "exp(2*I*x) + 1"}, "problem_id": "sympy__sympy-13265@@sympy.simplify.trigsimp.py@@f", "difficulty": "difficult"}
{"model": "gemini-2.5-pro", "prediction": {"output": null}, "problem_id": "sympy__sympy-15222@@sympy.core.function.py@@_eval_evalf", "difficulty": "difficult"}
{"model": "gemini-2.5-pro", "prediction": {"output": "2**(2*f(1))"}, "problem_id": "sympy__sympy-14038@@sympy.concrete.products.py@@_eval_product", "difficulty": "difficult"}
{"model": "gemini-2.5-pro", "prediction": {"output": "-I*sin(x)"}, "problem_id": "sympy__sympy-17139@@sympy.simplify.fu.py@@_f", "difficulty": "difficult"}
{"model": "gemini-2.5-pro", "prediction": {"output": []}, "problem_id": "ClassEval_35@EightPuzzle.solve", "difficulty": "difficult"}
{"model": "gemini-2.5-pro", "prediction": {"output": "-359538626972463141629054847463408713596141135051689993197834953606314521560057077521179117265533756343080917907028764928468642653778928365536935093407075033972099821153102564152490980180778657888151737016910267884609166473806445896331617118664246696549595652408289446337476354361838599762500808052368249716736"}, "problem_id": "django__django-12486@@django.utils.numberformat.py@@format", "difficulty": "difficult"}
{"model": "gemini-2.5-pro", "prediction": {"output": ["ZZ", []]}, "problem_id": "sympy__sympy-21527@@sympy.polys.constructor.py@@_construct_simple", "difficulty": "difficult"}
{"model": "gemini-2.5-pro", "prediction": {"output": "2"}, "problem_id": "sympy__sympy-14070@@sympy.simplify.simplify.py@@logcombine", "difficulty": "difficult"}
{"model": "gemini-2.5-pro", "prediction": {"output": "ValueError: 'RandomState(MT19937)' cannot be used to seed a numpy.random.RandomState instance"}, "problem_id": "scikit-learn__scikit-learn-12682@@sklearn.decomposition.dict_learning.py@@dict_learning", "difficulty": "difficult"}
{"model": "gemini-2.5-pro", "prediction": {"output": "default"}, "problem_id": "matplotlib__matplotlib-24265@@lib.matplotlib.style.core.py@@fix_style", "difficulty": "difficult"}
{"model": "gemini-2.5-pro", "prediction": {"_indices": ["i", "-j"], "_free": [["i", 0], ["-j", 1]], "_dum": []}, "problem_id": "sympy__sympy-18633@@sympy.tensor.toperators.py@@_expand_partial_derivative", "difficulty": "difficult"}
{"model": "gemini-2.5-pro", "prediction": {"output": "The output will consist of 1000 lines. The first 486 lines will each contain a string of 1000 '1's. The next 514 lines will each contain a string of 1000 '0's. Each line is terminated by a newline character."}, "problem_id": "atcoder_AGC038_A", "difficulty": "difficult"}
{"model": "gemini-2.5-pro", "prediction": {"output": false}, "problem_id": "ClassEval_54@MahjongConnect.is_valid_move", "difficulty": "difficult"}
{"model": "gemini-2.5-pro", "prediction": {"output": [[], []]}, "problem_id": "sympy__sympy-11232@@sympy.matrices.expressions.matmul.py@@args_cnc", "difficulty": "difficult"}
{"model": "gemini-2.5-pro", "prediction": {"output": false}, "problem_id": "sympy__sympy-18057@@sympy.core.expr.py@@__eq__", "difficulty": "difficult"}
{"model": "gemini-2.5-pro", "prediction": {"nargs": {"_elements": ["a", "2*sqrt(x)"]}}, "problem_id": "sympy__sympy-13265@@sympy.simplify.simplify.py@@besselsimp", "difficulty": "difficult"}
{"model": "gemini-2.5-pro", "prediction": {"widget": {"name": "mydate", "is_hidden": false, "required": true, "value": {"year": null, "month": null, "day": null}, "attrs": {}, "template_name": "django/forms/widgets/select_date.html", "subwidgets": [{"name": "mydate_year", "is_hidden": false, "required": true, "value": null, "attrs": {"id": "id_mydate_year", "placeholder": "Year"}, "template_name": "django/forms/widgets/select.html"}, {"name": "mydate_month", "is_hidden": false, "required": true, "value": null, "attrs": {"id": "id_mydate_month", "placeholder": "Month"}, "template_name": "django/forms/widgets/select.html"}, {"name": "mydate_day", "is_hidden": false, "required": true, "value": null, "attrs": {"id": "id_mydate_day", "placeholder": "Day"}, "template_name": "django/forms/widgets/select.html"}]}}, "problem_id": "django__django-11323@@django.forms.widgets.py@@get_context", "difficulty": "difficult"}
{"model": "gemini-2.5-pro", "prediction": {"output": "a=1&b=2&c=3"}, "problem_id": "django__django-11638@@django.utils.http.py@@urlencode", "difficulty": "difficult"}
{"model": "gemini-2.5-pro", "prediction": {"output": "conjugate(A)**3*conjugate(B)**6"}, "problem_id": "sympy__sympy-13551@@sympy.concrete.products.py@@_eval_product", "difficulty": "difficult"}
{"model": "gemini-2.5-pro", "prediction": {"output": ["alpha", ["+"], ["1"]]}, "problem_id": "sympy__sympy-11822@@sympy.printing.conventions.py@@split_super_sub", "difficulty": "difficult"}
{"model": "gemini-2.5-pro", "prediction": {"output": "{'__module__': 'tests.test_util_typing', '__doc__': None}"}, "problem_id": "sphinx-doc__sphinx-9464@@sphinx.util.typing.py@@stringify", "difficulty": "difficult"}
{"model": "gemini-2.5-pro", "prediction": {"output": "^a/?$"}, "problem_id": "django__django-11728@@django.contrib.admindocs.utils.py@@replace_unnamed_groups", "difficulty": "difficult"}
{"model": "gemini-2.5-pro", "prediction": {"_css_lists": [], "_js_lists": []}, "problem_id": "django__django-13355@@django.forms.widgets.py@@__add__", "difficulty": "difficult"}
{"model": "gemini-2.5-pro", "prediction": {"output": [[20, 20, 0], [10, 50, 0], [0, 0, 4]]}, "problem_id": "scikit-learn__scikit-learn-15625@@sklearn.metrics._classification.py@@confusion_matrix", "difficulty": "difficult"}
{"model": "gemini-2.5-pro", "prediction": {"output": [10, "days since 2000-01-01", "gregorian"]}, "problem_id": "pydata__xarray-5180@@xarray.coding.times.py@@encode_cf_datetime", "difficulty": "difficult"}
{"model": "gemini-2.5-pro", "prediction": {"output": ""}, "problem_id": "psf__requests-2931@@requests.models.py@@_encode_params", "difficulty": "difficult"}
{"model": "gemini-2.5-pro", "prediction": {"_headers": {"content-type": ["Content-Type", "text/html; charset=utf-8"]}, "_closable_objects": [], "_handler_class": null, "cookies": {}, "closed": false, "_reason_phrase": "Forbidden", "_charset": "utf-8", "_container": [], "_has_been_logged": false}, "problem_id": "django__django-10904@@django.middleware.csrf.py@@process_view", "difficulty": "difficult"}
{"model": "gemini-2.5-pro", "prediction": {"output": ["x*n*m*o*n + n*m*n*o*m*n", null, ["m", "n", "o", "x"]]}, "problem_id": "sympy__sympy-15232@@sympy.core.exprtools.py@@_mask_nc", "difficulty": "difficult"}
{"model": "gemini-2.5-pro", "prediction": {"output": null}, "problem_id": "sympy__sympy-13177@@sympy.core.mod.py@@doit", "difficulty": "difficult"}
{"model": "gemini-2.5-pro", "prediction": {"output": ["print('Hello, world!')", "for i in range(4):\n                print(i)"]}, "problem_id": "ClassEval_44@HtmlUtil.extract_code_from_html_text", "difficulty": "difficult"}
{"model": "gemini-2.5-pro", "prediction": {"_shape": [0, 11], "maxprint": 50, "indices": "[]", "indptr": "[0]", "data": "[]"}, "problem_id": "scikit-learn__scikit-learn-14520@@sklearn.feature_extraction.text.py@@transform", "difficulty": "difficult"}
{"model": "gemini-2.5-pro", "prediction": {"output": "(array([[-0.23570226],\n       [ 0.94280904],\n       [-0.23570226]]), array([[-2.22044605e-16],\n       [-1.        ]]), 2)"}, "problem_id": "scikit-learn__scikit-learn-10306@@sklearn.cross_decomposition.pls_.py@@_nipals_twoblocks_inner_loop", "difficulty": "difficult"}
{"model": "gemini-2.5-pro", "prediction": {"output": [[1, 6, 2], [7, 0, 8], [4, 5, 3]]}, "problem_id": "ClassEval_35@EightPuzzle.move", "difficulty": "difficult"}
{"model": "gemini-2.5-pro", "prediction": {"nargs": {"_elements": []}}, "problem_id": "sympy__sympy-13265@@sympy.simplify.simplify.py@@repl", "difficulty": "difficult"}
{"model": "gemini-2.5-pro", "prediction": {}, "problem_id": "sympy__sympy-16088@@sympy.core.exprtools.py@@do", "difficulty": "difficult"}
{"model": "gemini-2.5-pro", "prediction": {"output": "2*pi"}, "problem_id": "sympy__sympy-13286@@sympy.calculus.util.py@@periodicity", "difficulty": "difficult"}
{"model": "gemini-2.5-pro", "prediction": {"values": null, "norm": null, "trans": "log", "_tick_params": {"locator": null, "at": null, "upto": 3, "count": null, "every": null, "between": null, "minor": null}, "_label_params": {"formatter": null, "like": null, "base": {}, "unit": null}, "_legend": [[1.0, 10.0, 100.0], ["1", "10", "100"]], "_matplotlib_scale": {"_transform": {"_parents": {}, "_invalid": true, "_shorthand_name": "log", "_forward": {}, "_inverse": {}}}, "_pipeline": [{}, {}, {}, {}], "_spacer": {}}, "problem_id": "mwaskom__seaborn-3190@@seaborn._core.scales.py@@_setup", "difficulty": "difficult"}
{"model": "gemini-2.5-pro", "prediction": {"output": [0.25, [0.25]]}, "problem_id": "ClassEval_57@MetricsCalculator2.mrr", "difficulty": "difficult"}
{"model": "gemini-2.5-pro", "prediction": {}, "problem_id": "django__django-13671@@django.core.cache.backends.base.py@@get_many", "difficulty": "difficult"}
{"model": "gemini-2.5-pro", "prediction": {"n_iter": 300, "tol": 0.001, "alpha_1": 1e-06, "alpha_2": 1e-06, "lambda_1": 1e-06, "lambda_2": 1e-06, "alpha_init": null, "lambda_init": null, "compute_score": false, "fit_intercept": true, "normalize": false, "copy_X": true, "verbose": false, "X_offset_": [0.56693831, 0.4801956, 0.5381502, 0.4628135, 0.52293441], "X_scale_": [1.0, 1.0, 1.0, 1.0, 1.0], "scores_": null, "n_iter_": 2, "alpha_": 3.186022162038101, "lambda_": 23944.444334433443, "coef_": [-2.008000160032006e-06, -8.992000359936014e-07, 8.032000320128005e-07, -6.112000244480005e-07, -5.160000206400004e-07], "sigma_": [[4.182344823393397e-05, -1.2631808512727254e-05, -1.5765617025454506e-05, 6.121600244864005e-07, -2.612808105121216e-06], [-1.2631808512727254e-05, 4.451520878060607e-05, -1.0643200425728007e-06, -1.831361732545451e-05, -8.105608322181824e-06], [-1.5765617025454506e-05, -1.0643200425728007e-06, 4.744960893787879e-05, -4.192008167680016e-06, -1.597761719109091e-05], [6.121600244864005e-07, -1.831361732545451e-05, -4.192008167680016e-06, 5.727680925115152e-05, -2.600008104000016e-06], [-2.612808105121216e-06, -8.105608322181824e-06, -1.597761719109091e-05, -2.600008104000016e-06, 6.139200949440001e-05]], "intercept_": 1.662363115}, "problem_id": "scikit-learn__scikit-learn-13618@@sklearn.linear_model.bayes.py@@fit", "difficulty": "difficult"}
{"model": "gemini-2.5-pro", "prediction": {"output": "(arg, kwarg=None)"}, "problem_id": "sphinx-doc__sphinx-7831@@sphinx.util.inspect.py@@signature", "difficulty": "difficult"}
{"model": "gemini-2.5-pro", "prediction": {"output": 2.220446049250313e-16}, "problem_id": "scikit-learn__scikit-learn-25299@@sklearn.metrics._classification.py@@log_loss", "difficulty": "difficult"}
{"model": "gemini-2.5-pro", "prediction": {"output": "[[ 0.02090533 -0.02984838  0.00042684 -0.41169847  0.41991468]\n [-0.02984838  0.15811985 -0.00860416 -0.55946997  0.43980266]\n [ 0.00042684 -0.00860416  0.67105151 -0.59538892 -0.06748527]\n [-0.41169847 -0.55946997 -0.59538892  0.67461787  0.89223949]\n [ 0.41991468  0.43980266 -0.06748527  0.89223949 -1.68447156]]"}, "problem_id": "scikit-learn__scikit-learn-13241@@sklearn.decomposition.kernel_pca.py@@_fit_transform", "difficulty": "difficult"}
{"model": "gemini-2.5-pro", "prediction": {"_smat": {"(0, 0)": 1, "(1, 0)": 2}, "rows": 2, "cols": 1}, "problem_id": "sympy__sympy-13031@@sympy.matrices.sparse.py@@col_join", "difficulty": "difficult"}
{"model": "gemini-2.5-pro", "prediction": {"output": "Attributes:\n    foo:      bar"}, "problem_id": "pydata__xarray-5126@@xarray.core.formatting.py@@_mapping_repr", "difficulty": "difficult"}
{"model": "gemini-2.5-pro", "prediction": {"output": "{'__module__': 'test_util_typing', '__doc__': None}"}, "problem_id": "sphinx-doc__sphinx-8264@@sphinx.util.typing.py@@_stringify_py37", "difficulty": "difficult"}
{"model": "gemini-2.5-pro", "prediction": {"__wrapped__": {}}, "problem_id": "django__django-15731@@django.db.models.manager.py@@create_method", "difficulty": "difficult"}
{"model": "gemini-2.5-pro", "prediction": {"output": 0.05623413251903491}, "problem_id": "astropy__astropy-8519@@astropy.units.function.core.py@@to", "difficulty": "difficult"}
{"model": "gemini-2.5-pro", "prediction": {"output": "Unknown command: 'transaction'"}, "problem_id": "django__django-15018@@django.core.management.__init__.py@@call_command", "difficulty": "difficult"}
{"model": "gemini-2.5-pro", "prediction": {"estimator": {"foo_param": 0}, "step": 1, "cv": 5, "scoring": null, "verbose": 0, "n_jobs": null, "min_features_to_select": 1, "support_": [false, false, false, true], "n_features_": 1, "ranking_": [4, 3, 2, 1], "estimator_": {"foo_param": 0, "coef_": [[-0.04184829], [0.0167223], [0.02512599]]}, "grid_scores_": ["NaN", "NaN", "NaN", "NaN"]}, "problem_id": "scikit-learn__scikit-learn-11635@@sklearn.feature_selection._rfe.py@@fit", "difficulty": "difficult"}
{"model": "gemini-2.5-pro", "prediction": {"output": [0.0, 0.0, 0.0, 0.0, 2.15579371, 0.0, 0.0, 0.0, 0.0, 0.0, 0.0, 0.0]}, "problem_id": "scikit-learn__scikit-learn-11346@@sklearn.linear_model.omp.py@@orthogonal_mp_gram", "difficulty": "difficult"}
{"model": "gemini-2.5-pro", "prediction": {"output": ["-x**3", 1]}, "problem_id": "sympy__sympy-12472@@sympy.simplify.radsimp.py@@fraction", "difficulty": "difficult"}
{"model": "gemini-2.5-pro", "prediction": {"_shape": [2, 5], "maxprint": 50, "indices": "[1 2 3 4 0 1 2 3 4]", "indptr": "[0 4 9]", "data": "[ 2  4  6  8 10 12 14 16 18]"}, "problem_id": "scikit-learn__scikit-learn-25102@@sklearn.feature_selection._base.py@@transform", "difficulty": "difficult"}
{"model": "gemini-2.5-pro", "prediction": {"output": [0, 0]}, "problem_id": "sympy__sympy-13361@@sympy.core.evalf.py@@get_integer_part", "difficulty": "difficult"}
{"model": "gemini-2.5-pro", "prediction": {"output": "0"}, "problem_id": "atcoder_ARC102_C", "difficulty": "difficult"}
{"model": "gemini-2.5-pro", "prediction": {"_shape": [11, 2], "maxprint": 50, "indices": "[0 1 0 1 0 1 1]", "indptr": "[0 2 4 6 7 7 7 7 7 7 7]", "data": "[0.91299703 0.40796139 0.74564514 0.66636861 0.48826544 0.87269841 1.        ]"}, "problem_id": "scikit-learn__scikit-learn-10443@@sklearn.feature_extraction.text.py@@transform", "difficulty": "difficult"}
{"model": "gemini-2.5-pro", "prediction": {"output": false}, "problem_id": "ClassEval_71@PushBoxGame.move", "difficulty": "difficult"}
{"model": "gemini-2.5-pro", "prediction": {"output": "2016-06-13 00:00:00+00:00"}, "problem_id": "django__django-10910@@django.db.backends.sqlite3.base.py@@_sqlite_datetime_parse", "difficulty": "difficult"}
{"model": "gemini-2.5-pro", "prediction": {"output": [2, 34]}, "problem_id": "sample_726", "difficulty": "easy"}
{"model": "gemini-2.5-pro", "prediction": {"output": true}, "problem_id": "sample_96", "difficulty": "easy"}
{"model": "gemini-2.5-pro", "prediction": {"output": "error"}, "problem_id": "sample_26", "difficulty": "easy"}
{"model": "gemini-2.5-pro", "prediction": {"output": "we32r71g72ug94823658324"}, "problem_id": "sample_680", "difficulty": "easy"}
{"model": "gemini-2.5-pro", "prediction": {"output": 2}, "problem_id": "sample_720", "difficulty": "easy"}
{"model": "gemini-2.5-pro", "prediction": {"output": 33}, "problem_id": "sample_594", "difficulty": "easy"}
{"model": "gemini-2.5-pro", "prediction": {"output": "the cow goes moo#"}, "problem_id": "sample_40", "difficulty": "easy"}
{"model": "gemini-2.5-pro", "prediction": {"output": "001"}, "problem_id": "HumanEval_65", "difficulty": "easy"}
{"model": "gemini-2.5-pro", "prediction": {"output": "T,T,Sspp,G ,.tB,Vxk,Cct"}, "problem_id": "sample_433", "difficulty": "easy"}
{"model": "gemini-2.5-pro", "prediction": {"output": 3}, "problem_id": "sample_588", "difficulty": "easy"}
{"model": "gemini-2.5-pro", "prediction": {"1": 1, "2": 2, "3": 3}, "problem_id": "sample_608", "difficulty": "easy"}
{"model": "gemini-2.5-pro", "prediction": {"output": "0.0"}, "problem_id": "atcoder_ABC168_C", "difficulty": "easy"}
{"model": "gemini-2.5-pro", "prediction": {"output": "5"}, "problem_id": "sample_509", "difficulty": "easy"}
{"model": "gemini-2.5-pro", "prediction": {"output": "dbtdabdahesyehu"}, "problem_id": "sample_63", "difficulty": "easy"}
{"model": "gemini-2.5-pro", "prediction": {"output": true}, "problem_id": "sample_541", "difficulty": "easy"}
{"model": "gemini-2.5-pro", "prediction": {"output": null}, "problem_id": "ClassEval_95@Warehouse.update_product_quantity", "difficulty": "easy"}
{"model": "gemini-2.5-pro", "prediction": {"output": "ff"}, "problem_id": "sample_530", "difficulty": "easy"}
{"model": "gemini-2.5-pro", "prediction": {"output": "uuzlwaqiaj"}, "problem_id": "sample_237", "difficulty": "easy"}
{"model": "gemini-2.5-pro", "prediction": {"output": ["dxh", "ix", "snegi", "wiubvu"]}, "problem_id": "sample_727", "difficulty": "easy"}
{"model": "gemini-2.5-pro", "prediction": {"output": ""}, "problem_id": "sample_650", "difficulty": "easy"}
{"model": "gemini-2.5-pro", "prediction": {"output": "Leap and the net will appear"}, "problem_id": "sample_125", "difficulty": "easy"}
{"model": "gemini-2.5-pro", "prediction": {"output": "quiz leader = Cornareti, count = 23"}, "problem_id": "sample_774", "difficulty": "easy"}
{"model": "gemini-2.5-pro", "prediction": {"output": "pQ3rS7tUvW"}, "problem_id": "django__django-15752@@django.contrib.auth.base_user.py@@make_random_password", "difficulty": "easy"}
{"model": "gemini-2.5-pro", "prediction": {"output": false}, "problem_id": "sample_747", "difficulty": "easy"}
{"model": "gemini-2.5-pro", "prediction": {"output": "?XyZ"}, "problem_id": "sample_455", "difficulty": "easy"}
{"model": "gemini-2.5-pro", "prediction": {"output": 0}, "problem_id": "sample_39", "difficulty": "easy"}
{"model": "gemini-2.5-pro", "prediction": {"output": "[ 0 -1 -3  2]"}, "problem_id": "ClassEval_30@DataStatistics2.get_min", "difficulty": "easy"}
{"model": "gemini-2.5-pro", "prediction": {"vzjmc": "b", "ae": "f"}, "problem_id": "sample_459", "difficulty": "easy"}
{"model": "gemini-2.5-pro", "prediction": {"output": 5386721832420815573}, "problem_id": "sphinx-doc__sphinx-10353@@sphinx.util.inspect.py@@__hash__", "difficulty": "easy"}
{"model": "gemini-2.5-pro", "prediction": {"output": ".,,,,, , \u0645\u0646\u0628\u062a"}, "problem_id": "sample_543", "difficulty": "easy"}
{"model": "gemini-2.5-pro", "prediction": {"output": "Hey"}, "problem_id": "sample_140", "difficulty": "easy"}
{"model": "gemini-2.5-pro", "prediction": {"output": "jqjfj zm"}, "problem_id": "sample_501", "difficulty": "easy"}
{"model": "gemini-2.5-pro", "prediction": {"output": null}, "problem_id": "ClassEval_28@DatabaseProcessor.insert_into_database", "difficulty": "easy"}
{"model": "gemini-2.5-pro", "prediction": {"output": "loved a"}, "problem_id": "sample_709", "difficulty": "easy"}
{"model": "gemini-2.5-pro", "prediction": {"output": ["m", "a"]}, "problem_id": "sample_204", "difficulty": "easy"}
{"model": "gemini-2.5-pro", "prediction": {"output": "1 100\n2 99\n3 98\n4 97\n5 96\n6 95\n7 94\n8 93\n9 92\n10 91\n11 90\n12 89\n13 88\n14 87\n15 86\n16 85\n17 84\n18 83\n19 82\n20 81\n21 80\n22 79\n23 78\n24 77\n25 76\n26 75\n27 74\n28 73\n29 72\n30 71\n31 70\n32 69\n33 68\n34 67\n35 66\n36 65\n37 64\n38 63\n39 62\n40 61\n41 60\n42 59\n43 58\n44 57\n45 56\n46 55\n47 54\n48 53\n49 52\n50 51\n"}, "problem_id": "codeforces_334_A", "difficulty": "easy"}
{"model": "gemini-2.5-pro", "prediction": {"output": -1}, "problem_id": "sample_117", "difficulty": "easy"}
{"model": "gemini-2.5-pro", "prediction": {"output": "urecord"}, "problem_id": "sample_313", "difficulty": "easy"}
{"model": "gemini-2.5-pro", "prediction": {"output": false}, "problem_id": "ClassEval_99@ZipFileProcessor.extract_file", "difficulty": "easy"}
{"model": "gemini-2.5-pro", "prediction": {"output": true}, "problem_id": "sample_72", "difficulty": "easy"}
{"model": "gemini-2.5-pro", "prediction": {"output": [5, 3, 3, 7]}, "problem_id": "sample_734", "difficulty": "easy"}
{"model": "gemini-2.5-pro", "prediction": {"output": null}, "problem_id": "ClassEval_96@WeatherSystem.set_city", "difficulty": "easy"}
{"model": "gemini-2.5-pro", "prediction": {"l": 1, "t": 2}, "problem_id": "sample_25", "difficulty": "easy"}
{"model": "gemini-2.5-pro", "prediction": {"output": false}, "problem_id": "ClassEval_43@HRManagementSystem.remove_employee", "difficulty": "easy"}
{"model": "gemini-2.5-pro", "prediction": {"output": "001"}, "problem_id": "sample_494", "difficulty": "easy"}
{"model": "gemini-2.5-pro", "prediction": {"output": null}, "problem_id": "ClassEval_85@Thermostat.set_target_temperature", "difficulty": "easy"}
{"model": "gemini-2.5-pro", "prediction": {"output": "KeyError: 'Iron Man'"}, "problem_id": "sample_283", "difficulty": "easy"}
{"model": "gemini-2.5-pro", "prediction": {"output": 1}, "problem_id": "ClassEval_18@CamelCaseMap.__len__", "difficulty": "easy"}
{"model": "gemini-2.5-pro", "prediction": {"output": ".bpxa24fc5"}, "problem_id": "sample_221", "difficulty": "easy"}
{"model": "gemini-2.5-pro", "prediction": {"output": "3 4 "}, "problem_id": "sample_664", "difficulty": "easy"}
{"model": "gemini-2.5-pro", "prediction": {"output": "2025-08-25"}, "problem_id": "ClassEval_87@TimeUtils.get_current_date", "difficulty": "easy"}
{"model": "gemini-2.5-pro", "prediction": {"output": "2:0"}, "problem_id": "sample_83", "difficulty": "easy"}
{"model": "gemini-2.5-pro", "prediction": {"output": 2}, "problem_id": "sample_282", "difficulty": "easy"}
{"model": "gemini-2.5-pro", "prediction": {"output": 0}, "problem_id": "sample_395", "difficulty": "easy"}
{"model": "gemini-2.5-pro", "prediction": {"_is_copy": null, "_mgr": {}, "_item_cache": {}, "_attrs": {}, "_flags": {"_allows_duplicate_labels": true}}, "problem_id": "mwaskom__seaborn-3010@@seaborn._stats.regression.py@@__call__", "difficulty": "easy"}
{"model": "gemini-2.5-pro", "prediction": {"output": true}, "problem_id": "django__django-13066@@django.contrib.auth.hashers.py@@verify", "difficulty": "easy"}
{"model": "gemini-2.5-pro", "prediction": {"output": []}, "problem_id": "sample_324", "difficulty": "easy"}
{"model": "gemini-2.5-pro", "prediction": {"output": "qqqqq"}, "problem_id": "sample_418", "difficulty": "easy"}
{"model": "gemini-2.5-pro", "prediction": {"output": 0.5}, "problem_id": "HumanEval_2", "difficulty": "easy"}
{"model": "gemini-2.5-pro", "prediction": {"output": "stew---corn-and-beans-in soup-."}, "problem_id": "sample_514", "difficulty": "easy"}
{"model": "gemini-2.5-pro", "prediction": {"output": "aaa"}, "problem_id": "ClassEval_90@URLHandler.get_fragment", "difficulty": "easy"}
{"model": "gemini-2.5-pro", "prediction": {"output": "0"}, "problem_id": "atcoder_ABC158_B", "difficulty": "easy"}
{"model": "gemini-2.5-pro", "prediction": {"brown": 2, "blue": 5, "bright": 4}, "problem_id": "sample_207", "difficulty": "easy"}
{"model": "gemini-2.5-pro", "prediction": {"output": 3.141592653589793}, "problem_id": "ClassEval_1@AreaCalculator.calculate_annulus_area", "difficulty": "easy"}
{"model": "gemini-2.5-pro", "prediction": {"output": "db1100111db"}, "problem_id": "HumanEval_79", "difficulty": "easy"}
{"model": "gemini-2.5-pro", "prediction": {"output": 21}, "problem_id": "sample_65", "difficulty": "easy"}
{"model": "gemini-2.5-pro", "prediction": {"output": "1co"}, "problem_id": "sample_239", "difficulty": "easy"}
{"model": "gemini-2.5-pro", "prediction": {"penalty": "l2", "dual": false, "tol": 0.0001, "C": 1.0, "fit_intercept": true, "intercept_scaling": 1, "class_weight": null, "random_state": 123, "solver": "warn", "max_iter": 100, "multi_class": "warn", "verbose": 0, "warm_start": false, "n_jobs": null, "l1_ratio": null, "classes_": [0, 1, 2], "coef_": [[-0.38338075, -0.9144127], [0.45009416, -0.41264211], [-0.0112421, 2.2808844]], "intercept_": [2.21740109, -0.0323314, -6.5809626], "n_iter_": [6]}, "problem_id": "scikit-learn__scikit-learn-13780@@sklearn.ensemble.voting.py@@_parallel_fit_estimator", "difficulty": "easy"}
{"model": "gemini-2.5-pro", "prediction": {"output": 3}, "problem_id": "sample_127", "difficulty": "easy"}
{"model": "gemini-2.5-pro", "prediction": {"output": true}, "problem_id": "ClassEval_43@HRManagementSystem.add_employee", "difficulty": "easy"}
{"model": "gemini-2.5-pro", "prediction": {"output": "00000000 00000000 0ii0ii00 0ii00i0i 0ii0iiii"}, "problem_id": "sample_280", "difficulty": "easy"}
{"model": "gemini-2.5-pro", "prediction": {"output": ["lsi", "s", "t", "t", "d"]}, "problem_id": "sample_322", "difficulty": "easy"}
{"model": "gemini-2.5-pro", "prediction": {"output": {"status": "success", "data": [1, 2, 3]}}, "problem_id": "ClassEval_84@TextFileProcessor.read_file_as_json", "difficulty": "easy"}
{"model": "gemini-2.5-pro", "prediction": {"output": ",WpZpPPDL/"}, "problem_id": "sample_722", "difficulty": "easy"}
{"model": "gemini-2.5-pro", "prediction": {"output": 2}, "problem_id": "sample_586", "difficulty": "easy"}
{"model": "gemini-2.5-pro", "prediction": {"output": "px|||||cznyf"}, "problem_id": "sample_307", "difficulty": "easy"}
{"model": "gemini-2.5-pro", "prediction": {"output": 4.17}, "problem_id": "ClassEval_29@DataStatistics.mean", "difficulty": "easy"}
{"model": "gemini-2.5-pro", "prediction": {"output": "$$78$$"}, "problem_id": "sample_770", "difficulty": "easy"}
{"model": "gemini-2.5-pro", "prediction": {"output": "udbs l"}, "problem_id": "sample_707", "difficulty": "easy"}
{"model": "gemini-2.5-pro", "prediction": {"output": []}, "problem_id": "sample_42", "difficulty": "easy"}
{"model": "gemini-2.5-pro", "prediction": {"output": "manylettersasvszhelloman"}, "problem_id": "sample_46", "difficulty": "easy"}
{"model": "gemini-2.5-pro", "prediction": {"output": "mty"}, "problem_id": "sample_78", "difficulty": "easy"}
{"model": "gemini-2.5-pro", "prediction": {"output": "\"physicist? mathematician.astronomer\""}, "problem_id": "codeforces_147_A", "difficulty": "easy"}
{"model": "gemini-2.5-pro", "prediction": {"output": null}, "problem_id": "ClassEval_42@Hotel.check_in", "difficulty": "easy"}
{"model": "gemini-2.5-pro", "prediction": {"w": 3, "wi": 10}, "problem_id": "sample_94", "difficulty": "easy"}
{"model": "gemini-2.5-pro", "prediction": {"output": "new-medium-performing-application - XQuery 2."}, "problem_id": "sample_23", "difficulty": "easy"}
{"model": "gemini-2.5-pro", "prediction": {"output": "r;r;r;r;r;r;r;r;"}, "problem_id": "sample_738", "difficulty": "easy"}
{"model": "gemini-2.5-pro", "prediction": {"output": "NotImplemented"}, "problem_id": "pydata__xarray-6135@@xarray.coding.cftime_offsets.py@@__mul__", "difficulty": "easy"}
{"model": "gemini-2.5-pro", "prediction": {"output": 1}, "problem_id": "ClassEval_38@ExcelProcessor.write_excel", "difficulty": "easy"}
{"model": "gemini-2.5-pro", "prediction": {"output": 6.283185307179586}, "problem_id": "ClassEval_1@AreaCalculator.calculate_sector_area", "difficulty": "easy"}
{"model": "gemini-2.5-pro", "prediction": {"output": true}, "problem_id": "sympy__sympy-13678@@sympy.functions.elementary.hyperbolic.py@@_eval_is_real", "difficulty": "easy"}
{"model": "gemini-2.5-pro", "prediction": {"output": false}, "problem_id": "sample_406", "difficulty": "easy"}
{"model": "gemini-2.5-pro", "prediction": {"output": "\\b[A-Za-z0-9._%+-]+@[A-Za-z0-9.-]+\\.[A-Z|a-z]{2}\\b"}, "problem_id": "ClassEval_72@RegexUtils.generate_email_pattern", "difficulty": "easy"}
{"model": "gemini-2.5-pro", "prediction": {"output": "no"}, "problem_id": "sample_139", "difficulty": "easy"}
{"model": "gemini-2.5-pro", "prediction": {"output": 12}, "problem_id": "HumanEval_85", "difficulty": "easy"}
{"model": "gemini-2.5-pro", "prediction": {"output": [5, 5, 5, 5, 5, 5, 6, 4, 9, 5]}, "problem_id": "sample_540", "difficulty": "easy"}
{"model": "gemini-2.5-pro", "prediction": {"output": [10, 8, 6, 4, 2]}, "problem_id": "sample_515", "difficulty": "easy"}
{"model": "gemini-2.5-pro", "prediction": {"output": "#[)[]>[^e>\n 8"}, "problem_id": "sample_474", "difficulty": "easy"}
{"model": "gemini-2.5-pro", "prediction": {"output": false}, "problem_id": "sample_92", "difficulty": "easy"}
{"model": "gemini-2.5-pro", "prediction": {"output": 40.0}, "problem_id": "HumanEval_45", "difficulty": "easy"}
{"model": "gemini-2.5-pro", "prediction": {"output": " f9\n ldf9\n adf9!\n f9?"}, "problem_id": "sample_649", "difficulty": "easy"}
{"model": "gemini-2.5-pro", "prediction": {"output": "x0x0"}, "problem_id": "sample_693", "difficulty": "easy"}
{"model": "gemini-2.5-pro", "prediction": {"output": "p"}, "problem_id": "sample_655", "difficulty": "easy"}
{"model": "gemini-2.5-pro", "prediction": {"output": "Name unknown"}, "problem_id": "sample_69", "difficulty": "easy"}
{"model": "gemini-2.5-pro", "prediction": {"output": [[1, 2, 3], [1, 2], 1, [1, 2, 3], 3, [2, 1], [1, 2, 3], 3, [2, 1]]}, "problem_id": "sample_343", "difficulty": "easy"}
{"model": "gemini-2.5-pro", "prediction": {"0": "abcca", "1": "abcca", "2": "abcca"}, "problem_id": "sample_587", "difficulty": "easy"}
{"model": "gemini-2.5-pro", "prediction": {"output": "hhhhhzcw"}, "problem_id": "sample_347", "difficulty": "easy"}
{"model": "gemini-2.5-pro", "prediction": {"output": "1Oe-ErrBzz-Bmm"}, "problem_id": "sample_38", "difficulty": "easy"}
{"model": "gemini-2.5-pro", "prediction": {"output": null}, "problem_id": "sympy__sympy-17770@@sympy.functions.elementary.hyperbolic.py@@_eval_is_finite", "difficulty": "easy"}
{"model": "gemini-2.5-pro", "prediction": {"output": 64}, "problem_id": "HumanEval_41", "difficulty": "easy"}
{"model": "gemini-2.5-pro", "prediction": {"output": true}, "problem_id": "ClassEval_76@SignInSystem.sign_in", "difficulty": "easy"}
{"model": "gemini-2.5-pro", "prediction": {"output": null}, "problem_id": "ClassEval_70@PersonRequest._validate_phoneNumber", "difficulty": "easy"}
{"model": "gemini-2.5-pro", "prediction": {"output": "i like you"}, "problem_id": "sample_124", "difficulty": "easy"}
{"model": "gemini-2.5-pro", "prediction": {"output": "TypeError: unsupported operand type(s) for -: 'numpy.str_' and 'numpy.str_'"}, "problem_id": "ClassEval_30@DataStatistics2.get_variance", "difficulty": "easy"}
{"model": "gemini-2.5-pro", "prediction": {"output": "INSERT INTO users (name, age, region) VALUES ('Tom', '30', 'USA')"}, "problem_id": "ClassEval_80@SQLQueryBuilder.insert", "difficulty": "easy"}
{"model": "gemini-2.5-pro", "prediction": {"output": -2}, "problem_id": "sample_685", "difficulty": "easy"}
{"model": "gemini-2.5-pro", "prediction": {"output": [5, 1, 3, 7, 8, "", 0, -1, []]}, "problem_id": "sample_430", "difficulty": "easy"}
{"model": "gemini-2.5-pro", "prediction": {"output": [58, 92, 92, 21, 21]}, "problem_id": "sample_41", "difficulty": "easy"}
{"model": "gemini-2.5-pro", "prediction": {"output": true}, "problem_id": "ClassEval_61@MusicPlayer.stop", "difficulty": "easy"}
{"model": "gemini-2.5-pro", "prediction": {"output": [["a", 1], ["b", 2], ["c", 3]]}, "problem_id": "sample_797", "difficulty": "easy"}
{"model": "gemini-2.5-pro", "prediction": {"output": "f.irst_second_third"}, "problem_id": "sample_559", "difficulty": "easy"}
{"model": "gemini-2.5-pro", "prediction": {"output": "0.5"}, "problem_id": "atcoder_ABC142_A", "difficulty": "easy"}
{"model": "gemini-2.5-pro", "prediction": {"output": [-2, 4, -4, -2, 4, -4]}, "problem_id": "sample_150", "difficulty": "easy"}
{"model": "gemini-2.5-pro", "prediction": {"output": "5*83*23***"}, "problem_id": "sample_292", "difficulty": "easy"}
{"model": "gemini-2.5-pro", "prediction": {"output": "llthh#saflapkphtswp"}, "problem_id": "sample_228", "difficulty": "easy"}
{"model": "gemini-2.5-pro", "prediction": {"output": 0.6666666666666666}, "problem_id": "HumanEval_4", "difficulty": "easy"}
{"model": "gemini-2.5-pro", "prediction": {"output": ""}, "problem_id": "sample_427", "difficulty": "easy"}
{"model": "gemini-2.5-pro", "prediction": {"output": []}, "problem_id": "sample_379", "difficulty": "easy"}
{"model": "gemini-2.5-pro", "prediction": {"output": null}, "problem_id": "ClassEval_18@CamelCaseMap.__delitem__", "difficulty": "easy"}
{"model": "gemini-2.5-pro", "prediction": {"noeohqhk": 623, "1049": 55}, "problem_id": "sample_349", "difficulty": "easy"}
{"model": "gemini-2.5-pro", "prediction": {"output": ",saw"}, "problem_id": "sample_20", "difficulty": "easy"}
{"model": "gemini-2.5-pro", "prediction": {"output": "Chris requires  ride to the irport on Fridy."}, "problem_id": "sample_731", "difficulty": "easy"}
{"model": "gemini-2.5-pro", "prediction": {"output": "1"}, "problem_id": "atcoder_ABC178_A", "difficulty": "easy"}
{"model": "gemini-2.5-pro", "prediction": {"output": 5}, "problem_id": "sample_725", "difficulty": "easy"}
{"model": "gemini-2.5-pro", "prediction": {"output": "89"}, "problem_id": "sample_618", "difficulty": "easy"}
{"model": "gemini-2.5-pro", "prediction": {"output": [1, 3, 3, 3, 3]}, "problem_id": "sample_226", "difficulty": "easy"}
{"model": "gemini-2.5-pro", "prediction": {"output": "816"}, "problem_id": "sample_49", "difficulty": "easy"}
{"model": "gemini-2.5-pro", "prediction": {"output": true}, "problem_id": "sample_97", "difficulty": "easy"}
{"model": "gemini-2.5-pro", "prediction": {"output": [6, 4, 2, 8, 15]}, "problem_id": "sample_344", "difficulty": "easy"}
{"model": "gemini-2.5-pro", "prediction": {"output": "zbzquiuqnx"}, "problem_id": "sample_118", "difficulty": "easy"}
{"model": "gemini-2.5-pro", "prediction": {"output": "abcdefghij"}, "problem_id": "sample_103", "difficulty": "easy"}
{"model": "gemini-2.5-pro", "prediction": {"output": [["a", 2], ["b", 1]]}, "problem_id": "sample_182", "difficulty": "easy"}
{"model": "gemini-2.5-pro", "prediction": {"output": [12, 1]}, "problem_id": "HumanEval_159", "difficulty": "easy"}
{"model": "gemini-2.5-pro", "prediction": {"output": 5}, "problem_id": "ClassEval_29@DataStatistics.median", "difficulty": "easy"}
{"model": "gemini-2.5-pro", "prediction": {"output": "2$z&5H3*1a@#a*1hris"}, "problem_id": "sample_294", "difficulty": "easy"}
{"model": "gemini-2.5-pro", "prediction": {"output": [15, 15, 15]}, "problem_id": "sample_202", "difficulty": "easy"}
{"model": "gemini-2.5-pro", "prediction": {"output": "1219362194"}, "problem_id": "codeforces_171_A", "difficulty": "easy"}
{"model": "gemini-2.5-pro", "prediction": {"output": "0"}, "problem_id": "atcoder_ABC169_C", "difficulty": "easy"}
{"model": "gemini-2.5-pro", "prediction": {"output": "mathematics"}, "problem_id": "sample_401", "difficulty": "easy"}
{"model": "gemini-2.5-pro", "prediction": {"output": 2}, "problem_id": "sample_403", "difficulty": "easy"}
{"model": "gemini-2.5-pro", "prediction": {"output": 6.25}, "problem_id": "ClassEval_94@VendingMachine.insert_coin", "difficulty": "easy"}
{"model": "gemini-2.5-pro", "prediction": {"1": {"employee_ID": "1", "name": "John", "position": "Manager", "department": "Sales", "salary": 100000}}, "problem_id": "ClassEval_43@HRManagementSystem.list_employees", "difficulty": "easy"}
{"model": "gemini-2.5-pro", "prediction": {"output": "unrndqafi"}, "problem_id": "sample_468", "difficulty": "easy"}
{"model": "gemini-2.5-pro", "prediction": {"output": 1}, "problem_id": "sample_54", "difficulty": "easy"}
{"model": "gemini-2.5-pro", "prediction": {"output": "a---c---s"}, "problem_id": "sample_393", "difficulty": "easy"}
