[INPUT]
{
    "self": {
        "estimator": {
            "alpha": 1.0,
            "l1_ratio": 0.5,
            "fit_intercept": true,
            "normalize": false,
            "precompute": false,
            "max_iter": 1000,
            "copy_X": true,
            "tol": 0.0001,
            "warm_start": false,
            "positive": false,
            "random_state": 0,
            "selection": "cyclic"
        },
        "threshold": null,
        "prefit": false,
        "norm_order": 1,
        "max_features": null,
        "estimator_": {
            "alpha": 1.0,
            "l1_ratio": 0.5,
            "fit_intercept": true,
            "normalize": false,
            "precompute": false,
            "max_iter": 1000,
            "copy_X": true,
            "tol": 0.0001,
            "warm_start": false,
            "positive": false,
            "random_state": 0,
            "selection": "cyclic",
            "n_iter_": 1000,
            "coef_": [1.0, 1.0],
            "dual_gap_": 0.0,
            "intercept_": 0.0
        }
    },
    "args": {
        "X": [
            [-1.98980636,  0.07285698],
            [-2.00350437, -0.98269968],
            [ 1.07501650, -2.10082473],
            [ 1.91909252, -0.28152635],
            [ 0.09764645,  0.58979914],
            [ 2.99723497,  0.85693318],
            [ 0.10437664,  1.04362959],
            [-1.30848704, -1.61024346],
            [ 2.20474963, -2.16942319],
            [ 1.17574587,  0.44871888],
            [ 2.37717493, -0.80299474],
            [ 2.35171315,  0.11887645],
            [ 2.73826765, -1.51501515],
            [ 1.24170346,  1.14471880],
            [ 2.16143176, -0.62773444],
            [ 0.79358489,  1.76249777],
            [ 1.99716634,  0.80608233],
            [ 0.40263403, -0.71854968],
            [ 0.00109512,  0.69116504],
            [ 2.25674669,  0.15518260],
            [ 1.86806798, -2.14910446],
            [-1.07388574,  0.85193198],
            [ 2.14467225, -1.53301551],
            [ 0.16237434, -1.65459123],
            [ 1.06916261, -0.93013999],
            [ 2.39922700, -0.11270165],
            [ 0.74694745, -0.97009222],
            [ 2.24562395,  1.28612871],
            [ 0.47875054,  0.31278707],
            [ 1.67865008,  0.62369317],
            [ 1.11522162,  1.05014196],
            [ 0.23491591,  1.48838294],
            [ 2.04613745,  0.40093710],
            [ 2.34322552,  0.01793846],
            [ 1.56159908,  0.94103081],
            [ 0.40101478,  0.74968813],
            [ 0.96668415, -0.42170588],
            [ 1.10853712,  0.63887350],
            [ 2.29382288, -0.03325109],
            [-0.48797644, -0.13434625],
            [ 0.36471217,  0.65663668],
            [ 1.28561144,  1.18641832],
            [ 0.03689595,  0.84506705],
            [ 0.93671939,  0.32554003],
            [ 0.16082092,  0.49916620],
            [ 0.87218320, -0.11327544],
            [ 1.84738090,  0.04016820],
            [-0.14159898,  0.55464726],
            [ 0.84141006, -0.36991607],
            [ 1.75749240, -2.08212975],
            [-0.28198218, -1.68086937],
            [-0.43913844, -0.17327197],
            [ 0.29579815, -0.00552499],
            [-2.31961214, -1.00218322],
            [-2.09188299, -1.29482133],
            [ 0.23200235,  0.19933938],
            [-1.81340364,  0.89326343],
            [-1.69233636,  1.11945991],
            [-0.58282188, -0.56619067],
            [-0.92920005, -0.86257489],
            [-1.37441918,  0.14493464],
            [ 0.00640039, -1.01704708],
            [-1.85136997,  0.11072686],
            [-0.36697401,  1.72756670],
            [-1.90298162, -0.27619201],
            [-0.60153217, -0.39202943],
            [-1.31250651,  0.77324633],
            [-0.36024852, -1.26851699],
            [-0.08042834, -1.47905171],
            [-1.14588226,  0.73195548],
            [-0.37574753,  0.50347912],
            [-0.76981815, -0.31130299],
            [-1.61531358,  0.38610065],
            [-1.34648160,  0.33286744],
            [-0.64582754,  0.26225487],
            [ 0.92098170, -1.87314661],
            [ 2.01791323,  1.31476412],
            [ 0.30145164,  0.09631079],
            [ 1.93619068, -0.51696780],
            [ 1.51895879, -1.27612782],
            [ 0.83026061,  0.70703571],
            [ 0.59210002, -0.21801688],
            [-0.22941492,  1.55457199],
            [ 0.71238023,  1.41960331],
            [ 0.42357856,  0.44961261],
            [ 0.48512187,  0.38672991],
            [ 2.59591868, -0.50556331],
            [ 2.65996104, -0.26201917],
            [ 0.76842715, -0.83993986],
            [ 0.82596527,  1.54038891],
            [-1.74111785,  1.12475605],
            [ 0.60253708, -0.19765139],
            [ 1.48845667, -0.29960842],
            [ 0.41505358,  0.95204008],
            [ 0.12168008, -0.14322323],
            [-0.63259015, -0.54980190],
            [ 2.52931692,  0.96648135],
            [ 1.14108402,  1.03034223],
            [-0.35100104, -1.00292551],
            [ 0.67316609,  1.86125222]
        ]
    },
    "kwargs": {}
}
[/INPUT]